tree
version=v4
num_class=1
num_tree_per_iteration=1
label_index=0
max_feature_idx=118
objective=binary sigmoid:1
feature_names=Column_0 Column_1 Column_2 Column_3 Column_4 Column_5 Column_6 Column_7 Column_8 Column_9 Column_10 Column_11 Column_12 Column_13 Column_14 Column_15 Column_16 Column_17 Column_18 Column_19 Column_20 Column_21 Column_22 Column_23 Column_24 Column_25 Column_26 Column_27 Column_28 Column_29 Column_30 Column_31 Column_32 Column_33 Column_34 Column_35 Column_36 Column_37 Column_38 Column_39 Column_40 Column_41 Column_42 Column_43 Column_44 Column_45 Column_46 Column_47 Column_48 Column_49 Column_50 Column_51 Column_52 Column_53 Column_54 Column_55 Column_56 Column_57 Column_58 Column_59 Column_60 Column_61 Column_62 Column_63 Column_64 Column_65 Column_66 Column_67 Column_68 Column_69 Column_70 Column_71 Column_72 Column_73 Column_74 Column_75 Column_76 Column_77 Column_78 Column_79 Column_80 Column_81 Column_82 Column_83 Column_84 Column_85 Column_86 Column_87 Column_88 Column_89 Column_90 Column_91 Column_92 Column_93 Column_94 Column_95 Column_96 Column_97 Column_98 Column_99 Column_100 Column_101 Column_102 Column_103 Column_104 Column_105 Column_106 Column_107 Column_108 Column_109 Column_110 Column_111 Column_112 Column_113 Column_114 Column_115 Column_116 Column_117 Column_118
feature_infos=[-99.076745527986148:55.405400180747066] [-99.106751324741126:110.44045938912444] [-94.081690321984894:52.577870349782295] [-94.564874213664837:110.53001271938373] [3.3945928906663663:100.00000000000001] [-5.6790355782564657:4.0601891697934818] [0:100] [0:100] [-100:100] [0:1] [-1:1] [-1:1] [0:1] [8.0824659184271255:100.00000000000001] [-5.740747792392062:4.8659011720015091] [0:1] [0:99.467864236937658] [0:99.999999999616648] [-2441.8129890706714:1278.6109261768488] [-2256.7338507416598:1067.4354655658285] [-648.2879015251151:393.62832100413033] [-366.66666666666663:366.66666666666674] [-359.69150430671266:358.53074272976539] [0:1] [0:1] [-5800.1875:2351.5625] [0:1326.7917944593889] [0:1300.188714599713] [-0.55144779070532957:1.5621322893124023] [2.4428588010961603:1514.5821490824992] [-99.177518100558075:0] [0:20] [0:17.676731744047846] [-0.96607947112577719:0.77105191299361853] [0:1] [-314919821.07314938:337474854.39858758] [0:98.777507831933335] [-1:1] [0:236] [0:244] [0:1] [0:1] [0:1] [0:25] [0:25] [0:25] [0:25] [0:100] [0:1] [0:1] [0:1] [0:1] [0:100] [0:30] [0:30] [0:15] [0:15] [0:1] [0:90] [0:1] [0:16] [-99.177518100558075:0] [-11.636266394826063:0] [0:3] [-94.307696084875886:356.65635753563936] [0:1] [0:1] [0:1] [0:1] [0:1] [0:1] [0:1] [0:1] [0:1] [0:3] [0:3] [0:3] [0:9] [0:3] [0:4] [0:4] [0:94.081690321984894] [0:1] [0:3] [0:109] [-101.06728697568118:104.00163784288901] [-109.96576723484168:693.84409154021284] [-95.397477137725787:302.27683304492746] [0:1] [0:1] [0.067234487437085405:2.8000000000000003] [0.016666666666666666:1] [0:4] [-1:105.22281821327269] [0:12855600621.963812] [-69.472374120479273:95.14979016183959] [-448.10396899969032:357.24970816716086] [-99.177518100558075:0] [-99.190873680475619:0] [-99.177518100558075:0] [0:1] [-1.3213157924943901e-16:1] [-10843.762398604538:98.489199350515619] [-90.747903928107348:6.9999972256747256] [-5.2500862783048365e-15:1] [0.81818170409141433:1] [-9.9907308867937203:10124.18833035772] [0:3] [0:5] [0:18] [0:8] [0:1] [-16.567347238443652:8.8302606627046245] [11.859999656677246:52.330001831054688] [-46.669083654361089:151.36435633925007] [-1:1] [-1.1013173375508667:3.5361183409045704] [-1:1] [-3:3]
tree_sizes=3096 2911 3300 3333 2689 2656 3108 3438 3328 3345 3108 3262 3137 3370 3264 3154 3166 3468 3376 3251 3377 3167 3456 3048 3266 3382 2796 3161 3165 3274 3062 3261 3147 3246 3260 3363 2711 3351 3365 3167 3365 2748 3242 3139 3232 3161 3129 3052 3269 3192 2851 3388 2742 3060 3176 2819 2421 3389 3274 3369 3403 3178 3498 3285 3396 3182 2521 3266 3256 3267 3050 2519 3162 3289 3306 3264 3508

Tree=0
num_leaves=28
num_cat=0
split_feature=27 94 27 29 27 94 25 16 29 112 77 19 14 14 85 115 14 101 96 92 90 93 94 93 112 16 35
split_gain=341689 148742 88217.6 39486.5 33962.2 25288.3 21109.3 22421.1 17983.6 12399.7 10875.4 10513.8 10198 8082.04 6078.29 8388.35 6003.04 5613.57 5521.19 5581.6 4658.58 4528.61 4488.23 4350.06 3978.73 3584.12 3501.41
threshold=5.5224543679545173 9724733.0138382148 4.3259275383997062 39.987591426823236 3.2075538485878381 58007847.765343316 -0.16074975132942224 32.170302295215023 19.654499669680103 -8.1873566307675709 1.5000000000000002 -1.7716875845151563 0.22329218951219407 -3.7634350589656509 1.838364592752473 1.0000000180025095e-35 -1.0542538114591278 0.90261655199620117 0.0048271185534888511 0.39083460346621551 1.0000000016628943 -0.50778657844768482 3416660.5112171476 0.14057776374225114 6.9384791027530044 36.517473592846621 -28927772.991769213
decision_type=2 10 2 8 2 10 10 10 8 10 2 2 10 8 10 8 10 10 8 8 10 10 10 8 8 10 10
left_child=1 8 4 14 12 -6 7 -4 10 20 16 -8 -3 -5 15 25 -1 24 26 -20 -10 -17 -12 -11 -16 -2 -15
right_child=3 2 6 13 5 -7 11 -9 9 23 22 -13 -14 18 17 21 -18 -19 19 -21 -22 -23 -24 -25 -26 -27 -28
leaf_value=-3.9396475411473855 -2.8104214476734954 -4.0393094453684011 -3.0226044848714912 -4.19773550754587 -3.4469656347795801 -3.7607610595024572 -4.2109682337497549 -3.5570107182950901 -3.160152082658799 -2.9665753533234027 -2.9342598471362162 -3.1295260440527897 -3.5569132051168837 -3.5330338561206958 -2.7913749085012389 -4.2062184133987 -3.3360834851748153 -4.1962609984934938 -4.1959983492417843 -2.7886561839116761 -3.8814997736263321 -3.3078744388733021 -3.2929622329072754 -2.6491037245228508 -4.1925465526793779 -3.0640268996405862 -2.5051397314070503
leaf_weight=26.03521996922791 141.38728681951761 246.64012246578932 92.29205934330821 2.7856687642633915 525.1186992879957 436.18434915132821 8.0491165872663242 361.76040896959603 24.157258940860629 137.08158317767084 119.72657060436904 481.05334877222776 45.700481485575438 6.6353662349283686 267.08816003799438 5.2048021648079148 42.779407721012831 2.5217633023858061 2.4777790587395421 171.05313537828624 15.446876378729938 73.947625102475286 87.675663709640503 187.25074853934348 1.7593697458505619 308.1183524671942 384.08271002583206
leaf_count=1515 2994 15323 2579 190 22387 23101 549 16721 735 3613 3016 15470 2074 257 5570 355 1614 172 169 3518 858 2762 3242 2993 120 9216 4423
internal_value=-3.20039 -3.38924 -3.50774 -2.81028 -3.67424 -3.58809 -3.28807 -3.4436 -2.98608 -2.83925 -3.18808 -3.14745 -3.95989 -2.61078 -2.95534 -3.03304 -3.55 -2.8138 -2.60285 -2.8089 -3.41158 -3.36657 -3.07557 -2.77477 -2.80067 -2.97836 -2.519
internal_weight=4204.01 2836.95 2196.8 1367.06 1253.64 961.303 943.155 454.052 640.153 363.936 276.217 489.102 292.341 567.035 800.027 528.658 68.8146 271.369 564.249 173.531 39.6041 79.1524 207.402 324.332 268.848 449.506 390.718
internal_count=145536 115790 98204 29746 62885 45488 35319 19300 17586 8199 9387 16019 17397 8557 21189 15327 3129 5862 8367 3687 1593 3117 6258 6606 5690 12210 4680
is_linear=0
shrinkage=1


Tree=1
num_leaves=26
num_cat=0
split_feature=113 98 86 20 1 95 94 61 116 94 116 94 95 86 18 19 114 113 116 61 31 61 8 114 114
split_gain=8062.49 7977.7 8640.29 5899.09 7065.97 4715.54 4204.35 4122.85 2806.79 2669.96 2651.93 2495.47 2475.15 2408.89 2112 1995.04 1721.74 1679.79 1528.59 1493.27 1445.12 1442.39 1353.05 1238.74 1166.3
threshold=21.889999389648441 -40.682889350582485 23.240343782532452 -0.033092891403166166 -6.8458865542788345 3.3185465265462537 625394203.34332478 -6.1084034208453666 0.41309169397554252 902805495.15323842 -0.022510685543325467 65167752.991800837 1.9151309965912982 -4.152906638328707 -3.7115727245234633 -0.15382216733742859 19.842000542679642 23.44999980926514 -0.31347631685830207 -16.506552604261497 1.5325752172164049 -11.390130521346761 19.540137656889744 -11.496188242338055 -13.795300277026289
decision_type=8 10 10 2 10 10 10 10 10 8 8 8 10 10 2 2 10 10 8 10 10 10 10 8 10
left_child=1 7 3 4 -3 11 -5 10 13 16 23 18 15 -9 -12 -13 19 -18 -2 -7 21 -4 -20 -1 -22
right_child=5 2 20 6 -6 9 -8 8 -10 -11 14 12 -14 -15 -16 -17 17 -19 22 -21 24 -23 -24 -25 -26
leaf_value=0.31661808338642206 -0.018003634636542878 0.27853798331891749 0.39308178113349251 0.30798647401948959 0.11087489865154604 0.23189127928357955 0.038953695552672703 0.47593209779214724 -0.021828743581902676 -0.020336432930684645 0.39819585808389385 0.21466302129949782 -0.025061172751601333 0.27051127822338544 0.31385620825057081 0.35672406849484001 0.21967896090033642 0.4413113027310373 0.41106055554572263 0.53376839716858016 0.60156592186046987 0.31361706896419761 -0.016761466763295051 0.38270787968312914 0.38548131445497857
leaf_weight=397.08074767235667 7.2364295786246657 529.80009168386459 493.30865640472621 1824.2275287918746 403.68822071328759 20.618418786674738 54.988667903468013 436.55122385825962 11.23809872381389 9.5208562910556775 344.48327070847154 127.07318294048309 17.856297960504889 70.415602167136967 2371.6650301394984 473.34446994680911 45.478252984583378 195.38927641510963 760.83405582793057 367.02896476443857 48.198363416828215 510.0490526817739 6.2850587591528884 1856.5252765687183 93.239815226756036
leaf_count=4136 205 8893 2826 33421 12073 256 2426 6096 393 385 2870 2334 559 1424 27446 4350 880 1680 8046 3881 253 6968 144 12673 918
internal_value=0.343179 0.331232 0.298117 0.269286 0.206488 0.398339 0.300196 0.354984 0.438329 0.468172 0.346108 0.365676 0.317241 0.448693 0.32486 0.32757 0.475708 0.401866 0.403354 0.519139 0.368309 0.35345 0.407443 0.371381 0.466897
internal_weight=11476.1 9445.46 3957.5 2812.7 933.488 2030.67 1879.22 5487.96 518.205 638.036 4969.75 1392.63 618.274 506.967 2716.15 600.418 628.515 240.868 774.356 387.647 1144.8 1003.36 767.119 2253.61 141.438
internal_count=145536 122816 67778 56813 20966 22720 35847 55038 7913 7082 47125 15638 7243 7520 30316 6684 6697 2560 8395 4137 10965 9794 8190 16809 1171
is_linear=0
shrinkage=0.03


Tree=2
num_leaves=30
num_cat=0
split_feature=0 27 98 101 87 13 19 19 0 98 38 3 101 98 20 36 27 38 18 4 3 112 108 99 93 33 29 95 113
split_gain=3904.35 5113.23 6570.88 3350.84 3570.23 3223.81 2251.52 2158.55 2128.1 1269.79 1445.77 2288.7 1372.75 2367.09 1405.07 1358.92 1157.55 2387.89 1678.95 1622.11 1596.27 1592.04 1053 855.267 724.49 661.169 381.974 359.466 352.42
threshold=10.300147252397332 4.201413261084455 -35.355274483316357 0.30290815603707721 -14.098051421662698 59.652064109449192 -0.29569170303676534 -4.7301715034524809 4.3478264390633523 -43.82562896518008 56.500000000000007 -6.1823214771348098 0.21070385590366117 -18.574331507879233 0.0581007682436138 78.49655939164127 4.3381601907342171 7.5000000000000009 0.32695921789228782 45.388041606909979 31.897735403505493 5.6114630515583306 1.5791576573252712 -3.5653672864920574 -0.37045712478685355 0.35215221062384466 18.088271385540434 1.8203758256862665 49.655000686645515
decision_type=10 2 10 10 8 10 2 2 10 8 8 2 8 10 2 10 2 10 2 10 2 10 10 10 8 10 8 10 8
left_child=1 2 3 4 -1 6 -4 -5 -7 10 15 -12 13 -11 -14 -3 17 18 21 23 -20 -2 24 -19 28 27 -26 -24 -18
right_child=16 9 5 7 -6 8 -8 -9 -10 12 11 -13 14 -15 -16 -17 22 19 20 -21 -22 -23 25 -25 26 -27 -28 -29 -30
leaf_value=0.36885484865274809 0.38310943456932606 0.2521933214922174 0.067251670170027644 0.43333346525695243 0.19393915586063543 0.20768345702534324 0.16408895981530183 0.2683334737518745 0.44052030719740459 0.22706534959282781 0.31184883584110323 0.15168757710427017 0.26245989969222028 0.0093112298950257816 0.22958873824819981 -0.025172276103216609 -0.022764373242993068 0.16950991283861908 0.077689779268220904 -0.013357476107265358 0.41272746062636068 -0.020496509351669537 0.19846904387527947 0.56985878553864877 0.14007652830945808 0.30551844052887855 0.29693171806608709 -0.02704813729600905 0.23718281714563477
leaf_weight=116.99370928294957 131.85039541311562 1372.5319324638695 280.27562548965216 83.426923532038927 1255.1906968373805 131.04339611530304 1044.8944222740829 958.1166866440326 52.72821756452322 1974.4312133155763 996.46998783014715 95.245294569991529 4198.7187482044101 46.741443689912558 1914.5307002142072 15.335716059431432 11.125563757494094 7.8976837042719117 52.361652817577124 4.8684179224073878 15.868386045098303 8.9026003759354335 6.5889504700899151 67.366877544671297 21.112675465643406 9.7679021637886745 660.89312366396189 22.011215725913644 5.3745951894670716
leaf_count=1145 491 8969 7644 548 17404 2920 23487 13462 665 18525 5518 1097 24628 1066 12648 252 191 150 950 144 51 194 5 380 257 15 2360 367 3
internal_value=0.244146 0.240032 0.210282 0.241145 0.209411 0.16062 0.143785 0.282413 0.278836 0.25098 0.270954 0.298234 0.244819 0.222073 0.252254 0.249053 0.301794 0.356866 0.297247 0.500595 0.165999 0.357232 0.279198 0.534101 0.287766 0.115202 0.292587 0.0325221 0.0751524
internal_weight=15562.7 14536.7 3922.67 2413.73 1372.18 1508.94 1325.17 1041.54 183.772 10614 2479.58 1091.72 8134.42 2021.17 6113.25 1387.87 1025.99 289.116 208.983 80.133 68.23 140.753 736.874 75.2646 698.506 38.3681 682.006 28.6002 16.5002
internal_count=145536 139978 67275 32559 18549 34716 31131 14010 3585 72703 15836 6615 56867 19591 37276 9221 5558 2360 1686 674 1001 685 3198 530 2811 387 2617 372 194
is_linear=0
shrinkage=0.03


Tree=3
num_leaves=30
num_cat=0
split_feature=27 113 35 98 91 112 96 27 32 88 18 88 27 89 106 112 4 21 112 64 92 112 92 38 106 38 5 93 101
split_gain=2300.43 4054.98 3790.09 3347.19 2370.8 2295.26 2149.46 2002.59 1993.27 1861.53 1788.67 1534.98 1309.93 1177.48 1049.81 850.521 846.233 842.449 2154.69 1698.6 1696.15 1681.6 1561.86 1297.07 232.653 337.796 154.552 146.934 129.455
threshold=4.1407645598174208 21.82499980926514 -45136.87397707886 -35.355274483316357 0.040408163265306128 2.2147950419228573 0.024833798527288693 3.1351837055709129 0.87368778892594834 0.51612922713002662 6.7495942731730603 0.26399996414184473 2.7131875314491283 0.35714280026160505 0.42918688278918987 -12.222892604970424 16.474233558801199 -50.928080711365894 -4.5423765093793635 14.68164530433255 0.74605291983988742 7.0832589127162739 0.88092913011845242 69.500000000000014 0.39629745590382687 172.50000000000003 -0.67190118140262511 0.9404374287720022 0.34831440233329608
decision_type=2 8 8 10 10 8 10 2 10 8 2 8 2 10 10 8 8 10 8 8 8 10 10 10 10 10 10 10 10
left_child=1 2 4 10 9 6 11 -6 -5 -1 -4 -3 16 -8 -14 24 -7 18 20 21 -17 -19 -20 -21 25 -2 28 -28 -26
right_child=15 5 3 8 7 12 13 -9 -10 -11 -12 -13 14 -15 -16 17 -18 19 22 23 -22 -23 -24 -25 26 -27 27 -29 -30
leaf_value=0.31125034820153008 -0.021087236806963377 -0.026526337885052334 0.20530898424839833 0.086671143552701835 -0.01682261713952803 0.23582519921586292 -0.029689140432253156 0.10622907546920889 0.17066121432053935 0.12500707350832269 -0.027780207816889356 0.23071240396903281 -0.020242291287279369 0.15791276443291521 0.30149098456380802 0.20292129948304105 -0.026631321349336011 0.18316591081547626 0.20017856252026536 0.20693725968290566 -0.0046327757450929027 0.059989698669236598 0.24973872089452268 0.074597382707204687 0.083909717608367115 0.24929025638642824 0.2654562486830892 0.14545682063936052 0.21148771144980869
leaf_weight=79.125709993764758 8.5811155028641206 21.245964046567678 1810.5669036768377 468.69324686005712 145.68267494253814 20.201972732320428 56.245002176612616 618.14422206394374 587.03730508685112 136.52622744068503 29.207015102729201 375.84779128991067 8.7293158080428821 60.463824719190598 408.69167387112975 65.38441633246839 20.579295946285129 5621.4068167768419 1731.3858349975199 5259.3506672047079 73.397038167342544 105.51077473536134 967.27892434410751 71.888650065287948 14.941888106986879 5.0604648590087882 303.76715155318379 20.086694173514843 46.498238509520888
leaf_count=985 112 439 16461 10136 4866 100 1219 12136 10123 1470 648 3884 189 530 2907 324 419 44761 6678 19401 1020 1345 3897 694 98 1 604 50 39
internal_value=0.191865 0.173574 0.159591 0.176928 0.108021 0.228817 0.183466 0.0826988 0.133665 0.19585 0.20155 0.216735 0.278523 0.0680201 0.294555 0.198038 0.106927 0.196683 0.212167 0.192667 0.0942201 0.180929 0.218136 0.205193 0.243869 0.0944264 0.24849 0.259136 0.185031
internal_weight=19141.5 4846.99 3874.98 2895.5 979.479 972.005 513.803 763.827 1055.73 215.652 1839.77 397.094 458.202 116.709 417.421 14294.5 40.7813 13895.6 2837.45 11058.2 138.781 5726.92 2698.66 5331.24 398.936 13.6416 385.294 323.854 61.4401
internal_count=145536 66512 56825 37368 19457 9687 6072 17002 20259 2455 17109 4323 3615 1749 3096 79024 519 78120 11919 66201 1344 46106 10575 20095 904 113 791 654 137
is_linear=0
shrinkage=0.03


Tree=4
num_leaves=24
num_cat=0
split_feature=26 27 94 35 89 29 49 26 27 91 94 8 39 98 106 93 33 93 110 19 21 112 21
split_gain=2433.85 2752.41 7393.99 2237.56 2040.54 4824.94 1708.91 1620.96 1493.22 1305.51 1242.64 1213.28 1131.72 980.312 946.087 869.817 811.906 633.958 489.516 253.402 206.954 72.0281 32.3496
threshold=0.043235333035659206 3.5691502354501297 18596874.650442507 -116857.84748005577 0.15883129505127344 12.711244913307125 1.0000000180025095e-35 0.086475920317844027 4.4280849520005203 0.76705426356589157 1863954100.6339042 32.24906272419129 104.50000000000001 -44.444444899468856 2.3559520615365264 -0.17241721030548909 0.15263333954083377 0.90767325766531781 1.5000000000000002 -0.013844131512545972 271.95091941620296 0.33993731299404312 -27.069456979650774
decision_type=2 2 10 8 10 10 2 2 2 8 10 10 10 10 10 10 10 10 8 2 10 10 10
left_child=9 2 3 14 5 -4 10 -6 13 15 11 -3 -5 -8 -2 -1 -12 -10 20 22 -11 -21 -17
right_child=1 6 4 12 7 -7 8 -9 17 18 16 -13 -14 -15 -16 19 -18 -19 -20 21 -22 -23 -24
leaf_value=-0.013865010879205553 -0.030264742498864756 0.16003091049483215 0.28213319232348705 0.18591148731576007 0.20203262902026167 -0.029788856446852096 0.18366896366978194 0.050067539069537349 0.18003558907527811 -0.024359194974054831 -0.029465534902229813 0.22010563669804889 0.040725963758178212 0.31905176870455337 0.13365554535749019 0.15128130486401359 0.21421666933947822 0.0277551163050123 0.22132657494727478 0.20818140330822221 0.14788755894064445 0.48380753958448075 0.31614253803342218
leaf_weight=4.9276343677192918 65.518051743507385 18347.222749531269 118.22275628149509 1529.0136248636991 66.032736223191023 69.90444016829133 89.345073815435171 1020.9230474568903 183.75705482438207 12.541286330670118 50.636768363416195 326.06687714345753 52.324127785861492 156.17666622065008 57.552127216011286 8.8498102426528913 14.008913315832613 30.395092662423849 83.420581519603729 6.2870515659451476 8.9471355192363262 32.674848262220621 32.167994616553187
leaf_count=110 1308 103238 1325 8458 1020 1657 327 23146 645 187 1105 687 696 528 453 84 41 285 36 58 23 78 41
internal_value=0.158855 0.157903 0.130699 0.171601 0.0757953 0.166819 0.162108 0.0597086 0.220428 0.266917 0.160651 0.161107 0.181203 0.271911 0.0468222 0.356339 0.0272847 0.159156 0.188671 0.379661 0.0512904 0.453132 0.290655
internal_weight=22366.9 22177.1 2979.49 1704.41 1275.08 188.127 19197.6 1086.96 459.674 189.816 18737.9 18673.3 1581.34 245.522 123.07 84.9073 64.6457 214.152 104.909 79.9797 21.4884 38.9619 41.0178
internal_count=145536 144919 38063 10915 27148 2982 106856 24166 1785 617 105071 103925 9154 855 1761 371 1146 930 246 261 210 136 125
is_linear=0
shrinkage=0.03


Tree=5
num_leaves=24
num_cat=0
split_feature=94 87 26 27 94 4 39 112 95 94 116 116 26 5 113 89 95 25 21 22 39 113 3
split_gain=1832.4 1920 1348.23 1486.89 3874.87 1635.49 1571.17 1236.55 1157.57 984.599 971.398 1195.68 914.703 700.53 575.631 580.135 546.263 534.792 376.292 305.859 277.417 264.156 178.575
threshold=669217601.62754977 19.845223284557012 0.043235333035659206 3.472356079807732 18242527.614709977 13.749392585276036 104.50000000000001 -12.222892604970424 15.559469667760014 27079960.076403145 0.33817691026437618 0.33842771787001574 1.1172113278688955 -1.8723407471441864 21.555000305175785 0.3986328920180558 4.2513523360337908 1.3097049891120067 83.192873900208482 -1.6982902972564291 9.5000000000000018 46.145000457763679 15.529017326104436
decision_type=10 8 2 2 10 10 10 8 10 8 10 10 2 10 10 8 10 8 10 8 8 10 2
left_child=2 7 14 4 6 -6 -4 -2 9 -5 13 -12 20 -9 15 22 18 -10 -14 -17 -3 -18 -1
right_child=1 12 3 8 5 -7 -8 10 17 -11 11 -13 16 -15 -16 19 21 -19 -20 -21 -22 -23 -24
leaf_value=-0.024615839995843922 0.21438491357819386 0.13506486793206388 0.14730789048410309 0.1483044192007705 0.16268810957647992 0.052624793626323565 -0.029894612319008283 0.17043967163313894 0.19091843482239293 0.13309003928469051 0.49673458054562564 0.0714546317608038 0.16532611163664765 -0.016091629781654928 0.29661324948226597 0.27447196155952547 -0.027530961209297378 0.15002404896735894 -0.021537386220136054 0.1656056179623325 -0.030211368547980229 0.149445983539223 0.12448049032514157
leaf_weight=14.977319108322263 29.959916803985834 9.8423515036702138 1685.4070685897022 5631.7553974911571 141.13957962580025 869.82965478673577 45.058990554884076 17.480799799785018 545.96258575841784 14562.433285104111 5.523436849936842 36.029461903497577 325.04607450589538 255.54059563390911 58.2692033611238 43.177851989865303 22.942896947264671 845.4080894049257 8.965762844309209 106.84127758070827 37.5117640607059 8.7947724983096141 10.368227958679199
leaf_count=297 57 60 8877 27662 2406 17558 727 90 1911 74983 24 464 1005 5880 95 44 411 2139 155 180 508 2 1
internal_value=0.135848 0.0892105 0.137276 0.136556 0.115326 0.0683406 0.14263 0.0363667 0.139239 0.13735 0.0179755 0.149577 0.132751 -0.00277777 0.210255 0.1782 0.148742 0.166365 0.160033 0.200533 0.00700613 0.0256844 0.038825
internal_weight=25318.3 757.638 24560.6 24327 2741.44 1010.97 1730.47 344.534 21585.6 20194.2 314.574 41.5529 413.104 273.021 233.634 175.365 365.75 1391.37 334.012 150.019 47.3541 31.7377 25.3455
internal_count=145536 8656 136880 136263 29568 19964 9604 6515 106695 102645 6458 488 2141 5970 617 522 1573 4050 1160 224 568 413 298
is_linear=0
shrinkage=0.03


Tree=6
num_leaves=28
num_cat=0
split_feature=90 27 89 91 64 106 27 38 86 58 90 26 38 61 118 27 14 4 27 61 4 84 0 105 31 1 106
split_gain=1679.8 2307.96 1727.72 1386.27 1347.34 1425.22 1279.73 1067.84 770.618 1438.3 1058.16 767.038 758.88 745.141 684.914 571.164 529.718 522.557 416.839 395.637 723.641 416.704 380.336 305.149 301.987 256.925 96.2125
threshold=1.1417442460349967 4.201413261084455 0.33035707269747794 0.98360215053763456 8.3872884233781253 1.40362970644512 4.0343590112138461 55.500000000000007 52.106213042624766 46.520067518386149 0.99964971280799841 0.98959929129516244 43.500000000000007 -1.2576764326448762 1.5000000000000002 4.4408317660390129 -2.8715960299167422 13.61496628928545 5.2919484851375058 -6.0329168738342247 16.387007423999947 23.500000000000004 12.26415523371748 0.98854198849760133 1.8853802387709242 -13.225803551912966 5.9062286672435302
decision_type=8 2 10 10 10 10 2 10 10 10 10 2 8 10 10 2 8 8 2 10 8 2 10 10 10 10 10
left_child=1 2 3 7 5 -4 -6 -1 9 14 -11 17 15 16 -3 -10 22 -2 -18 20 -19 -21 -13 24 -15 -5 -25
right_child=11 8 4 25 6 -7 -8 -9 12 10 -12 13 -14 23 -16 -17 18 19 -20 21 -22 -23 -24 26 -26 -27 -28
leaf_value=0.10385803502698822 -0.026088432485429153 0.12633310586944818 0.094445220842909253 0.10852802749145538 0.11555841493122349 0.023759240491013939 -0.0079759504206549994 0.14054674397006214 -0.025845350682207027 0.025758079873869168 0.10091708305674289 -0.03096776023130909 -0.028813318843336225 -0.023629459651729301 0.1118911350364967 0.15203559976230427 0.098820531195484451 -0.028192190970427116 0.12786973386010603 0.16872784289216664 0.13961752061301591 0.037869066287764645 0.11613301320659231 0.23750487476221391 0.16362958644041295 -0.030626215792912623 0.13200870481386687
leaf_weight=3157.8278232775629 15.032221723347901 9514.9897737763822 435.10285083204508 12.10796522721648 772.32774824462831 634.19024191610515 82.347599048167467 969.10565827973187 15.366241507232187 230.35708307661116 670.51508208177984 37.47511699795723 20.757985513657331 11.078177621588113 4744.5907173380256 1067.1946423649788 713.66848127543926 22.140626937150955 1603.8142814673483 749.99161662720144 2308.7082509677857 25.157070372253656 24.167929021641612 78.558311522006989 18.054125968366861 73.869369396939874 21.957269594073296
leaf_count=31411 176 35881 5244 117 7373 9615 1073 7413 196 1869 2925 412 194 155 22755 2003 4280 267 2637 2271 5435 173 52 139 27 1351 92
internal_value=0.118826 0.115082 0.0992448 0.110068 0.0754244 0.0527005 0.103595 0.112552 0.121042 0.119205 0.0818647 0.133666 0.145959 0.120808 0.121548 0.149412 0.116724 0.143899 0.119043 0.144757 0.137975 0.164666 0.0275993 0.192392 0.0935497 -0.0083258 0.21807
internal_weight=28030.5 22400.7 6136.88 4212.91 1923.97 1069.29 854.675 4126.93 16263.8 15160.5 900.872 5629.8 1103.32 2508.77 14259.6 1082.56 2379.13 3121.03 2317.48 3106 2330.85 775.149 61.643 129.648 29.1323 85.9773 100.516
internal_count=145536 129420 63597 40292 23305 14859 8446 38824 65823 63430 4794 16116 2393 7794 58636 2199 7381 8322 6917 8146 5702 2444 464 413 182 1468 231
is_linear=0
shrinkage=0.03


Tree=7
num_leaves=31
num_cat=0
split_feature=64 98 27 22 30 27 116 39 91 112 7 83 36 106 25 1 25 86 96 30 96 38 38 27 106 6 114 96 114 32
split_gain=1369.68 2310.38 1329.83 1033.67 1061.64 1083.14 1021.61 1097.68 959.072 922.504 1333.06 1241.16 753.67 693.845 653.945 984.732 915.053 1009.13 884.056 873.993 801.828 648.644 614.916 528.21 475.513 340.07 293.512 281.127 269.227 236.566
threshold=14.68164530433255 -40.682889350582485 4.720558447208691 -55.781526082648256 -9.7280470751550201 4.1895458933445644 -0.071368837710861208 167.50000000000003 0.5727513227513229 3.0123816554297527 16.606223231613026 2.5000000000000004 54.534831145051363 9.8948282763470807 0.16242249892022723 16.822428529354941 1.5309995651245123 68.310448203962352 -0.0060972320905694063 -6.2572069597407758 0.0059478185089272299 112.50000000000001 60.500000000000007 4.0215422395861991 1.2341989523588228 41.183024226236853 149.2773815571928 0.010485357366393522 11.467190363806226 0.89664884314185234
decision_type=8 10 2 8 8 2 10 8 8 10 10 2 10 10 8 8 8 10 10 10 10 10 10 2 10 8 8 8 10 10
left_child=1 3 9 8 5 -5 24 -8 12 10 -3 -11 -1 -6 19 16 18 -18 -16 22 29 -10 23 -2 -4 28 -24 -27 -17 -21
right_child=14 2 6 4 13 -7 7 -9 21 11 -12 -13 -14 -15 15 25 17 -19 -20 20 -22 -23 26 -25 -26 27 -28 -29 -30 -31
leaf_value=0.14228178750875359 0.01453111093490027 0.026063214409289073 0.16524701507421799 0.061617698775793255 0.12078206781869429 0.1015630934163877 0.084127181828637917 0.14534764756368895 0.11694609572803177 0.12030138706076725 0.077713056292990607 0.022519680721308454 0.23115797701276503 -0.030548280961943716 0.093988740296966952 0.10712573466677615 0.076261369100151633 0.13342774322606399 0.13138805362075262 0.24650609011344554 -0.025523064244786623 -0.029111547104936207 -0.03134451355702577 0.12640508659290769 0.11491071995357187 0.11583033238331258 0.14441175750267174 0.15899184317066137 0.1236038837108113 0.14937128964264426
leaf_weight=591.40642042271793 40.393699610605836 537.85297067463398 256.53079697489738 729.33811373449862 2774.1507913246751 4529.7274325527251 2203.9139950182289 306.96990448608994 1869.3997479006648 734.51954494975507 2955.5339947678149 141.96225121989846 110.35674079880118 26.16865449026227 1204.3560969121754 1965.2147455643862 1844.2479582801461 335.69447149336338 1178.3792614098638 97.272788871079683 12.622321289032696 26.379173547029495 34.409758843481541 2387.5197130478919 688.4310952052474 294.63078293204308 9.1243442520499212 374.74485358782113 2215.8594687730074 52.015784587711096
leaf_count=1908 604 6924 733 7114 13787 19075 11783 1002 5740 5862 31611 1877 155 228 4769 5992 9524 456 4035 191 130 316 310 4895 2972 376 10 531 2466 160
internal_value=0.105681 0.10047 0.0879849 0.109615 0.104179 0.0960603 0.102007 0.0917453 0.126364 0.0768403 0.0697975 0.104619 0.156961 0.119326 0.113654 0.109811 0.0995704 0.0852063 0.112604 0.127275 0.196244 0.114854 0.122577 0.124582 0.128959 0.119386 0.0088997 0.140485 0.115928 0.215481
internal_weight=30529.1 18482.6 7825.71 10656.9 8059.38 5259.07 3455.85 2510.88 2597.54 4369.87 3493.39 876.482 701.763 2800.32 12046.5 9413.13 4562.68 2179.94 2382.74 2633.36 161.911 1895.78 2471.45 2427.91 944.962 4850.45 43.5341 669.376 4181.07 149.289
internal_count=145536 111087 62764 48323 40204 26189 16490 12785 8119 46274 38535 7739 2063 14015 34449 28149 18784 9980 8804 6300 481 6056 5819 5499 3705 9365 320 907 8458 351
is_linear=0
shrinkage=0.03


Tree=8
num_leaves=30
num_cat=0
split_feature=27 86 13 58 28 26 81 86 113 113 18 13 4 86 92 27 30 4 108 4 4 4 22 32 3 27 27 26 21
split_gain=1319.6 2168.68 1887.12 1423.47 1421.37 1246.3 1115.67 1038.89 896.855 950.289 1118.75 825.696 722.259 456.699 514.776 796.054 777.901 722.182 431.019 985.984 465.168 326.934 507.03 362.665 308.489 293.372 426.519 320.679 248.382
threshold=4.9806856261190875 -15.088077367454892 20.856079752650775 85.332012177205442 0.39019480168986059 2.6487905591979199 4.9069219584713446 8.3302720429993897 11.934999942779543 12.065000057220461 -0.50383341044659147 23.09868497493331 17.021837805074565 25.260717618306529 0.76036380128499881 6.8026723915358307 -27.938149471926597 16.387007423999947 0.68817011387445548 14.314064665615367 11.66396758784248 25.535344748316628 -4.466989838517688 0.52318924020412105 37.705250206884422 5.4256658964390709 5.8014635749446031 0.23261584144660966 -56.401768640666894
decision_type=2 10 10 10 10 2 2 10 10 10 2 8 10 10 8 2 10 10 10 8 10 10 10 10 2 2 2 2 10
left_child=1 8 4 5 6 -4 -3 -5 24 10 -10 -11 -6 14 15 16 -2 -17 19 -16 -20 25 28 -24 -1 27 -27 -15 -23
right_child=13 2 3 7 12 -7 -8 -9 9 11 -12 -13 -14 21 18 17 -18 -19 20 -21 -22 22 23 -25 -26 26 -28 -29 -30
leaf_value=-0.031373403303062083 -0.011825519743220665 0.040845949529474693 0.073455960351540242 -0.029646631883366293 0.14511414965429012 0.037783092507701989 0.1171363189691455 0.1463912252911406 -0.028440708191933856 0.066360660364925786 0.19482418616391092 0.10441693909877273 0.1011228906945571 -0.021665979021863537 -0.032597719985410729 -0.031755170825521067 0.079961887390235312 0.10882938507402602 0.15783789894429345 0.094520302749254173 0.10477063074479155 0.12085709337412461 0.12172311809816974 0.09610905920414449 0.1373920513210761 0.03289831269699834 0.12173138729248487 0.16233646386501394 -0.032338061044554001
leaf_weight=60.175849365070462 84.931836802512407 479.4631030857563 5094.9531988352537 32.053342854604125 627.24874085001647 1083.4400689154863 274.3249454330653 315.43093349039555 21.802447147667408 589.40334858372808 171.72008339501917 5663.9032264519483 829.95076678879559 7.7855092957615843 54.245222635567188 32.179386362433434 2047.1484622154385 1412.4945446737111 162.88893805071712 3239.6780524849892 7117.3394510596991 10.658589437603949 905.63602432236075 1402.3890709653497 9.5352266728878003 55.80425064265728 774.69631423801184 239.30651888251305 36.073859710246325
leaf_count=732 607 4928 43216 406 2240 11743 1804 1054 256 4371 568 25289 4279 65 484 261 9335 2768 384 8071 16732 4 1033 2555 6 295 1324 434 292
internal_value=0.0951966 0.0886527 0.0788029 0.0706098 0.102873 0.0672243 0.0689261 0.129904 0.101821 0.102978 0.16933 0.100862 0.120273 0.100859 0.0983708 0.0881924 0.0762697 0.105617 0.101791 0.0923902 0.106009 0.111038 0.104302 0.106282 -0.00426461 0.125483 0.115928 0.156171 0.00489706
internal_weight=32836.7 15253.4 8736.87 6525.88 2210.99 6178.39 753.788 347.484 6516.54 6446.83 193.523 6253.31 1457.2 17583.3 14150.9 3576.75 2132.08 1444.67 10574.2 3293.92 7280.23 3432.35 2354.76 2308.03 69.7111 1077.59 830.501 247.092 46.7324
internal_count=145536 100892 69670 56419 13251 54959 6732 1460 31222 30484 824 29660 6519 44644 38642 12971 9942 3029 25671 8555 17116 6002 3884 3588 738 2118 1619 499 296
is_linear=0
shrinkage=0.03


Tree=9
num_leaves=30
num_cat=0
split_feature=27 86 0 113 18 26 113 104 114 14 96 27 35 1 60 31 86 31 112 114 112 114 14 27 27 22 27 1 21
split_gain=1215.8 1676.59 1319.62 895.167 1275.44 847.107 1022.26 792.525 691.266 752.355 663.939 643.712 639.737 1023.19 614.298 576.546 331.337 363.144 777.267 446.178 396.27 496.374 305.588 205.29 511.464 289.004 230.908 322.568 93.256
threshold=5.0163094242124329 -15.088077367454892 3.8001519207484185 18.279999732971195 1.6498175923081571 0.34091392990642883 16.550000190734867 0.33333333333333365 -10.763770703667085 -0.064487789528435424 1.1769133402412886 2.7912585677253046 -3070258.4926421237 -0.94339800882519687 5.5000000000000009 0.59446575257731304 44.161806568012473 0.6251258442340647 7.0660908947636001 -0.15862095093520653 3.3706408039791418 -26.193635940437094 1.0000000180025095e-35 5.4493752500208865 5.1288995774621302 60.95185580322886 5.8014635749446031 -2.3690926525923577 -31.410658838695493
decision_type=2 10 10 8 2 2 8 10 8 8 10 2 8 8 2 8 10 8 8 10 8 8 10 2 2 10 2 10 10
left_child=1 7 3 4 -3 11 -7 12 9 -9 -5 -4 13 -1 -14 -10 17 18 19 -2 22 -22 -19 24 -18 -26 27 -25 -28
right_child=16 2 5 10 -6 6 -8 8 15 -11 -12 -13 14 -15 -16 -17 23 20 -20 -21 21 -23 -24 26 25 -27 28 -29 -30
leaf_value=-0.031999470465629863 0.091979681352402767 0.057350543284981161 -0.028766638823088494 0.072890192674417154 -0.032211383759970402 0.038756078351081656 0.090763587897900913 -0.00012729470035022667 0.045219595111920245 0.072396014344354387 0.14977448975734825 0.11795560254344423 0.10097678626093883 0.11200164669509846 0.15900406788379709 0.092176288039549276 -0.028106046892380953 0.097815622523544199 -0.03257975268437157 0.072506536918130235 -0.031839814981688537 0.082697885784038194 0.078221691557480461 0.11404669538282378 0.15210356265650249 0.037820018212476478 0.051170601260148003 0 0.10301800319063419
leaf_weight=82.448587227612734 2860.9506830275059 2946.0353176370263 26.346458196640015 3482.0771745145321 148.3047349434346 462.92178039997816 1382.8591636549681 177.07764708064497 273.04811518825591 453.98343630507588 105.7618231009692 893.37885303981602 3416.547767771408 91.356670364737511 181.68714952468872 2422.6022221185267 15.94883733987808 8598.720587413758 49.978486239910126 1846.3272144962102 32.917972430586815 1961.8843404091895 873.2502774707973 37.688765715807676 219.76898854225874 25.187738597393036 42.554860755801201 52.156125873327255 1810.4326723851264
leaf_count=1061 7835 27704 387 24969 2198 4345 6772 1738 2118 1781 426 3594 12995 252 475 11223 126 18039 461 6326 277 5157 2506 73 271 126 130 283 1888
internal_value=0.086609 0.0806318 0.0722794 0.064987 0.0530206 0.0898184 0.0778086 0.0917159 0.0808051 0.0520149 0.0752555 0.113634 0.101275 0.0437631 0.10401 0.0874792 0.0919635 0.0903993 0.0831339 0.0843885 0.0933932 0.0807478 0.0960324 0.103359 0.130296 0.140997 0.0995809 0.0495949 0.101916
internal_weight=34974.2 16546.4 9447.69 6682.18 3094.34 2765.51 1845.78 7098.75 3326.71 631.061 3587.84 919.725 3772.04 173.805 3598.23 2695.65 18427.8 16224 4757.26 4707.28 11466.8 1994.8 9471.97 2203.74 260.906 244.957 1942.83 89.8449 1852.99
internal_count=145536 102038 70395 55297 29902 15098 11117 31643 16860 3519 25395 3981 14783 1313 13470 13341 43498 40601 14622 14161 25979 5434 20545 2897 523 397 2374 356 2018
is_linear=0
shrinkage=0.03


Tree=10
num_leaves=28
num_cat=0
split_feature=90 27 38 113 92 30 46 64 113 26 4 91 108 89 89 39 29 45 4 7 27 108 96 96 103 103 2
split_gain=1200.42 1320.36 1606.19 1909.19 1174.59 1127.77 733.569 555.541 549.574 360.307 368.128 319.539 415.896 566.975 467.938 390.287 326.352 237.001 358.688 425.902 291.074 242.676 136.885 132.596 110.284 95.1346 247.706
threshold=1.2204722003913231 5.0344622733586908 61.500000000000007 23.44999980926514 1.0266981540074787 -15.962883240707471 1.0000000180025095e-35 -3.5979535999122336 28.755000114440922 0.11585199874208531 31.400289324900296 0.76705426356589157 0.78292503261567825 0.085483105010463134 0.68421042394646292 4.5000000000000009 19.549278510044907 20.000000000000004 22.406406968767481 15.185245639971441 3.4965985442491601 1.9637975433892223 12.174673027297372 -0.059941251413798489 -2.6410706047958752 -2.6410706047958752 13.723364783216864
decision_type=8 2 8 8 10 10 2 8 8 2 8 10 10 8 10 8 10 2 10 10 2 8 8 10 10 10 2
left_child=1 2 3 4 -1 -5 7 -4 -8 10 24 12 13 -3 -14 -13 -17 18 19 -11 -20 23 -23 -19 -2 -12 -27
right_child=9 11 6 5 -6 -7 8 -9 -10 17 25 15 14 -15 -16 16 -18 21 20 -21 -22 22 -24 -25 -26 26 -28
leaf_value=0.047902964495461442 0.066907305146225476 -0.033907691416660904 0.14907236131060067 0.0082398054387177715 0.071467988685355255 0.098945038772503879 0.080428746094375655 0.094005637403176218 0.01980203607966851 0.10538658847716811 0.10739432662703667 -0.032958901640948224 0.090719536747653207 0.079727449002314821 0 -0.030317349118541434 0.076708326245497976 0.093416831810647388 0.023058487275920046 0.0020104638792262292 0.089927243341352534 -0.029902597538895247 0.084139507940596839 0.11287149524672191 0.16519164685480081 -0.030708393241581099 0.096648408388456827
leaf_weight=4820.3800446968526 17.319716114550829 38.04943123832345 234.10000116378069 135.49307858385146 3210.0208425745368 1622.2422963995486 5029.665838746354 702.65816212072968 142.55065596103668 54.574398417025805 172.58783975988626 28.062658749520779 7791.5123796537519 5268.9479487836361 52.610511381179094 24.045805186033249 3494.783378906548 907.93718861043453 64.468083705753088 101.58279402554035 2069.929288700223 19.93391565605998 14.311626791954039 720.6298252157867 156.12119938060641 18.107535723596811 41.200261630117893
leaf_count=41615 60 263 397 1074 20932 6968 23393 2967 961 208 62 189 17303 13129 315 202 8322 1227 401 684 3392 174 27 980 149 131 11
internal_value=0.0794406 0.077437 0.0711875 0.0635933 0.0573456 0.0920045 0.0833207 0.108119 0.0787777 0.094368 0.122357 0.083374 0.0856036 0.078889 0.0901176 0.0750465 0.0759431 0.0914227 0.0847116 0.0393939 0.0879591 0.100518 0.0181145 0.10219 0.156594 0.0953738 0.0570526
internal_weight=36953.8 32595.1 15897.1 9788.14 8030.4 1757.74 6108.97 936.758 5172.22 4358.7 405.337 16698 13151.1 5307 7844.12 3546.89 3518.83 3953.37 2290.55 156.157 2134.4 1662.81 34.2455 1628.57 173.441 231.896 59.3078
internal_count=145536 138030 98307 70589 62547 8042 27718 3364 24354 7506 413 39723 31010 13392 17618 8713 8524 7093 4685 892 3793 2408 201 2207 209 204 142
is_linear=0
shrinkage=0.03


Tree=11
num_leaves=29
num_cat=0
split_feature=94 27 26 14 94 18 27 92 57 92 18 33 53 33 13 28 33 89 53 92 8 0 29 14 108 30 13 30
split_gain=1215.19 2530.68 1428.52 1288.44 1256.61 847.697 831.782 935.434 983.09 747.452 699.181 614.427 478.308 551.834 490.991 876.707 424.564 316.117 425.454 286.267 786.76 244.637 242.544 237.56 262.044 249.313 223.78 137.605
threshold=18940241.194580439 3.6156175036105398 0.086475920317844027 0.91002199232916647 36250848.685150824 -0.021219971985463045 6.2055032241544099 1.0447935063303655 1.0000000180025095e-35 0.83615983609545153 0.86476141701548681 -0.54019762281066308 9.7703242765393377 -0.43820499866870194 16.263875215545362 0.20165946664851639 -0.078957582468760348 0.085483105010463134 8.3080981799114877 0.70588651909604982 -22.113061899324006 -15.580077727452318 26.174816559188177 0.054108584371456207 0.70156881621126133 -6.2572069597407758 89.249570501808918 -15.13638600964298
decision_type=10 2 2 10 10 2 2 10 2 10 2 10 10 8 10 8 10 8 10 10 10 10 10 8 10 10 10 10
left_child=12 2 4 11 -2 -6 7 8 -3 -5 -9 -4 13 21 15 -15 -16 18 -8 20 27 -1 -19 24 -21 -25 -22 -14
right_child=1 6 3 9 5 -7 17 10 -10 -11 -12 -13 19 14 16 -17 -18 22 -20 23 26 -23 -24 25 -26 -27 -28 -29
leaf_value=0.10702716340122903 -0.030530865135339421 0.077167984245867183 0.13192443897855341 -0.028346824657368701 -0.027699885005271114 0.16184340809593836 -0.011703483911940253 0.081461385465860486 0.054891054894646449 0.14243180187753249 0.050022641260929215 0.022809470929803431 0.070396141331258419 -0.032987913808521431 0.069023693747241696 0.090303548246215767 0.082990559458433533 0.070854509552677428 0.074906687020903473 0.076314692719502739 -0.033373642013226172 -0.033060908934877273 0.084431261511684563 0.076805768113160811 0.10750616514224003 -0.030386310154805321 0.093954557931829386 0.16430024077706529
leaf_weight=11.808271147310732 46.518302790820599 2607.5777161885053 45.95380387455225 26.419151920825243 22.846476595848799 179.42629353702068 78.22672425955534 5096.1772572025657 5939.0241795964539 133.06317455694079 753.74784863740206 1961.6352479606867 34.541078962385654 51.069085069000721 5190.0425069313496 3332.6950335390866 3417.5651191845536 1678.8976009897888 136.88675789907575 344.54999493062496 68.819124229252338 56.891883727163076 5919.2535092644393 236.65567581355572 1352.7450915910304 19.383086577057838 12.968080833554266 37.722443263977766
leaf_count=7 607 12733 269 369 325 483 441 18429 32263 619 3551 26237 72 436 15618 4851 9612 4533 242 926 620 525 8218 460 2911 149 4 26
internal_value=0.0733482 0.0692797 0.0400108 0.0320909 0.107951 0.140079 0.0724569 0.0681163 0.0617113 0.113769 0.0774393 0.0254658 0.0804048 0.0780248 0.0785108 0.0884067 0.0745941 0.0804276 0.0433166 0.09391 0.0525572 -0.00578724 0.0814587 0.0970835 0.101307 0.0682858 -0.0107078 0.123328
internal_weight=38793.1 24625.7 2415.86 2167.07 248.791 202.273 22209.8 14396.5 8546.6 159.482 5849.93 2007.59 14167.5 12060.1 11991.4 3383.76 8607.61 7813.26 215.113 2107.38 154.051 68.7002 7598.15 1953.33 1697.3 256.039 81.7872 72.2635
internal_count=145536 109319 28909 27494 1415 808 80410 66976 44996 988 21980 26506 36217 31049 30517 5287 25230 13434 683 5168 722 532 12751 4446 3837 609 624 98
is_linear=0
shrinkage=0.03


Tree=12
num_leaves=28
num_cat=0
split_feature=64 22 0 91 35 21 91 84 35 106 35 90 25 79 91 21 60 18 38 64 91 13 96 96 8 115 81
split_gain=1163.09 1488.42 697.175 1103.23 942.109 891.195 568.136 519.087 545.716 538.98 456.567 685.774 589.555 668.449 534.06 499.988 408.626 391.685 357.217 318.465 659.453 225.936 255.584 203.637 180.528 159.753 153.417
threshold=14.68164530433255 -55.781526082648256 -11.865411408844448 0.21498599439775914 -45136.87397707886 -39.189744782249328 0.11647286821705428 1.5000000000000002 -13259.097884591924 0.86579797945315351 1360.865803112071 1.0464697984331197 2.4786408313680011 2.5000000000000004 0.60172413793103463 45.497791089064165 7.5000000000000009 0.5040760111602457 76.500000000000014 24.646104289500567 0.98360215053763456 30.111751057195534 0.34917243015658744 -0.046439204540694133 35.897491070042427 1.0000000180025095e-35 5.5645113582824761
decision_type=8 8 10 10 10 10 10 2 10 10 8 8 10 2 8 10 2 2 10 8 10 10 10 10 8 8 2
left_child=1 7 6 5 -5 -4 23 8 16 -10 14 12 18 -14 15 26 -1 -8 -12 20 -13 25 -23 -3 -21 -16 -2
right_child=10 2 3 4 -6 -7 17 -9 9 -11 11 19 13 -15 21 -17 -18 -19 -20 24 -22 22 -24 -25 -26 -27 -28
leaf_value=0.074316698140355311 0.10940030553138458 -0.035961511143303995 0.04076110892661769 0.041430640663695409 0.059745639752008459 0.071270269362056604 0.084478197813895345 -0.035452006713013191 0.12915868033034381 0.085532272891384459 0.066037880542368282 0.070377009904799934 -0.0090977124391531366 0.061736560366419287 0.085239122687994967 -0.031630294872932896 -0.032975951699134413 0 -0.03199358759122567 0.078609945705735276 -0.0022930973554276669 0.064646389900570922 0.099796825810305648 0.084768414181719709 0.098222777861580859 0.017037687479961594 0.076102488939724031
leaf_weight=2679.5389739070088 899.27798729017377 51.248313866555691 1005.7694058325142 4208.7566631361842 6547.7848305832595 6948.6165409330279 1678.4221162684262 32.809900976717472 355.21767623722553 1114.92876316607 3351.3310314677656 1783.4751452803612 220.05069814994931 256.9519388563931 1971.4938996210694 23.528007049113512 30.501660034060478 51.270901706069708 31.860832389444113 4456.0607509873807 118.10116974636912 1675.4509049467742 225.78068478405476 14.371181383728979 537.77238303795457 34.789289792999625 185.48094019107521
leaf_count=8507 1541 319 5904 26371 32783 30879 2822 187 404 2385 9917 5150 1882 1048 1505 196 235 264 253 7478 842 3463 226 27 425 199 324
internal_value=0.0681185 0.0640187 0.0606543 0.0589114 0.0525941 0.0674314 0.0786994 0.0803437 0.0812834 0.0962752 0.0745315 0.0709486 0.0606573 0.0290325 0.0821712 0.100929 0.0730636 0.081986 0.0650786 0.076682 0.0658345 0.0767867 0.0689527 -0.00690823 0.0807725 0.0841045 0.103913
internal_weight=40490.6 24719.2 20506.2 18710.9 10756.5 7954.39 1795.31 4213 4180.19 1470.15 15771.4 10755.6 3860.19 477.003 5015.8 1108.29 2710.04 1729.69 3383.19 6895.41 1901.58 3907.51 1901.23 65.6195 4993.83 2006.28 1084.76
internal_count=145536 111087 99369 95937 59154 36783 3432 11718 11531 2789 34449 26995 13100 2930 7454 2061 8742 3086 10170 13895 5992 5393 3689 346 7903 1704 1865
is_linear=0
shrinkage=0.03


Tree=13
num_leaves=30
num_cat=0
split_feature=27 94 38 113 35 5 58 35 98 5 106 25 33 46 93 64 93 92 20 6 98 20 103 38 35 114 105 29 83
split_gain=1155.56 1791.76 1251.93 1272.24 1000.3 873.515 817.003 754.459 1615.74 742.18 764.2 520.244 471.647 397.516 638.137 387.826 556.574 536.164 394.629 477.311 423.037 331.883 221.565 208.186 352.009 224.123 284.902 177.662 164.736
threshold=5.0712854482045531 27079960.076403145 57.500000000000007 21.889999389648441 78589.96388697323 -0.49335510193964444 23.496505239194565 -45136.87397707886 -29.75992238494435 -1.8723407471441864 0.39629745590382687 -16.375624847412109 0.034235971410287953 1.0000000180025095e-35 -0.46688476301818105 15.297323398358145 -0.49397085910533817 0.68531981032111089 0.91834790867114269 29.069149042867547 -40.145985909571245 -1.0507346800906465 -4.372180955606491 69.500000000000014 6877228.5388501799 -34.019286320033949 0.9327977886678499 7.7207375745800428 1.0000000180025095e-35
decision_type=2 10 8 8 10 10 8 10 8 10 10 8 10 2 8 8 10 8 2 10 8 2 10 10 8 10 8 8 2
left_child=1 6 3 4 -3 -5 7 8 -1 12 -11 -9 -4 27 -15 16 17 21 20 -20 -18 -2 -19 25 -25 26 -17 -8 -27
right_child=15 2 9 5 -6 -7 13 11 -10 10 -12 -13 -14 14 -16 23 18 22 19 -21 -22 -23 -24 24 -26 28 -28 -29 -30
leaf_value=0.010212763552272949 -0.034081871550532293 0.017975668030571053 0.11400519942221661 0.024070389481355967 0.045065740268660705 0.077233965214210304 0.16665524222760825 0.10240449870377968 0.069859474301311744 0.10427268213089567 0.054069412976039274 0.064124126256787456 -0.029505309307611013 -0.032468904055437869 0.075625348168196771 -0.036527460687440873 0.074791827864695959 0.055977433806528011 -0.0088809285802541171 0.083228665824191417 0.062139760790210108 0.05740689013698156 -0.023116441120354686 -0.034434578734458966 0.081203416451888499 0.070024499376640417 0.059059641705664787 0.095036232418153302 0.078491602189354331
leaf_weight=741.24574664607644 35.437124527990818 1983.805591603741 341.31648076325655 364.66592834331095 3269.6799739506096 1256.5657808687538 37.390963554382324 352.23106917738914 918.65077743493021 310.45741935633123 2563.8251535911113 5054.3721812367439 20.45377566665411 48.255856245756149 2661.1873063016683 27.483541496098042 4241.2797273024917 39.210501722991467 133.81507220491767 78.205004625022411 5999.3310717009008 721.87544310465455 137.05461259186268 43.206598903983831 47.201267071068287 4554.9158736243844 552.64873163029552 704.28635150939226 4837.5490245297551
leaf_count=5529 247 19218 841 2544 23122 5445 64 769 3341 1307 14588 17520 174 433 7890 145 8006 79 681 93 16486 2261 807 298 60 6488 1113 972 5015
internal_value=0.0635448 0.058433 0.049369 0.0420763 0.0348582 0.0653572 0.0671295 0.0612007 0.043304 0.0648077 0.0595816 0.0666661 0.105609 0.0792096 0.0736555 0.0684522 0.0645567 0.0420189 0.0665555 0.0252742 0.0673992 0.0529683 -0.00475466 0.0728404 0.0257407 0.0732561 0.0543182 0.099166 0.0744076
internal_weight=42077.6 20628.4 10110.8 6874.72 5253.49 1621.23 10517.6 7066.5 1659.9 3236.05 2874.28 5406.6 361.77 3451.12 2709.44 21449.2 11386.2 933.578 10452.6 212.02 10240.6 757.313 176.265 10063 90.4079 9972.6 580.132 741.677 9392.46
internal_count=145536 103757 67239 50329 42340 7989 36518 27159 8870 16910 15895 18289 1015 9359 8323 41779 28660 3394 25266 774 24492 2508 886 13119 358 12761 1258 1036 11503
is_linear=0
shrinkage=0.03


Tree=14
num_leaves=29
num_cat=0
split_feature=27 94 27 38 113 118 104 13 58 25 36 113 27 101 81 13 25 3 62 38 29 87 29 13 18 14 98 108
split_gain=1106.72 1578.24 1103.31 1031.01 1043.89 745.354 729.875 476.3 579.249 466.745 592.211 338.387 311.443 609.105 902.276 596.582 423.253 367.369 363.4 284.895 253.056 921.758 292.119 315.295 283.554 261.532 191.311 162.148
threshold=5.0712854482045531 27079960.076403145 2.6243243080081569 57.500000000000007 21.889999389648441 -2.4999999999999996 0.25316353052775958 16.706921278385437 23.496505239194565 -0.071249976009130453 50.306908851648814 14.320000171661379 7.3071033643207999 0.1437498190750259 6.5536396166534239 35.306490943805862 -3.3099983692169164 -23.35280208198219 -0.71493399959209292 96.500000000000014 25.782523270684852 -22.562299677108346 36.441507988590224 31.597603188283696 9.9803124753914307 -2.5914559670257922 -52.834811446856165 1.6735656859898878
decision_type=2 10 2 8 8 10 10 10 10 10 10 10 2 8 2 10 10 2 8 10 8 10 8 10 2 10 10 8
left_child=1 6 -3 4 -4 -5 9 11 -9 10 -1 -8 13 14 16 -16 -2 26 -19 -11 21 24 23 -22 -14 -23 -15 -24
right_child=12 2 3 5 -6 -7 7 8 -10 19 -12 -13 20 17 15 -17 -18 18 -20 -21 22 25 27 -25 -26 -27 -28 -29
leaf_value=0.070677651635092972 -0.035771751199152206 -0.031265524441124862 0.034257726958798307 -0.016161513447301781 0.061530443049821262 0.063810593944447408 0.019890782882387076 0.044828647361456669 0.067503171895013175 0.087396479939731833 0.035227012862419416 0.077611550659268905 -0.037685250915932771 -0.036431968400636505 0.075471781995654727 0.045480609905641359 0.028412676809908253 0.058584857290560143 0.069471622056883758 -0.029242996145085454 0.018804734149888942 -0.032071938433409358 0.069710286750859107 0.088015165640182774 0.10537462491487859 0.077758423005749214 0.082108572446435837 0.049330889224533929
leaf_weight=2748.8039759732783 113.56959203258157 160.44286715984344 5281.6881049238145 106.42703530564904 1677.1022557429969 3234.2659348845482 104.44766272604465 3507.5485423952341 1468.6112622208893 1446.4688071422279 517.61220989003778 1116.6488348916173 111.75435011088848 47.999165628105402 1011.388213057071 1542.5871771126986 452.32765627279878 4742.0495275221765 7441.2647845670581 17.430835627019405 65.898654438555241 18.806629210710526 4569.5150742903352 1224.0128171145916 11.901401147246359 352.50071771815419 14.136514224112032 428.28260977566242
leaf_count=7305 800 3058 40182 812 7750 15437 609 15261 5072 3153 2486 2496 652 283 1759 4659 2095 9734 14437 136 229 111 4107 1535 3 561 4 810
internal_value=0.0595424 0.0546364 0.046263 0.0474824 0.040855 0.0612368 0.062636 0.0557674 0.0515571 0.0715945 0.0651033 0.072764 0.0642719 0.0618334 0.0498308 0.0574305 0.0153453 0.0648779 0.0652495 0.0859287 0.0697673 0.0483257 0.0714298 0.0845604 -0.0219807 0.0718928 -0.00680778 0.0679963
internal_weight=43535.5 21387.5 10459.9 10299.5 6958.79 3340.69 10927.6 6197.26 4976.16 4730.32 3266.42 1221.1 22148 15365.3 3119.87 2553.98 565.897 12245.4 12183.3 1463.9 6782.67 494.963 6287.71 1289.91 123.656 371.307 62.1357 4997.8
internal_count=145536 103757 67239 64181 47932 16249 36518 23438 20333 13080 9791 3105 41779 33771 9313 6418 2895 24458 24171 3289 8008 1327 6681 1764 655 672 287 4917
is_linear=0
shrinkage=0.03


Tree=15
num_leaves=28
num_cat=0
split_feature=27 94 87 38 86 86 25 93 88 104 38 35 26 7 38 4 94 103 88 7 27 86 26 114 30 8 88
split_gain=1089.8 1443.84 879.223 1151.48 898.419 786.163 825.271 774.787 763.548 633.745 546.88 724.681 513.193 510.552 484.009 294.943 672.028 457.797 353.581 215.971 139.721 188.396 382.091 186.097 133.565 294.504 121.658
threshold=6.1218848929794953 179957100.9975749 2.8041939999458521 55.500000000000007 -38.524270798066809 -12.96294429057984 -0.15400011539459244 -0.21398187193744792 0.72443804365300013 0.033334075079552571 80.500000000000014 -5139848.7770172479 0.043235333035659206 24.907707488801943 113.50000000000001 16.387007423999947 127277107.04766369 0.31191515610764503 0.32227499791268915 42.163383525716121 8.8292443418687956 -17.089941759901766 0.13938086373508971 6.4394188152976932 -19.956941541479054 12.631157699007321 0.13724878626253723
decision_type=2 10 10 8 8 10 10 10 10 10 10 8 2 10 10 10 10 10 8 10 2 10 2 8 10 10 8
left_child=1 5 3 4 -3 10 7 -7 -5 -4 11 -1 -8 -11 -12 16 17 18 -2 -19 21 22 -17 -23 26 -26 -22
right_child=15 2 9 8 -6 6 12 -9 -10 13 14 -13 -14 -15 -16 20 -18 19 -20 -21 24 23 -24 -25 25 -27 -28
leaf_value=-0.010038379528698831 -0.034580758432274671 0.10824022512259647 -0.034105929484873787 0.031877413074692502 -0.0033587989219384233 0.02445014683349014 0.10475273014391451 0.048881033064461836 0.096675335464343384 0.050469848634650566 0.087703798641930786 0.05915270519595759 0.054686457674473533 0.10743523045281736 0.040503942115416608 -0.036978512579554999 -0.037111977375345391 -0.037284188563426732 0.069109642408619831 0.085027244072792746 0.041740945524349655 0.070369337838274357 0.058692236717622512 0.05650804607963502 -0.036817616414591955 0.076679994376075797 0.07265262319518867
leaf_weight=135.75272740796208 29.356135375797749 66.829071648418903 69.082025647163391 671.34517256170511 1133.638475285843 1767.5891744848341 191.515290889889 3558.1923855822533 218.54502012208104 1152.9973150249571 1079.9712501466274 12046.209846938029 8927.5790737383068 164.84779500029981 251.46087162196636 35.841922417283058 79.464217022061348 64.080167062580585 539.12150551751256 14.045079439878462 138.84815495461226 3568.3472374789417 4780.3625640124083 1310.3231343626976 32.894536852836609 47.322342500090599 2817.7206126637757
leaf_count=771 178 193 651 4228 11098 11171 282 18603 534 6216 2282 34738 34100 732 1061 193 480 373 879 10 300 4328 7616 2154 180 29 2156
internal_value=0.0559823 0.0529 0.0345861 0.0222149 0.00297363 0.055173 0.050258 0.0407961 0.0480393 0.0531299 0.0604141 0.0583752 0.0557672 0.057793 0.0789085 0.0631687 0.0440476 0.0541979 0.0635474 -0.0129731 0.0642474 0.0623652 0.0579528 0.0666834 0.0701914 0.0296448 0.0712504
internal_weight=44893.3 31435.6 3477.28 2090.36 1200.47 27958.3 14444.9 5325.78 889.89 1386.93 13513.4 12182 9119.09 1317.85 1331.43 13457.7 726.067 646.603 568.478 78.1252 12731.7 9694.87 4816.2 4878.67 3036.79 80.2169 2956.57
internal_count=145536 126660 23652 16053 11291 103008 64156 29774 4762 7599 38852 35509 34382 6948 3343 18876 1920 1440 1057 383 16956 14291 7809 6482 2665 209 2456
is_linear=0
shrinkage=0.03


Tree=16
num_leaves=28
num_cat=0
split_feature=64 98 91 114 29 98 61 113 19 32 64 102 28 28 61 86 83 2 25 95 20 29 27 86 98 28 33
split_gain=1096.09 1241.19 571.34 836.62 767.27 708.245 647.029 646.587 499.028 557.911 553.859 470.066 749.311 409.68 403.761 378.155 369.463 508.171 508.462 771.912 616.79 307.173 293.228 262.808 253.791 220.25 163.798
threshold=14.68164530433255 -37.249082749688533 0.21498599439775914 23.629656946292901 11.435921195464323 -22.293577297928824 -17.631044273571437 19.090000152587894 -6.7305566891709683 0.54721581463291014 8.49056486433396 -2.3397635747540546 0.69605210369608161 -0.14545031122146618 -18.92339047757606 -12.96294429057984 1.0000000180025095e-35 12.117932509496544 1.5309995651245123 -6.5835016616343536 -0.12577943641272224 11.294059014396069 3.3590852431775748 29.252011797129974 -12.767304767577089 0.80316936571215936 -0.059639577312675114
decision_type=8 10 10 8 10 10 10 8 2 10 10 10 10 10 10 10 2 2 8 10 2 8 2 10 10 10 8
left_child=1 8 4 6 5 -3 -4 -6 9 14 -11 15 -13 -5 -1 -10 17 18 20 -20 -2 -18 -19 24 -23 -25 -24
right_child=16 2 3 13 7 -7 -8 -9 11 10 -12 12 -14 -15 -16 -17 21 22 19 -21 -22 23 26 25 -26 -27 -28
leaf_value=0.050594787265955912 -0.0071437978713459029 0.017109248824919935 0.054409115370458491 0.09198168345300925 0.047913644818651888 0.057027583805713072 0.032445240837446876 0.083365385650533502 0.062244966449900248 0.080773804762435911 -0.03492645322898897 0.044162999390691765 0.068649779842343328 -0.00013824516214225652 -0.034720815168529096 0.046777909555874374 -0.03106703466529924 -0.030858865920614112 0.057668877661276284 0.029817087733268528 0.060746332752230472 0.061965800703951808 0.0058017806008601831 0.078336377733915899 0.0083129518895794074 0.0048397976487751723 0.069364118982252115
leaf_weight=190.2060880959034 122.48823671042919 903.66122238896787 1757.1068608947098 44.199910156428814 1112.823408164084 727.96147019974887 4013.1959892846644 826.756826069206 5299.5947937555611 1322.6841756366193 36.528974760323763 8006.2878520935774 1329.7041865512729 708.42799575440586 64.992118548601866 2050.728607814759 28.84324936196208 25.26917864382267 1675.5384240038693 1971.9678515121341 3665.4326381608844 6567.2061702311039 39.582521311938763 1320.8668817542493 83.613595273345709 39.817503321915865 2225.3608535565436
leaf_count=393 665 6774 5626 118 4655 4638 25789 1854 12367 2307 246 29224 3745 4897 503 7951 272 256 3187 7594 8326 9492 146 1008 441 156 2906
internal_value=0.0527886 0.0491064 0.040616 0.0352796 0.0503212 0.0350039 0.0391604 0.0631264 0.0537813 0.0699034 0.0775735 0.0522097 0.047671 0.00542166 0.0285329 0.0579517 0.0586641 0.0546394 0.050764 0.0426523 0.0585326 0.0635101 0.0671398 0.0638658 0.061303 0.0762399 0.0682859
internal_weight=46160.8 28394.9 10094.1 6522.93 3571.2 1631.62 5770.3 1939.58 18300.7 1614.41 1359.21 16686.3 9335.99 752.628 255.198 7350.32 17766 9725.64 7435.43 3647.51 3787.92 8040.35 2290.21 8011.5 6650.82 1360.68 2264.94
internal_count=145536 111087 54351 36430 17921 11412 31415 6509 56736 3449 2553 53287 32969 5015 896 20318 34449 23080 19772 10781 8991 11369 3308 11097 9933 1164 3052
is_linear=0
shrinkage=0.03


Tree=17
num_leaves=31
num_cat=0
split_feature=29 94 112 91 19 15 35 118 29 93 5 62 6 105 13 13 102 17 35 112 64 1 81 94 81 98 36 28 35 92
split_gain=1077.11 656.133 645.516 737.542 749.341 664.951 636.568 492.421 757.792 669.879 447.781 330.756 350.931 357.718 330.274 471.556 433.244 274.965 271.144 239.422 181.958 179.222 267.617 156.959 145.937 119.831 207.612 82.294 73.9374 45.2563
threshold=31.063725623953498 18940241.194580439 -12.222892604970424 0.56711711711711721 -19.64825783096326 1.0000000180025095e-35 -45136.87397707886 -1.0000000180025095e-35 13.877353182493229 -0.19624997505790182 -0.67190118140262511 -1.3844042362242537 41.183024226236853 0.96948653756172043 16.494420818145567 17.133329917231858 -7.5111673413306042 94.03015674173129 36880806.737682797 2.5610851980189979 1.3397948678517924 12.666669036402858 8.9691624293687457 55830287.524536222 2.3916605721985014 -8.7472220165290828 71.351120632898883 0.88659214782353302 -211162.24549906771 1.3710344678334609
decision_type=8 10 10 10 2 10 10 8 10 10 10 8 8 10 8 10 10 8 10 8 8 10 2 10 2 8 8 8 10 10
left_child=1 6 10 5 -5 -4 7 9 -9 -1 -3 19 13 20 16 -16 -8 -15 -12 23 -13 22 -21 28 -25 26 -14 -27 -2 -23
right_child=11 2 3 4 -6 -7 14 8 -10 -11 18 12 25 17 15 -17 -18 -19 -20 21 -22 29 -24 24 -26 27 -28 -29 -30 -31
leaf_value=-0.01469009286367131 0.059361756362588974 -0.03250112531916307 0.039703110864623831 0.086299268593780676 0.031623585099652039 0.052543585000652475 -0.035300638706091785 -0.0086986827980970703 0.041717146028677397 0.072682659953400591 0.075931728563981601 0.040705954238575114 0.062803523422222507 0.048272578434796209 -0.03562952603665151 0.055834442786517821 0.077407820299906643 0.025670009014642382 0.17582158015224517 -0.0022736792037132791 0.0590800564552382 0.034596671829343346 0.050945696463934827 0.028132145600430657 0.059454856316024901 0.049621794813996242 -0.03481825392561317 0.079993216815732571 0.07133532459605843 0.074434777263859969
leaf_weight=90.27972711995244 778.91736559569836 31.0845613963902 7144.960346326232 235.05572355911136 5778.4695449098945 7624.4477993156761 29.849037349224091 366.57411529868841 975.03943186998367 545.83880491927266 518.14584404602647 587.68047840148211 72.924193322658539 4991.044610992074 49.128514718264341 5594.9379238933325 988.53921195492148 557.95824215933681 26.209426775574684 142.82960145175457 4755.1681348010898 45.490393459796906 200.30386605858803 159.05526580661535 1738.2581620588899 119.16280704364181 24.232358410954475 661.15937725454569 2356.0128439813852 146.17192774266005
leaf_count=567 675 258 33539 463 29523 30201 171 2693 3303 1287 696 1278 91 10335 324 15600 1551 1832 15 523 5909 63 236 352 1810 162 157 431 1429 62
internal_value=0.0499155 0.0464525 0.043602 0.0427191 0.0337987 0.0463421 0.0534804 0.0383668 0.0279047 0.0601813 0.0751249 0.0558982 0.0529771 0.0514638 0.0579449 0.0550153 0.0739828 0.0460207 0.081477 0.0620418 0.0570862 0.0423054 0.0287344 0.0641097 0.056893 0.0715341 0.0376388 0.0755706 0.0684192 0.0657441
internal_weight=47334.9 29998.6 21358.4 20782.9 6013.53 14769.4 8640.19 1977.73 1341.61 636.119 575.44 17336.4 11769.3 10891.9 6662.45 5644.07 1018.39 5549 544.355 5567.04 5342.85 534.796 343.133 5032.24 1897.31 877.479 97.1566 780.322 3134.93 191.662
internal_count=145536 120191 94695 93726 29986 63740 25496 7850 5996 1854 969 25345 20195 19354 17646 15924 1722 12167 711 5150 7187 884 759 4266 2162 841 248 593 2104 125
is_linear=0
shrinkage=0.03


Tree=18
num_leaves=30
num_cat=0
split_feature=64 22 105 94 35 79 116 17 94 105 112 84 22 35 90 104 75 90 58 86 30 18 26 64 4 86 21 54 18
split_gain=1063.88 1110.64 710.016 923.457 737.878 576.136 564.8 497.855 479.316 472.908 403.997 402.891 388.535 366.219 584.517 448.314 727.757 334.366 323.393 304.44 425.589 388.019 297.915 295.481 284.768 252.994 182.676 178.057 120.109
threshold=14.68164530433255 -55.781526082648256 0.96260432539340213 15230590.918325689 -48982.035340163522 3.5000000000000004 0.38505334287142207 8.5015936779395762 188163448.49920467 0.96902652972081982 -8.1873566307675709 1.5000000000000002 -42.881406476911216 1360.865803112071 1.0464697984331197 0.57142829338928192 1.5000000000000002 0.87147711375506087 47.52803616502981 -3.559023561954799 -8.7546010104701786 0.089326232887043902 0.09728627898736017 24.646104289500567 44.745175704272604 -0.67617358231794078 18.788949409262987 17.500178378756797 0.047082368730622111
decision_type=8 8 10 10 10 2 8 10 10 10 10 2 10 8 8 10 2 10 10 8 10 2 2 8 10 8 10 8 2
left_child=1 8 6 4 -4 -5 12 -8 10 17 -1 -12 -3 19 15 18 -17 -10 -15 20 21 -2 28 -24 -11 -21 -22 -27 -16
right_child=13 2 3 5 -6 -7 7 -9 9 24 11 -13 -14 14 22 16 -18 -19 -20 25 26 -23 23 -25 -26 27 -28 -29 -30
leaf_value=-0.035551984302589525 0.068039019610146398 0.030609942879173561 0.025262501888187225 0.034900856553920993 0.053855816906873757 -0.0041928874397793711 0.049759135437922687 -0.025510114287936758 0.074065995706424109 -0.036413595655100155 0.060919374361283279 -0.038296716418383232 0.054908059907483792 0.052009340491384164 0.063166713072076539 0.046888304200997939 0.0054019024186018269 -0.0061184957166586723 0.02301538210897968 -0.034330870161597242 0.070505771216515703 -0.036839522933845535 0.043595426925032287 0.057115695744334852 0.05273750258022436 0.059966242558950687 0.12987529962371672 0.044805001053076839 0.094513337487581825
leaf_weight=38.042862243950367 317.72379669174552 691.59707747399807 1010.3163107037544 12811.323293337598 4461.5588115341961 345.2817820739001 149.20765351876616 163.01742664352059 167.9168725758791 125.07083324715495 4599.7355285435915 35.134353809058666 5203.4396530389786 2631.3080056980252 302.69154914841056 839.60913792252541 702.27739720232785 62.354957010596991 413.11925909668207 25.188003949820995 85.640493240207434 33.219007987529039 2109.0260515995324 5439.3174498304725 40.924498327076435 4320.3381266109645 162.91104286909103 913.80300801247358 229.14131493121386
leaf_count=237 374 2313 4271 62547 11681 4633 356 1004 188 1050 9600 176 12564 5457 254 1872 3694 341 2077 168 100 195 5782 7709 126 4539 113 1965 150
internal_value=0.0473073 0.043786 0.041157 0.0382042 0.0485985 0.0338698 0.049994 0.0103567 0.0566332 0.0245261 0.0593314 0.0601381 0.052079 0.0529829 0.0500537 0.0414001 0.028063 0.0522289 0.0481123 0.0592863 0.0799896 0.0577891 0.0549466 0.0533586 -0.0137109 0.0568855 0.110385 0.0573489 0.0770884
internal_weight=48430.2 29904.9 24835.7 18628.5 5471.88 13156.6 6207.26 312.225 5069.18 396.267 4672.91 4634.87 5895.04 18525.3 12666.5 4586.31 1541.89 230.272 3044.43 5858.82 599.494 350.943 8080.18 7548.34 165.995 5259.33 248.552 5234.14 531.833
internal_count=145536 111087 99369 83132 15952 67180 16237 1360 11718 1705 10013 9776 14877 34449 26995 13100 5566 529 7534 7454 782 569 13895 13491 1176 6672 213 6504 404
is_linear=0
shrinkage=0.03


Tree=19
num_leaves=29
num_cat=0
split_feature=29 113 116 112 96 113 112 26 26 1 94 33 90 25 95 105 4 86 91 1 21 112 106 36 91 18 6 18
split_gain=1068.86 755.174 783.514 757.278 580.773 824.521 525.73 615.869 779.173 503.967 485.032 424.216 386.725 378.544 374.872 294.385 380.108 383.429 367.711 367.445 190.773 109.376 222.109 164.056 214.157 133.303 79.3442 58.3731
threshold=31.063725623953498 21.889999389648441 -0.022510685543325467 7.0127864504595196 -0.097656696965930503 14.605000019073488 1.727957903998856 2.9189175791425686 65.354505568512408 -8.7095510122686832 118828322.33848602 -0.41940350573374757 0.76015143143915986 0.17339286248204958 -9.3511958826539558 0.96293889347776274 16.563540099980759 49.29455043456376 0.8174242424242425 18.426171010423769 -46.780401439033319 6.3110910330801193 1.3101931469231667 82.22501474674398 0.22767145135566189 -5.8315354901272647 29.448381785384438 1.37299846367627
decision_type=8 8 10 10 10 10 8 2 2 10 10 10 10 10 10 10 10 10 8 8 10 8 8 8 8 2 10 2
left_child=1 2 3 10 9 -6 7 11 -9 -4 -1 -3 -8 -5 -14 21 17 -17 20 -20 -18 23 25 24 -2 -23 -24 -25
right_child=15 6 4 13 5 -7 12 8 -10 -11 -12 -13 14 -15 -16 16 18 -19 19 -21 -22 22 26 27 -26 -27 -28 -29
leaf_value=0.05086584844068532 -0.037545414162466886 -0.035042201145656607 0.040597397558075975 -0.036291236075870821 0.05033683570976432 0.032914931357286036 -0.03432310458616971 0 0.082807974088576597 0.013448885685482003 0.033252061870669987 0.050073289050624727 0.0033024777042594097 0.033004173030486889 0.066400232196457867 -0.038994891747628359 0.07171595762663184 0.062437861357839616 0.038184123520625744 0.052196637843114423 0.052626200561564015 0.054070372576440116 0.050893090992885845 0.064321966010924547 0.053348098815269154 -0.039807561542857334 0.0036880860949219441 0.045343463671168906
leaf_weight=7363.6651451587677 21.34984927624464 51.274515524506569 924.93736732751131 143.96916449069977 3393.551166171208 9047.5398432668298 34.70539415627718 505.69486915692687 126.33333511650562 1874.1537448335439 1787.766689946875 3865.0237476378679 90.521125089377165 135.81995619833469 2153.8732454162091 89.295744862407446 679.89672149717808 50.974891126155853 3986.9837374202907 3056.8321345821023 1993.8139851391315 17.303400933742523 603.20822194963694 2262.1450172662735 4894.6333007104695 42.779144018888474 37.092388857156038 203.80623262375593
leaf_count=22539 106 368 2893 1029 12605 41845 232 2800 200 10578 8618 10519 426 563 4976 501 577 16 8427 4399 3038 7 1013 1173 5522 229 108 229
internal_value=0.0449378 0.0415895 0.0391261 0.0459531 0.034892 0.0376792 0.0504683 0.0444833 0.0167905 0.0224639 0.0474395 0.0489263 0.0623367 -0.00244427 0.0638873 0.0508079 0.0472463 -0.00135255 0.0479541 0.0442868 0.0575529 0.0551317 0.0430908 0.056254 0.052926 -0.0109339 0.0482719 0.0628158
internal_weight=49438.9 31498.8 24671.4 9431.22 15240.2 12441.1 6827.43 4548.33 632.028 2799.09 9151.43 3916.3 2279.1 279.789 2244.39 17940.1 9857.8 140.271 9717.53 7043.82 2673.71 8082.32 700.383 7381.93 4915.98 60.0825 640.301 2465.95
internal_count=145536 120191 100670 32749 67921 54450 19521 13887 3000 13471 31157 10887 5634 1592 5402 25345 16958 517 16441 12826 3615 8387 1357 7030 5628 236 1121 1402
is_linear=0
shrinkage=0.03


Tree=20
num_leaves=30
num_cat=0
split_feature=27 94 27 95 39 19 58 27 33 98 35 98 27 64 94 27 61 106 92 113 92 25 112 33 84 28 38 35 1
split_gain=1201.87 1228.38 882.683 834.677 847.368 667.529 661.193 598.434 586.297 584.597 575.592 840.041 478.257 383.86 367.529 298.311 334.47 336.412 301.476 292.165 291.188 287.112 222.262 274.634 280.442 174.101 132.992 269.45 123.537
threshold=5.0712854482045531 27079960.076403145 3.9178701263162914 15.559469667760014 9.5000000000000018 -6.7305566891709683 23.496505239194565 3.1937617263796665 -0.074837265241368203 -35.685653926481365 438162.5060217593 -18.822320605348001 3.9536383864825386 15.297323398358145 11682202.343022062 7.4081233568012044 -27.938149471926597 1.3101931469231667 2.4581034774293919 12.329999923706056 0.84731564532825221 -0.26052293628454343 3.8040009031964366 -0.085073838677116778 7.5000000000000009 0.92718813168531444 69.500000000000014 6877228.5388501799 4.2842888235978931
decision_type=2 10 2 10 8 2 8 2 8 8 10 10 2 8 10 2 8 10 10 10 10 10 8 8 2 10 10 10 10
left_child=1 5 3 4 -3 9 8 -5 -7 14 11 -4 -12 15 -1 16 17 -2 21 -8 -18 -17 26 24 -24 -25 28 -28 -15
right_child=13 2 10 7 -6 6 19 -9 -10 -11 12 -13 -14 22 -16 18 20 -19 -20 -21 -22 -23 23 25 -26 -27 27 -29 -30
leaf_value=0.057233221898031775 0.038559686650779371 -0.028453885027581494 0.034868782551094359 -0.03175846953966379 0.020083909805603782 0.027928199922343761 -0.035294611864170079 0.066703150707128844 0.044587714946563411 -0.035187181581193813 0.099751037923683811 -0.0044744284392937341 0.043745670877858092 0.057024686829468228 0.10213904040209082 0.054148560537147734 0.036780729646966916 -0.01254164962775676 -0.041291088987634846 0.053565596112358158 0.047410700891203604 0.0058230213141470394 -0.040053676934602753 0.046077691322398133 0.04535367518119101 -0.037108027601605489 -0.036776605744601891 0.061204359535437937 0.049791067214448516
leaf_weight=363.77274664491415 261.46371944248676 353.8629634398967 3768.7222181409597 60.735027633607388 3509.8294916078448 3230.5565642267466 31.480586804449558 479.43931825086474 4775.0355623923242 40.967749714851379 144.05310801044106 557.57983913272619 3581.5984280444682 5200.410766042769 333.13838218152523 3295.8309057988226 4481.0636473111808 203.34815739095211 29.024499885737896 4032.8051896803081 5146.0599556490779 117.90921715646982 70.548101864755154 1824.9482381269336 64.125574544072151 20.728335805237293 43.368366215378046 54.214735060930252 4312.6850146390498
leaf_count=472 532 3699 16558 729 29307 14730 189 1145 11530 293 443 3599 11759 4634 291 4042 11874 875 135 9013 10826 376 375 2538 110 110 253 52 5047
internal_value=0.0427553 0.0381133 0.0313778 0.0205332 0.0156105 0.0446531 0.042933 0.0554455 0.0378811 0.0725161 0.037295 0.0297846 0.0459796 0.0474169 0.0790159 0.0439293 0.041273 0.0161171 0.0516697 0.0528455 0.0424777 0.0525014 0.0514759 0.0420568 0.000243058 0.0450718 0.0534014 0.0171926 0.0537628
internal_weight=50389.3 25263.6 12455.8 4403.87 3863.69 12807.8 12069.9 540.174 8005.59 737.879 8051.95 4326.3 3725.65 25125.7 696.911 13534.7 10091.9 464.812 3442.76 4064.29 9627.12 3413.74 11591 1980.35 134.674 1845.68 9610.68 97.5831 9513.1
internal_count=145536 103757 67239 34880 33006 36518 35462 1874 26260 1056 32359 20157 12202 41779 763 28660 24107 1407 4553 9202 22700 4418 13119 3133 485 2648 9986 305 9681
is_linear=0
shrinkage=0.03


Tree=21
num_leaves=28
num_cat=0
split_feature=27 94 14 32 22 64 39 19 14 3 118 98 91 91 92 4 94 90 114 91 85 56 90 85 92 20 89
split_gain=1165.08 1074.94 1182.86 827.155 659.106 903.36 598.495 824.7 779.789 498.425 432.722 416.511 334.029 447.003 388.707 243.492 548.085 371.45 286.858 246.469 358.618 321.236 218.691 277.676 188.854 130.87 54.0925
threshold=6.1218848929794953 179957100.9975749 -2.5914559670257922 1.1720736718816376 -56.289059295982774 8.1895346674365026 54.500000000000007 -0.66466107911864447 -0.80192544865386517 -8.2267220060804593 1.0000000180025095e-35 -30.629978891299441 0.02062074829931973 0.022474747474747477 0.91912592660061043 16.387007423999947 127277107.04766369 1.0000000016628943 -14.025119201040191 0.25819892473118283 -15.270102200988376 1.0000000180025095e-35 0.56204169918678903 -25.102259730933682 2.4581034774293919 -4.7006373327284621 0.20468990746728041
decision_type=2 10 10 8 10 8 8 2 10 2 8 10 8 8 10 10 10 10 8 8 10 2 10 8 10 2 10
left_child=1 3 10 4 9 -6 8 -8 -4 -1 11 -3 14 -14 -5 16 17 18 -2 20 26 -22 23 -21 -24 -12 -17
right_child=15 2 6 12 5 -7 7 -9 -10 -11 25 -13 13 -15 -16 19 -18 -19 -20 22 21 -23 24 -25 -26 -27 -28
leaf_value=0.054817487088642411 0.072752095460922817 0.050605678805359176 0.036526323139698266 0.072976584534057962 0.027829885638639106 0.041575192712261469 0.0020025678715322203 0.057984542684527247 -0.0018896263616504311 0.0038025013361997332 0.035106567552858445 -0.03433226829692073 0.16366246050026989 0.046128607549287701 -0.022189728489705397 0.023028260790272412 -0.038798576971770166 -0.039487401873616976 0.031167992289968988 0.068158789273704709 0.015671882515588136 0.056870337333655124 0.050577303765766066 -0.040580312621840441 0.0022630915302591197 -0.031818687642014107 0.075070973383288775
leaf_weight=2191.5320537686348 234.80092040449381 151.54308929666877 1087.9146933499724 52.343982469290495 9879.4570005051792 7727.1259513534606 305.88096487522125 1084.7733843605965 838.26253590546548 190.16053189337254 25.448658354580402 76.008837547153234 27.911298163235188 12120.911131724715 130.80241966620088 26.069368414580822 86.570594258606434 47.055533349514008 445.68744162470102 32.630816146731377 670.52100297063589 230.94145136326551 12800.101273562759 52.136617563664913 76.039808198809624 456.02217786759138 193.44525889307261
leaf_count=5074 184 497 6110 168 45574 22887 2268 4004 6055 1163 111 742 19 27306 817 49 480 236 1020 12 1951 265 14112 264 204 3865 99
internal_value=0.0407717 0.0378616 0.0231879 0.039686 0.0358922 0.0338698 0.0307082 0.0457347 0.0197922 0.0507761 -0.0118957 0.0219207 0.0458236 0.0464305 0.00517962 0.0478621 0.0315492 0.0400856 0.0457756 0.0487963 0.0349836 0.0263953 0.0499808 0.001193 0.050297 -0.0280266 0.069425
internal_weight=51242.1 36346.1 4025.85 32320.2 19988.3 17606.6 3316.83 1390.65 1926.18 2381.69 709.023 227.552 12332 12148.8 183.146 14896 814.114 727.544 680.488 14081.9 1120.98 901.462 12960.9 84.7674 12876.1 481.471 219.515
internal_count=145536 126660 23652 103008 74698 68461 18437 6272 12165 6237 5215 1239 28310 27325 985 18876 1920 1440 1204 16956 2364 2216 14592 276 14316 3976 148
is_linear=0
shrinkage=0.03


Tree=22
num_leaves=31
num_cat=0
split_feature=27 94 98 95 27 27 19 6 4 35 60 98 30 27 101 81 16 13 108 6 3 94 92 108 91 26 60 88 4 13
split_gain=1149.53 1097.62 808.84 1030.59 723.603 625.498 584.069 586.08 574.1 528.237 574.981 515.062 454.913 285.377 476.896 695.229 644.3 407.17 299.518 351.607 303.605 283.832 184.289 164.933 195.396 266.604 162.588 158.837 118.346 105.23
threshold=5.0712854482045531 27079960.076403145 -47.640697908797137 15.559469667760014 3.9178701263162914 3.3197552078683619 -6.7305566891709683 37.540928336298457 22.015458632761856 -3070258.4926421237 5.5000000000000009 -35.685653926481365 -4.6296292961176144 7.3071033643207999 0.1437498190750259 7.5685383324229365 36.34965304455789 35.306490943805862 0.66719901018901229 25.136564856008476 -21.484953267058511 11682202.343022062 0.85008224435890645 1.6735656859898878 0.11647286821705428 20.109439243191861 2.5000000000000004 0.10909085313150298 99.999998848970492 87.9121497016056
decision_type=2 10 10 10 2 2 2 8 10 10 2 8 10 2 8 2 10 10 10 10 2 10 8 8 8 2 2 8 10 10
left_child=1 6 9 4 -4 -5 11 8 -8 12 -11 21 -3 14 15 16 -2 -17 19 -16 -20 -1 -9 24 25 -15 28 -26 -25 -28
right_child=13 2 3 5 -6 -7 7 22 -10 10 -12 -13 -14 23 18 17 -18 -19 20 -21 -22 -23 -24 26 27 -27 29 -29 -30 -31
leaf_value=0.052736225867130067 0.05300122906355758 -0.014246592938584541 0.0076452845240502021 -0.032106741778933752 0.026589157418576412 0.06313882302354068 0.028162046668407811 0.018067292121764673 0.042171333164138479 0.039071035779208015 0.092031241552674017 -0.035197652197496564 0.086656895373558182 -0.00842101701222275 0.025454009404047073 0.053913141898841312 -0.0022514299634538277 0.029807076917642741 -0.014620182143127354 0.044510724018222522 0.046774527473494976 0.091392837611442748 0.06203349750310086 0.02565742709717906 0.012079147321157144 0.073881127730116486 -0.043346090102433239 0.05092041847481555 0.05567600227239055 0.037293291378129742
leaf_weight=374.44496914744377 246.42143414914608 264.08465039357543 2911.6317879725248 65.663949446752667 4870.6302137374878 738.22692335397005 4339.2437738031149 99.176154643297195 6926.5805348195136 3853.3937100470066 195.10763761401176 40.879923649132252 45.356743764132261 114.36637143790722 1580.0958316363394 1093.7130156904459 798.64865947887301 1561.7312032096088 70.646957151591778 2035.3688600361347 10686.274185474962 356.36340479552746 1146.3594849854708 317.84031109511852 101.65813256055117 48.490047469735146 37.99934434145689 6896.5140325911343 206.87895110249519 20.414652034640312
leaf_count=472 455 1833 26502 764 21931 1507 17320 345 16882 14253 380 293 69 425 3988 1436 3626 3796 283 3156 17031 291 915 601 275 26 177 6296 188 20
internal_value=0.0389298 0.0344873 0.0282453 0.0228756 0.019513 0.0552241 0.0405603 0.0389736 0.0367867 0.0387958 0.0416823 0.0660406 0.000812316 0.0434375 0.0413313 0.0316292 0.0107959 0.0397915 0.0438205 0.0362175 0.0463631 0.0718662 0.0586153 0.048333 0.0496072 0.0163193 0.0324677 0.0503684 0.0377731 -0.0138693
internal_weight=52044.2 26227.1 12944.1 8586.15 7782.26 803.891 13283 12511.4 11265.8 4357.94 4048.5 771.688 309.441 25817.1 18072.9 3700.51 1045.07 2655.44 14372.4 3615.46 10756.9 730.808 1245.54 7744.16 7161.03 162.856 583.133 6998.17 524.719 58.414
internal_count=145536 103757 67239 50704 48433 2271 36518 35462 34202 16535 14633 1056 1902 41779 33771 9313 4081 5232 24458 7144 17314 763 1260 8008 7022 451 986 6571 789 197
is_linear=0
shrinkage=0.03


Tree=23
num_leaves=27
num_cat=0
split_feature=27 92 113 38 4 14 116 39 2 113 6 19 13 93 5 29 86 33 22 4 103 113 31 92 84 27
split_gain=1120.51 774.14 826.199 679.016 860.194 737.718 578.169 499.411 672.676 492.685 463.823 667.393 442.877 347.397 293.826 256.743 485.915 346.209 302.497 293.157 306.475 181.678 178.739 135.904 226.564 103.411
threshold=6.1218848929794953 1.0794675685367483 19.560000419616703 17.500000000000004 11.66396758784248 -0.16855717274726059 -0.11756026865844536 26.500000000000004 -4.1313605405292551 12.329999923706056 32.048415033768052 1.5285267860527376 19.967489615989756 0.083582697246372725 1.332569917954662 26.174816559188177 -38.524270798066809 -0.42532212477494419 -67.849295486318184 16.387007423999947 -1.0224030477943788 38.065000534057624 0.60849135187236902 2.4581034774293919 17.500000000000004 8.8292443418687956
decision_type=2 8 10 10 10 10 8 8 2 10 8 2 10 8 10 8 8 10 10 10 10 10 8 10 2 2
left_child=1 2 3 5 -5 -1 9 8 -4 -3 11 -8 -9 -12 -11 16 21 -18 -19 20 22 -2 -17 25 -25 -21
right_child=15 6 7 4 -6 -7 10 12 -10 14 13 -13 -14 -15 -16 19 17 18 -20 23 -22 -23 -24 24 -26 -27
leaf_value=0.036136281300500117 -0.040956619710555302 -0.037539481643640203 -0.02145795876305507 0.053156036385499907 0.015591637584344434 0.0065247764122901529 0.034267549005848219 0.056716555290286574 0.031944039251113186 0.051659318581188267 0.018997887224073383 -0.012484335885268026 0.037818652119477866 0.051446804213220988 0.004178447387431867 -0.036976658877705015 -0.039138425134859142 -0.040290776158428611 0.041038362522515949 0.04530503652953264 -0.03948869315140472 0.061733556207848789 0.039613385890431112 -0.043652689226314136 0.06082469795927227 0.051894233377240209
leaf_weight=6324.1236106529832 95.158289730548859 56.197470396757126 240.87413707375526 605.86138586327434 5863.6638986840844 867.04285394772887 9147.7329374086112 1568.4866909012198 1645.9806123841554 4013.9498435296118 351.63281258568168 280.44764188304543 4168.8037200830877 2299.7585094794631 124.04767838120461 28.142257079482079 48.512809254229069 39.513995155692101 2842.8148135095835 8427.5076745003462 63.567606065422297 16.216369017958641 268.23797689378262 37.922917947173119 32.937973439693451 3307.4683313220739
leaf_count=23657 476 350 1492 2271 30666 4528 27235 3507 5438 6386 1200 1522 13515 4399 494 150 250 186 5218 9312 339 3 378 172 3 2389
internal_value=0.0372376 0.0344433 0.0306564 0.0262188 0.0191341 0.0325772 0.0393882 0.0385907 0.0250795 0.0490452 0.0360226 0.0328682 0.0430135 0.0471835 0.0502531 0.0441293 0.0361742 0.0385213 0.0398755 0.0461074 0.0190119 -0.0246503 0.0319407 0.0469251 0.00442417 0.0471758
internal_weight=52766.6 37558.6 21284.8 13660.7 6469.53 7191.17 16273.8 7624.15 1886.85 4194.19 12079.6 9428.18 5737.29 2651.39 4138 15208 3042.22 2930.84 2882.33 12165.8 359.948 111.375 296.38 11805.8 70.8609 11735
internal_count=145536 126660 85074 61122 32937 28185 41586 23952 6930 7230 34356 28757 17022 5599 6880 18876 6133 5654 5404 12743 867 479 528 11876 175 11701
is_linear=0
shrinkage=0.03


Tree=24
num_leaves=29
num_cat=0
split_feature=27 98 95 26 21 102 35 114 86 4 27 112 7 27 116 27 2 98 31 61 35 27 81 89 32 32 19 112
split_gain=1110.53 839.658 736.583 662.614 571.276 552.155 882.763 550.986 481.168 780.289 377.663 549.723 375.133 337.878 301.337 394.125 736.216 564.243 295.229 209.875 207.165 289.817 200.536 193.764 188.84 163.689 218.088 82.7748
threshold=5.0712854482045531 -47.640697908797137 16.074937603629891 0.35903089173910524 72.118636806620074 -2.9420126196606549 -45136.87397707886 -44.373807424296594 -14.875729632046555 17.909929103448512 3.4233307110446498 1.4873614061110876 5.378381008003271 2.6243243080081569 -0.071686192823755532 7.3071033643207999 -1.0079273602230319 -40.145985909571245 0.45909197790687056 -2.3479150882692825 -5139848.7770172479 6.2480194951378856 1.3839313744635986 0.15671646338737874 0.44912865293553828 1.1720736718816376 4.3879828809711841 -6.7850113659214886
decision_type=2 10 10 2 10 10 10 10 8 8 2 10 10 2 8 2 2 8 10 10 8 2 2 8 8 8 2 8
left_child=1 5 3 13 -5 8 7 -7 18 -10 11 -4 -8 -3 19 16 17 -16 -1 20 21 -2 -12 -18 -22 27 -27 -17
right_child=14 2 10 4 -6 6 12 -9 9 -11 22 -13 -14 -15 15 25 23 -19 -20 -21 24 -23 -24 -25 -26 26 -28 -29
leaf_value=-0.034147598745083579 -0.040057405075873923 -0.002145948245228459 0.054774206192035539 0.01940987107937758 0.05868093725022009 0.16452433581897105 -0.040102237034052926 0.0056237462803983007 -0.012949480702108208 0.043217238928340944 0.082453023279948703 -0.035615495139609855 0.038647659655239842 0.035896995913000648 0.037503098845565082 0.061144181081761097 0.064621985921895206 0.018980969613816102 0.066818258352422819 -0.037575225794437658 0.031077298972967449 0.033799770963650437 0.04966349095830349 0.040586335185492692 0.047763598365076647 0.038429589493620304 -0.047354537797138697 0.046561193181636783
leaf_weight=24.871394820511341 53.733869567513466 216.54254744574428 136.98131205700338 9752.3941885028034 345.51249455288053 18.012964025139809 52.921017579734325 1196.4222167730331 231.88221611827612 4408.9447660334408 235.85245774686337 104.78250127285719 3956.7047186866403 4729.6682444289327 2700.9718150421977 455.28005332499743 331.19103625416756 3338.7269320823252 925.89820041507483 25.472717054188251 709.04612734913826 319.77353873103857 746.35084465891123 6351.3523292504251 7022.6803325712681 1868.8768283501267 24.820966109633446 3170.7998858205974
leaf_count=149 279 1503 286 51555 614 44 303 6075 1259 8633 215 923 10366 18999 5368 216 225 9948 1335 138 1438 452 1498 9812 8171 2357 103 3272
internal_value=0.0356471 0.0313634 0.0270358 0.0252004 0.0207709 0.037861 0.030785 0.00829657 0.0444478 0.0403935 0.0494686 0.0153816 0.0375738 0.0342192 0.0400413 0.0378638 0.0349216 0.0272837 0.064048 0.0449091 0.0451849 0.0228579 0.0577496 0.0418055 0.0462496 0.044619 0.0372248 0.0484414
internal_weight=53456.5 27083.7 16268.1 15044.1 10097.9 10815.7 5224.06 1214.44 5591.6 4640.83 1223.97 241.764 4009.63 4946.21 26372.7 18242 12722.2 6039.7 950.77 8130.71 8105.23 373.507 982.203 6682.54 7731.73 5519.78 1893.7 3626.08
internal_count=145536 103757 75593 72671 52169 28164 16788 6119 11376 9892 2922 1209 10669 20502 41779 31301 25353 15316 1484 10478 10340 731 1713 10037 9609 5948 2460 3488
is_linear=0
shrinkage=0.03


Tree=25
num_leaves=30
num_cat=0
split_feature=64 98 94 26 112 114 14 19 35 93 28 64 4 35 3 26 54 98 94 0 84 13 26 91 94 0 36 1 105
split_gain=931.927 920.318 395.567 593.846 749.56 619.074 395.036 474.179 442.81 391.54 457.849 530.105 391.654 353.825 530.62 611.099 517.512 283.473 279.168 430.053 274.052 247.792 308.348 221.07 203.137 152.347 131.928 397.491 99.1912
threshold=14.68164530433255 -40.682889350582485 9294883.9146155845 0.29086409029108679 4.4058264785773806 36.907646731377888 -0.22581926036782249 -0.087696279635193511 -110143.08934280228 -0.41794742936089901 0.19608073218666619 5.4189023402109697 13.61496628928545 34422.197091070942 17.148509650985513 0.95116251326175338 23.271624479924093 -5.8256241738159202 18940241.194580439 -4.5138895212683101 20.500000000000004 82.31351432586321 4.0448423345267281 0.2869249394673124 85941530.586488828 9.3023259037568717 68.635952572325024 22.25984089815633 0.98938426837051663
decision_type=8 10 10 2 10 8 10 2 10 10 8 10 10 8 2 2 10 10 10 10 2 10 2 10 10 10 10 10 10
left_child=1 9 6 5 -5 -4 8 -8 -3 10 12 -12 -1 17 15 20 -17 21 23 -20 -15 24 -23 -11 -2 -19 28 -28 -16
right_child=13 2 3 4 -6 -7 7 -9 -10 18 11 -13 -14 14 26 16 -18 25 19 -21 -22 22 -24 -25 -26 -27 27 -29 -30
leaf_value=0.086553006397256882 0.051860214033870082 -0.010295217456059056 0.037082464368541082 0.016131901036279553 0.043424477660309803 -0.037299693846864129 0.033957655061268001 -0.039856895339281689 0.044846501239226087 0.035920650555572753 -0.011423932400730471 0.027363610222488417 0.031178660929758704 0.039396916827971064 0.054855031792455607 0.030778622622921432 0.0063924984099628136 -0.037311900665521223 0.041108226697341932 0.028938408394013578 -0.0070218586227637362 0.024152133952938082 0.049160993242950007 0.047516977344806005 0.037930466676885141 0.035851907269153084 0.028372844357547961 0.052251082184577649 0.028662824048148856
leaf_weight=139.32956796512008 4126.6278550326824 137.79639475047588 2967.0723163746297 8004.1012366227806 1024.3699347302318 101.89938728883862 202.09644760936499 124.80867113918066 1973.9640752598643 2907.5942668169737 516.63849433884025 809.01719076186419 698.9274681545794 5213.3173265010118 1406.6984737925231 2199.9703080765903 1228.2906785570085 56.651840448379517 4546.023635558784 6385.4122873097658 114.23278859257698 1005.5682958327234 826.11414662748575 3285.2245254069567 1311.4787326622754 43.135685503482819 1241.3925427384675 1324.5737346373498 162.36207813024521
leaf_count=234 3724 747 12039 40140 3756 680 476 674 4252 5670 2369 2241 1815 9842 1130 4452 5006 376 9489 21215 548 1890 792 5290 2132 52 2826 1187 492
internal_value=0.0341705 0.0311087 0.0253857 0.0231422 0.0192441 0.0345705 0.0364623 0.00552268 0.0412137 0.0354155 0.0232761 0.0122076 0.0406381 0.0392755 0.0362347 0.0320114 0.0220678 0.044575 0.0369431 0.0340115 0.0383881 0.0452651 0.0355055 0.0420954 0.0485271 -0.00501251 0.0451432 0.0407535 0.0522229
internal_weight=54084.7 33824.3 14536.1 12097.4 9028.47 3068.97 2438.67 326.905 2111.76 19288.2 2163.91 1325.66 838.257 20260.4 12890.8 8755.81 3428.26 7369.58 17124.3 10931.4 5327.55 7269.79 1831.68 6192.82 5438.11 99.7875 4135.03 2565.97 1569.06
internal_count=145536 111087 62764 56615 43896 12719 6149 1150 4999 48323 6659 4610 2049 34449 25483 19848 9458 8966 41664 30704 10390 8538 2682 10960 5856 428 5635 4013 1622
is_linear=0
shrinkage=0.03


Tree=26
num_leaves=25
num_cat=0
split_feature=27 94 27 90 38 103 84 6 14 27 92 1 101 6 92 33 108 64 38 60 0 38 92 90
split_gain=1112.42 905.031 918.86 611.326 708.111 583.059 268.13 286.452 296.135 235.829 190.342 174.145 419.765 253.481 292.144 202.097 184.466 200.889 161.855 156.513 91.9156 210.553 97.5498 80.9003
threshold=6.1218848929794953 17145670.371704202 2.6243243080081569 1.1417442460349967 57.500000000000007 -3.0219755745350567 24.500000000000004 41.183024226236853 1.340291587421971 3.7091949845904977 0.73670064327908114 -19.712156774784095 1.0000000180025095e-35 28.11765062598402 2.1084473060891953 -0.32236208205884626 1.5412055140489731 -23.649997961450186 39.500000000000007 7.5000000000000009 -11.43048574130359 19.500000000000004 0.44011266554606393 0.95232847380317276
decision_type=2 10 2 10 8 10 2 8 10 2 8 10 8 10 10 8 8 10 10 2 10 8 8 10
left_child=1 6 -3 4 -4 -5 7 8 -1 -8 -9 16 19 14 -14 -15 20 23 -11 -13 22 -22 -2 -18
right_child=11 2 3 5 -6 -7 9 10 -10 18 -12 12 13 15 -16 -17 17 -19 -20 -21 21 -23 -24 -25
leaf_value=0.034896114735941335 -0.03785067969293316 -0.032259430345325406 0.021007321975598285 0.010067311567644075 0.032652208434646723 0.042489015481779933 0.12272626220451037 -0.03525642352473244 -0.038831998489387447 -0.036150471069514481 0.054012606903753167 -0.043770703627477259 0.035429568491471268 0 -0.04201405219856303 0.045874450811102661 0.016884098026924782 -0.04415609796962288 0.071211136482873721 0.049275922816805227 -0.0031329339151596209 0.044512759493364966 0.052551372697710041 0.040743560677712724
leaf_weight=12965.620977476239 8.6976114362478238 233.58209091611207 13470.924269210547 589.70922371000051 7289.9128385074437 3503.1962547674775 59.967312671244144 19.900663621723652 46.890870034694672 17.937077201902866 919.13555908948183 76.260544382035732 7610.974525898695 86.406960442662239 41.798471726477146 3542.3794553205371 195.55504287034273 28.765454024076462 31.379414558410645 18.220827221870422 86.29917149245739 1327.4226977229118 2039.5519299209118 467.25385671108961
leaf_count=28023 41 3454 60818 2071 23623 7554 54 107 253 94 607 356 12077 268 193 2729 381 125 2 11 247 984 941 523
internal_value=0.0327811 0.0300755 0.0266463 0.0272048 0.0251019 0.0378395 0.036185 0.0358003 0.0346199 0.0832221 0.0519861 0.0395929 0.0376166 0.0381468 0.0349879 0.0447693 0.0449706 0.0304165 0.031106 -0.0245552 0.0478414 0.0415616 0.0521017 0.0338663
internal_weight=54677.7 39148.2 25087.3 24853.7 20760.8 4092.91 14060.8 13951.5 13012.5 109.284 939.036 15529.6 11376 11281.6 7652.77 3628.79 4153.55 691.574 49.3165 94.4814 3461.97 1413.72 2048.25 662.809
internal_count=145536 126660 97520 94066 84441 9625 29140 28990 28276 150 714 18876 15634 15267 12270 2997 3242 1029 96 367 2213 1231 982 904
is_linear=0
shrinkage=0.03


Tree=27
num_leaves=28
num_cat=0
split_feature=27 94 27 26 113 98 8 101 93 13 116 27 16 98 94 90 93 90 101 13 112 29 113 13 88 88 44
split_gain=1106.06 930.054 793.105 673.02 789.025 715.878 394.254 434.273 651.349 351.528 278.604 370.022 602.509 540.959 338.425 321.594 296.288 250.989 218.147 180.316 196.225 183.275 126.777 256.072 206.971 71.7958 57.1747
threshold=5.0712854482045531 16744560.194922021 2.6243243080081569 0.31297909398665152 12.885000228881838 -60.95961433675695 -25.528547847322688 0.25395675485474872 -0.12652342000470837 16.263875215545362 -0.071686192823755532 7.3071033643207999 45.825572614226978 -40.145985909571245 188163448.49920467 1.0973690649486472 0.046741636656479159 0.79653148902954551 0.67288469187200617 67.63102660859856 6.9384791027530044 19.449673509543729 16.530000686645511 44.185158247698645 0.18315924185684937 0.86974790336876984 10.000000000000002
decision_type=2 10 2 2 10 8 10 8 10 8 8 2 8 8 10 10 10 10 8 10 8 8 10 8 10 10 2
left_child=1 6 -3 4 -4 -5 25 8 -8 -9 14 12 13 -12 19 16 -16 -14 -17 20 -2 -21 23 -13 -24 26 -1
right_child=10 2 3 5 -6 -7 7 9 -10 -11 11 22 17 -15 15 18 -18 -19 -20 21 -22 -23 24 -25 -26 -27 -28
leaf_value=0.03775558911451888 0.046875733378848601 -0.03217175800831075 0.060668953620463255 0.057542252544505797 0.027810723500266792 0.018426653393065911 -0.0051791865894933974 0.053991091925450693 0.031691225357192876 0.033322126195432629 0.032989707088973003 -0.011543272132307804 0.056791274460349137 0.013501488666437512 0.017122060315007105 0.04785828686833693 -0.043528409755361021 0.034749010728114406 -0.043957411280452233 0.050712615009409989 0.0077675021141990278 0.030995608645594506 0.022066083095216547 0.036573201330842409 0.046345962758756472 0.093105825714118406 0.0560023740805057
leaf_weight=266.2555526047945 4845.192755445838 228.97624197043478 783.69341876357794 437.15585727617145 4259.9584076665342 11622.30799722299 637.15639237686992 843.72843519598246 1312.5469245873392 7163.6423894390464 2502.3110017031431 101.93457069247961 510.44067493081093 2666.7078050151467 398.64636356383562 383.59852294623852 86.238414220511913 7398.2771719917655 22.585908211767673 576.61346872150898 122.96631430089474 1867.4588036313653 368.32868456840515 1990.6259133219719 3151.6379770636559 42.767628848552704 628.80511342734098
leaf_count=389 4850 3471 1858 932 17156 56300 3198 1052 4030 14974 4842 317 540 7991 1006 313 414 11980 100 819 264 2712 624 2510 2497 31 366
internal_value=0.0314805 0.0273145 0.0229808 0.0237264 0.0329502 0.0198589 0.0341976 0.0324172 0.0196184 0.0355204 0.0358324 0.0337685 0.0309702 0.0229564 0.0404617 0.0227668 0.00607744 0.0361932 0.0424155 0.0425741 0.0459234 0.0357095 0.0402647 0.0341919 0.0438363 0.0529276 0.0507376
internal_weight=55220.6 28227 17332.1 17103.1 5043.65 12059.5 10894.9 9957.07 1949.7 8007.37 26993.6 18690.3 13077.7 5169.02 8303.3 891.069 484.885 7908.72 406.184 7412.23 4968.16 2444.07 5612.53 2092.56 3519.97 937.828 895.061
internal_count=145536 103757 79717 76246 19014 57232 24040 23254 7228 16026 41779 31301 25353 12833 10478 1833 1420 12520 413 8645 5114 3531 5948 2827 3121 786 755
is_linear=0
shrinkage=0.03


Tree=28
num_leaves=28
num_cat=0
split_feature=27 94 27 26 114 49 94 91 114 91 88 91 6 5 112 29 86 33 4 103 114 106 108 113 88 114 13
split_gain=1075.13 787.45 832.508 893.267 674.981 619.812 583.734 447.082 333.589 418.867 372.956 361.47 381.09 311.543 229.889 229.739 461.673 319.464 281.138 273.471 222.945 218.206 195.563 165.041 155.509 377.938 125.68
threshold=6.0793779439483151 21327157.048836585 3.5691502354501297 0.086475920317844027 -34.019286320033949 1.0000000180025095e-35 36250848.685150824 0.46737588652482276 13.455969722355311 0.018350168350168353 0.22413811176199872 0.023532668881506093 38.206317478711682 -0.88483600053840517 -6.7850113659214886 26.174816559188177 -38.524270798066809 -0.42532212477494419 16.387007423999947 -1.0224030477943788 22.348416808339937 0.22214892870452421 0.77376460990982332 38.065000534057624 0.10909085313150298 -19.878585546247738 17.90651368663066
decision_type=2 10 2 2 10 2 10 10 10 8 8 8 8 10 10 8 8 10 10 10 8 10 8 10 8 8 8
left_child=1 8 3 6 -5 7 -3 -4 11 14 -11 13 -13 -1 -10 16 23 -18 19 22 -7 -19 -17 -2 25 -20 -26
right_child=15 2 5 4 -6 20 -8 -9 9 10 -12 12 -14 -15 -16 18 17 21 24 -21 -22 -23 -24 -25 26 -27 -28
leaf_value=0.08307612239518003 -0.042348052949012789 -0.03332708651001115 0.029525457800290537 0.079257932327611455 0.0015686982331739058 0.055432629249613681 0.069063563860096405 0.020377462255980038 0.084149907110171507 -0.039311413225693877 0.041338893503040167 0.026344375542600728 0.046248728228024769 0.038549981245921093 -0.03894043890494274 -0.039892320702656407 -0.040267395769452596 -0.0084731774250307729 0.052823633647335881 -0.040725217018030835 -0.036812493074014761 0.034550814593589323 0.033547318315205812 0.053585169291765933 0.0091246297265594554 -0.045425246975061159 0.04018510239827694
leaf_weight=189.40927957743406 102.17876823246479 57.219474632292986 10536.363653540611 102.49160066246986 2806.0582186207175 758.84673203527927 320.94617143273354 9016.7146573141217 13.949798300862311 49.911506548523903 4846.7215297669172 9269.7130324654281 968.19500676542521 628.21176388114691 88.021895870566368 34.578678697347641 51.95038366317749 106.77949154376984 74.130486100912094 67.458477318286896 22.237499795854092 3132.6799996569753 274.82692600786686 16.826990351080894 124.8249171897769 63.32690753787756 11989.365205384791
leaf_count=223 491 489 33199 576 24315 994 763 30545 4 266 7356 24248 927 1549 515 171 259 352 47 346 119 5332 365 3 262 297 11523
internal_value=0.0302625 0.0276031 0.0241041 0.0100577 0.00437951 0.0263704 0.0533194 0.0253125 0.0327439 0.0392306 0.0404889 0.0297991 0.0282412 0.0491156 -0.0202297 0.0368328 0.0297996 0.0319097 0.0387224 0.0128777 0.0526425 0.0331098 0.0249437 -0.0276261 0.0395103 0.00712761 0.0398716
internal_weight=55713.9 39675 23620.9 3286.72 2908.55 20334.2 378.166 19553.1 16054.1 4998.6 4896.63 11055.5 10237.9 817.621 101.972 16038.9 3410.42 3291.41 12628.5 376.864 781.084 3239.46 309.406 119.006 12251.6 137.457 12114.2
internal_count=145536 126088 91000 26143 24891 64857 1252 63744 35088 8141 7622 26947 25175 1772 519 19448 6437 5943 13011 882 1113 5684 536 494 12129 344 11785
is_linear=0
shrinkage=0.03


Tree=29
num_leaves=29
num_cat=0
split_feature=27 94 26 27 49 5 104 18 94 90 7 90 86 38 27 94 4 93 25 112 4 22 4 27 30 5 27 93
split_gain=1061.88 880.677 663.094 819.91 725.865 631.916 548.602 543.932 374.302 360.752 374.668 304.558 285.708 396.879 311.907 320.745 403.988 297.596 263.487 444.097 324.131 247.266 189.475 163.942 98.0722 90.1189 112.321 83.8587
threshold=5.0344622733586908 27079960.076403145 0.093590601290985814 3.5691502354501297 1.0000000180025095e-35 -1.8723407471441864 0.26666775809357129 -0.029076616172388544 36250848.685150824 1.2129859648783736 26.584849795166743 0.99248891815470641 44.161806568012473 44.500000000000007 8.8292443418687956 188163448.49920467 16.103260764569047 -0.40763251013084917 -0.071249976009130453 6.4873886276299322 26.694964312192969 -32.395437642338912 18.003907050657052 12.545457481267089 -19.956941541479054 -2.1362232952512077 6.2947723517469623 -0.22145783624919493
decision_type=2 10 2 2 2 10 10 2 10 10 10 10 10 8 2 10 10 8 8 10 10 10 10 2 10 10 2 10
left_child=1 6 7 5 -5 -4 18 11 -9 10 -8 -3 14 25 15 17 -17 -2 20 -20 -1 -11 23 -16 -24 26 -14 -27
right_child=12 2 3 4 -6 -7 9 8 -10 21 -12 -13 13 -15 22 16 -18 -19 19 -21 -22 -23 24 -25 -26 27 -28 -29
leaf_value=0.021462712102376689 0.023121555489612033 -0.036305023150870877 0.065852334270911916 0.019602500688305123 0.053850018775032697 -0.0011563633666285037 0.018324822610459413 -0.010913549000196837 0.060255823941499899 0.00063921162448257957 0.033674560605885841 0.044335839903586034 0.079779587654456807 -0.042485690525101302 -0.045757978648842797 -0.02712704246009557 0.024023867568655131 0.033909065706863452 0.043650604156557457 -0.04256145578447345 0.042921630091342179 0.048464597559500874 0.043185775915617418 0.036217155327308452 0.0057123744350891783 0.046910532247660834 0.040125173389688053 0.036014745722556515
leaf_weight=1673.0031624287367 2759.7419053241611 105.40518207103014 131.74050463736057 10006.483221530914 591.16008553653955 2368.5638873074204 5083.8655893802643 70.962031934410334 733.59879298880696 113.40118485689163 2020.5835068188608 67.166151337325573 139.81832207739353 47.201671458780766 40.271620541810989 143.80722684413195 2696.7130790501833 15890.014833502471 3518.5126896798611 52.402112081646919 1047.1640925295651 815.09555252641439 2967.7179771512747 43.47076154500246 68.669000737369061 1390.1520900204778 149.91860644519329 1432.3524485751987
leaf_count=6162 5904 777 434 40474 797 21890 16600 386 1533 328 4966 164 40 224 173 697 5600 25269 4976 251 1963 910 2178 51 175 914 89 1611
internal_value=0.0291133 0.0250214 0.0196741 0.0178824 0.0215284 0.00240014 0.030268 0.0435437 0.0538928 0.0250358 0.0227071 -0.00442689 0.0332937 0.0418809 0.0321855 0.0308798 0.0213959 0.0323186 0.0369293 0.0423456 0.0297711 0.0427019 0.041134 -0.00265262 0.0423624 0.0432062 0.0598826 0.0414318
internal_weight=56169 28399.1 14075.1 13097.9 10597.6 2500.3 14324 977.132 804.561 8032.95 7104.45 172.571 27769.8 3159.44 24610.4 21490.3 2840.52 18649.8 6291.08 3570.91 2720.17 928.497 3120.13 83.7424 3036.39 3112.24 289.737 2822.5
internal_count=145536 102611 66455 63595 41271 22324 36156 2860 1919 22804 21566 941 42925 2878 40047 37470 6297 31173 13352 5227 8125 1238 2577 224 2353 2654 129 2525
is_linear=0
shrinkage=0.03


Tree=30
num_leaves=27
num_cat=0
split_feature=27 94 32 39 33 96 98 22 1 98 88 112 105 106 8 26 29 33 22 93 88 96 13 105 81 94
