tree
version=v4
num_class=1
num_tree_per_iteration=1
label_index=0
max_feature_idx=45
objective=binary sigmoid:1
feature_names=Column_0 Column_1 Column_2 Column_3 Column_4 Column_5 Column_6 Column_7 Column_8 Column_9 Column_10 Column_11 Column_12 Column_13 Column_14 Column_15 Column_16 Column_17 Column_18 Column_19 Column_20 Column_21 Column_22 Column_23 Column_24 Column_25 Column_26 Column_27 Column_28 Column_29 Column_30 Column_31 Column_32 Column_33 Column_34 Column_35 Column_36 Column_37 Column_38 Column_39 Column_40 Column_41 Column_42 Column_43 Column_44 Column_45
feature_infos=[0:18] [0:25] [0:25] [0:25] [0:25] [0:100] [0:1] [0:1] [0:1] [0:1] [0:100] [0:30] [0:30] [0:15] [0:15] [0:1] [0:90] [0:1] [0:3] [-94.499318212830502:11301.315932541343] [0:1] [0:1] [0:1] [0:1] [0:1] [0:1] [0:1] [0:1] [0:1] [0:3] [0:3] [0:4] [0:4] [1.4202920339823066e-05:906.29514883883519] [0:1] [0:3] [0:109] [0:1] [0:14] [0.81818181818181823:1.0000000000000002] [0:1] [0:1] [0:10] [-88.037200462517774:10847.953936207316] [-109.96576723484168:9741.5298838323888] [-93.664089129817881:10405.384315257344]
tree_sizes=3489 3511 3527 3541 3519 3554

Tree=0
num_leaves=31
num_cat=0
split_feature=44 19 18 44 16 12 43 18 44 24 43 19 1 36 44 4 43 12 12 36 24 36 0 35 19 43 4 18 12 19
split_gain=143.19 66.8127 64.8057 69.837 36.3241 33.2096 32.6786 31.5114 27.8228 25.6921 24.7904 24.4971 25.4754 24.1316 24.0398 23.2573 19.0177 17.3377 15.8093 15.7144 15.1494 14.5948 15.8886 13.7832 12.0264 11.1222 10.1561 10.13 9.61886 9.55299
threshold=33.431752837445806 -1.7351062681058795 1.0000000180025095e-35 21.418106332741619 24.809054585410305 23.497793615137585 -2.3113807674961406 1.0000000180025095e-35 6.9685950485839321 1.0000000180025095e-35 -23.026797130356162 22.540265298576447 22.500000000000004 11.500000000000002 0.8245753978470215 10.000000000000002 0.80811491843000305 0.18920094198314349 6.776833129298379 31.500000000000004 1.0000000180025095e-35 1.5000000000000002 1.5000000000000002 1.5000000000000002 25.454540871533855 0.40952155339517576 20.000000000000004 1.0000000180025095e-35 3.4260111221246539 7.1428428433781077
decision_type=10 10 2 8 8 2 8 2 10 2 8 10 2 2 10 2 10 2 2 2 2 2 2 2 10 10 2 2 2 10
left_child=1 4 3 6 25 14 15 11 -8 18 -6 29 19 -7 17 -3 -16 -4 -5 26 -9 22 -12 -11 -21 -1 -13 -23 -22 -2
right_child=7 2 5 9 10 13 8 20 -10 23 21 12 -14 -15 16 -17 -18 -19 -20 24 28 27 -24 -25 -26 -27 -28 -29 -30 -31
leaf_value=-0.10993770200928513 -0.075013696666063445 -0.10387344029939637 -0.10261017310809452 -0.07340877854925891 -0.11099142542812832 -0.11661398062738447 -0.10736475504202783 -0.092223411796989826 -0.099624761113241617 -0.096933199971634409 -0.086426748540068349 -0.07646160321398647 -0.10037666959850269 -0.10289667206041456 -0.10427919207296647 -0.087791183910413212 -0.093040125068263826 -0.11114067762592619 -0.090688421353634793 -0.10681711834482234 -0.085471172761758904 -0.062512015540892599 -0.10151360204869433 -0.11554826369434247 -0.062544571706832114 -0.090924493390915059 -0.089170038265064866 -0.098553920791897523 -0.11064079594780406 -0.095669479091371676
leaf_weight=335.4108789563179 63.840286254882812 379.30107575654984 1045.6340635418892 152.86756044626236 116.45864719152451 1218.7010895609856 3394.2583445906639 594.51266574859619 1746.1315795183182 1285.2845131158829 1032.417129278183 441.3957291841507 134.4137277007103 448.3782604932785 911.46971195936203 536.90678244829178 638.9016147851944 1443.139595925808 1213.7135671973228 14.214438736438749 43.142068445682526 92.767915964126587 202.74278408288956 106.23422634601593 209.22656315565109 96.259181618690491 277.55561953783035 28.428877472877502 227.68039590120316 518.20357358455658
leaf_count=1345 256 1521 4193 613 467 4887 13611 2384 7002 5154 4140 1770 539 1798 3655 2153 2562 5787 4867 57 173 372 813 426 839 386 1113 114 913 2078
internal_value=-0.0999937 -0.101698 -0.102855 -0.100162 -0.0929023 -0.107006 -0.10317 -0.0889089 -0.104726 -0.093574 -0.0891539 -0.0848673 -0.0803774 -0.112958 -0.104535 -0.0945006 -0.0996784 -0.107579 -0.0887009 -0.0774745 -0.0967229 -0.0872354 -0.0889428 -0.0984004 -0.0656016 -0.105571 -0.0812765 -0.0704761 -0.106409 -0.0932792
internal_weight=18949.6 16425.4 14520.9 8814.7 1904.49 5706.22 6056.6 2524.19 5140.39 2758.1 1472.82 1658.85 1076.81 1667.08 4039.14 916.208 1550.37 2488.77 1366.58 942.392 865.335 1356.36 1235.16 1391.52 223.441 431.67 718.951 121.197 270.822 582.044
internal_count=75988 65866 58229 35347 7637 22882 24287 10122 20613 11060 5906 6652 4318 6685 16197 3674 6217 9980 5480 3779 3470 5439 4953 5580 896 1731 2883 486 1086 2334
is_linear=0
shrinkage=1


Tree=1
num_leaves=31
num_cat=0
split_feature=45 18 19 1 45 39 43 1 33 7 39 39 10 11 43 45 33 1 15 43 20 29 45 19 33 43 16 36 45 0
split_gain=99.4468 83.777 83.3461 59.46 37.2999 30.2955 28.1152 27.8734 26.6689 25.362 22.9268 19.9801 19.7603 17.7154 17.6633 17.3587 16.5362 16.076 15.043 14.9047 21.0111 13.5687 13.7593 12.9192 24.4423 17.8748 13.0434 12.7892 12.3266 20.9394
threshold=12.124196171678127 1.0000000180025095e-35 -1.7351062681058795 22.500000000000004 32.027348701546806 0.98002663095554643 -6.4413390866603182 1.0000000180025095e-35 2.5729692001314759 1.0000000180025095e-35 0.97211153665431638 0.99411767260956452 20.000000000000004 1.258115163690251 -5.2228757402724186 32.027348701546806 24.625371415210743 22.500000000000004 1.0000000180025095e-35 -8.8898072756730766 1.0000000180025095e-35 1.5000000000000002 5.9352347315838756 -14.849805320507182 8.808245912791131 -5.5988042656632979 26.930388222982554 28.500000000000004 -7.6863042183994681 2.5000000000000004
decision_type=8 2 10 2 10 2 10 2 2 2 2 2 2 10 10 8 2 2 2 10 2 2 10 10 2 10 10 2 10 2
left_child=2 3 11 4 6 17 16 15 -8 13 27 23 19 -7 -13 -3 -2 21 -17 -9 -21 22 -4 26 -25 -26 -1 -6 29 -11
right_child=1 7 5 -5 10 9 8 12 -10 28 -12 14 -14 -15 -16 18 -18 -19 -20 20 -22 -23 -24 24 25 -27 -28 -29 -30 -31
leaf_value=-0.031436690470512417 -0.012547992116452035 0.019765192519832157 -0.0030509317177949929 -0.0054988221043849707 -0.0064342979471631589 -0.0011948864395190935 0.020565028775438525 -0.015738944349866151 0.007595963506232462 0.040908777936765672 0.026040116660187081 0.0089441909466193917 -0.025609263380072019 -0.0071958147782829 -0.016604087475836329 0.04602176052484136 0.037891837352301817 -0.016169269761101616 -0.0010961968887370523 0.0070679181586588069 -0.0055318168268293014 -0.0086363115141844821 0.021081532052058788 0.009218999191297898 0.019852146158072619 0.052754249748673744 0.0058444256933650506 0.025786180440950664 0.0042495188610049634 -0.0055766255710899514
leaf_weight=24.693729266524315 213.97423167526722 182.08433894813061 725.19317089021206 704.01235555112362 100.06871999800205 3357.7563823014498 459.7749207764864 246.58316089212894 3175.385308727622 65.083382487297058 515.17398583889008 135.93660885095596 113.66786228120327 1963.8588163256645 130.71075236797333 16.701784119009972 16.212160140275955 547.93741309642792 369.97456301748753 426.88562735915184 1427.7138642668724 2487.6813558489084 63.080742016434669 552.5845480710268 167.17288464307785 59.885399252176285 249.17765726149082 42.69404935836792 372.21706095337868 35.164014220237732
leaf_count=99 858 730 2909 2823 401 13467 1843 989 12729 261 2064 545 456 7877 524 67 65 2198 1484 1712 5727 9978 253 2215 670 240 999 171 1493 141
internal_value=0 0.00423288 -0.00309912 0.0079661 0.0100736 -0.00471963 0.00817523 -0.00276005 0.00925525 -0.00242695 0.0211213 0.00866383 -0.00530829 -0.00341976 -0.00340803 0.00706736 -0.00863067 -0.00817895 0.000923466 -0.00417462 -0.00260246 -0.0068227 -0.00103215 0.011767 0.0150569 0.0289424 0.00219892 0.00296597 0.00863362 0.0242151
internal_weight=18949 8010.91 10938.1 5227.3 4523.28 9617.97 3865.35 2783.61 3635.16 5794.08 657.937 1320.16 2214.85 5321.62 266.647 568.761 230.186 3823.89 386.676 2101.18 1854.6 3275.96 788.274 1053.51 779.643 227.058 273.871 142.763 472.464 100.247
internal_count=75988 32119 43869 20954 18131 38577 15495 11165 14572 23239 2636 5292 8884 21344 1069 2281 923 15338 1551 8428 7439 13140 3162 4223 3125 910 1098 572 1895 402
is_linear=0
shrinkage=0.05


Tree=2
num_leaves=31
num_cat=0
split_feature=44 42 45 0 23 37 2 45 12 18 44 12 1 23 44 36 16 18 45 23 42 7 1 44 42 1 16 44 31 16
split_gain=120.101 73.7359 54.6753 39.3702 32.7817 32.5277 44.1249 28.6557 32.2696 23.0731 35.9746 21.0013 19.8065 19.2215 16.1425 19.912 14.5764 14.1223 12.4779 11.9309 11.7898 11.447 10.3606 10.096 9.81036 13.1437 11.1254 14.3957 9.76963 12.2976
threshold=33.431752837445806 1.0000000180025095e-35 -10.503431019812433 2.5000000000000004 1.0000000180025095e-35 1.0000000180025095e-35 20.000000000000004 12.124196171678127 15.20524194142968 1.0000000180025095e-35 -32.937572892420725 25.070643817421843 22.500000000000004 1.0000000180025095e-35 -1.6705735764452052 4.5000000000000009 18.455970555187374 1.0000000180025095e-35 21.054987806819927 1.0000000180025095e-35 1.5000000000000002 1.0000000180025095e-35 1.0000000180025095e-35 27.529603104426865 1.5000000000000002 22.500000000000004 78.006992544272933 49.610328347510638 1.5000000000000002 0.87389787038956745
decision_type=10 2 10 2 2 2 2 10 2 2 10 2 2 2 8 2 8 2 10 2 2 2 2 10 2 2 10 10 2 10
left_child=1 2 3 9 24 14 -7 8 23 16 -11 -9 17 -5 15 -3 -1 18 -6 -13 -16 -10 -20 -4 25 26 -2 -28 29 -8
right_child=4 5 7 13 12 6 28 11 21 10 -12 19 -14 -15 20 -17 -18 -19 22 -21 -22 -23 -24 -25 -26 -27 27 -29 -30 -31
leaf_value=0.019986740644229985 0.0035823050904656728 -0.012359081129628628 0.00042890752786011116 -0.016047717124790774 0.0069198901782308976 0.041184524141769263 -0.021692773878620827 0.015500015251124705 -0.0067862702931385591 -0.0016860140170017121 0.013458540980056895 -0.0094185968080083698 -0.0019665580520162981 0.0041318997804347694 -0.0059800421204979949 -0.033075756695469062 0.008704288635521442 0.0076530863442021745 0.034265475126199145 0.0047299557985843975 -0.014541037641902847 0.0054606860711735898 0.018597338268514434 -0.016631113081529779 -0.012966615411382288 -0.024355269060584175 0.002792248228946631 0.067201422979496758 0.0023460863613763683 -0.0011319067018506549
leaf_weight=410.64246165752411 560.15545806288719 443.51641035079956 4226.4470015615225 292.49506902694702 208.41615104675293 61.113047614693642 122.40472033619881 362.5209723263979 3772.0621631890535 1167.291068598628 586.01850987970829 204.53913722932339 173.75059950351715 191.34391689300537 1346.9744985252619 165.16915298998356 1061.7312472611666 437.96478794515133 133.36724881827831 535.60887885093689 598.49722354114056 195.68109555542469 834.26868695020676 87.51254303753376 102.51075160503387 37.891084805130959 22.212305843830109 15.477164462208746 399.43819092214108 190.99037927389145
leaf_count=1646 2245 1780 16951 1173 835 245 491 1453 15135 4683 2349 820 697 767 5403 663 4255 1756 534 2147 2401 785 3341 351 411 152 89 62 1602 766
internal_value=0 -0.0015603 0.00012525 0.00526696 0.0101487 -0.00820491 0.000713924 -0.00190222 -0.00291449 0.00727012 0.00335212 0.00565099 0.01381 -0.00797209 -0.0109262 -0.0181077 0.0118963 0.0155395 0.0184249 0.000745122 -0.00864552 -0.00616845 0.0208416 6.7468e-05 0.00120791 0.00358882 0.00548111 0.0315875 -0.00273852 -0.00936499
internal_weight=18948 16422 13093.9 3709.52 2526.01 3328.1 773.946 9384.37 8281.7 3225.68 1753.31 1102.67 1787.77 483.839 2554.16 608.686 1472.37 1614.02 1176.05 740.148 1945.47 3967.74 967.636 4313.96 738.247 635.736 597.845 37.6895 712.833 313.395
internal_count=75988 65866 52515 14873 10122 13351 3104 37642 33222 12933 7032 4420 7163 1940 10247 2443 5901 6466 4710 2967 7804 15920 3875 17302 2959 2548 2396 151 2859 1257
is_linear=0
shrinkage=0.05


Tree=3
num_leaves=31
num_cat=0
split_feature=45 12 39 29 32 1 4 45 19 39 45 29 45 11 35 39 15 19 17 45 4 38 45 12 27 1 19 25 45 11
split_gain=81.728 79.1624 66.1993 43.4007 32.306 31.9654 29.5937 26.6534 25.4473 22.8957 19.8083 19.3338 15.9458 15.4063 18.5235 15.011 14.1058 25.8529 13.2663 17.1559 12.1917 26.3644 13.3938 11.6731 11.6485 10.9837 13.0613 10.8704 10.6659 15.6369
threshold=12.124196171678127 1.0000000180025095e-35 0.97211153665431638 2.5000000000000004 1.0000000180025095e-35 1.0000000180025095e-35 20.000000000000004 32.91838967305457 4.9969638692461755 0.97645311749877184 -30.710382144261541 2.5000000000000004 -11.034475799921076 2.2263108926171786 1.5000000000000002 0.95893720852824982 1.0000000180025095e-35 14.672469530905969 1.0000000180025095e-35 21.851085839686384 1.0000000180025095e-35 1.0000000180025095e-35 16.612824333737368 5.8460907037276106 1.0000000180025095e-35 22.500000000000004 20.314519942600548 1.0000000180025095e-35 0.64213250372545583 18.079912722577763
decision_type=8 2 2 2 2 2 2 10 10 2 10 2 10 10 2 2 2 8 2 8 2 2 10 2 2 2 10 2 10 10
left_child=1 4 5 20 12 16 7 8 -5 -3 -6 18 -1 14 -11 27 17 -2 19 -7 21 -4 -22 -13 -17 26 -8 -12 29 -15
right_child=2 9 3 6 10 11 25 -9 -10 13 15 23 -14 28 -16 24 -18 -19 -20 -21 22 -23 -24 -25 -26 -27 -28 -29 -30 -31
leaf_value=0.012507634367922425 0.059277933412960199 -0.009266889308895538 0.001855604692018631 0.030214591562473594 -0.0098100191632094578 0.018522357486182337 -0.0021152465698012538 0.025773757282525074 0.0093295081492167555 0.0012157645450510568 0.031449506561524516 0.028138265928455516 -0.0022296562482135057 -0.0094568762205200496 -0.0068393240887819565 0.0067449242623689905 0.0048636748262626001 0.0054356611564829165 -0.018197995106468912 -0.010710632838443953 -0.0044367238813214777 0.042951300062051924 0.0088291345682238506 -0.0025312497975609441 0.020650926144218162 -0.0049211797715193678 0.010359126046707478 -0.0014645812082821777 -0.0044234396476553724 -0.033566253986052619
leaf_weight=204.79026508331299 37.965344846248627 2744.7580878287554 208.23035478591919 158.76056607067585 119.17115108668804 64.882468223571777 311.71143062412739 350.02276015281677 2125.1595542728901 2125.6975181549788 134.29114192724228 30.435419961810112 1673.9222124367952 512.39891210198402 1068.1623797416687 939.05753743648529 256.93574868142605 58.139101326465607 380.28674845397472 202.92356154322624 1063.0021443665028 47.937981069087982 229.0075111836195 1585.8809597492218 185.62490473687649 297.15160194039345 604.11579650640488 27.180762872099876 1119.3271930217743 79.695549830794334
leaf_count=821 152 11019 835 636 478 260 1249 1401 8516 8528 538 122 6714 2057 4285 3763 1030 233 1526 814 4263 192 918 6360 744 1192 2420 109 4493 320
internal_value=0 -0.00280951 0.00383742 0.00700512 0.00367385 -0.00267296 0.00984949 0.0128315 0.0108157 -0.00559936 0.00940698 -0.00487098 -0.000590809 -0.00353553 -0.00146385 0.0112327 0.0112579 0.027612 -0.0121747 -0.00339967 -3.2093e-05 0.00987757 -0.00204168 -0.00190578 0.00910079 0.0033277 0.00606113 0.0256264 -0.00736939 -0.0128374
internal_weight=18946.6 10934.1 8012.55 5395.1 3284.04 2617.45 3846.92 2633.94 2283.92 7650.04 1405.33 2264.41 1878.71 4905.28 3193.86 1286.15 353.04 96.1044 648.093 267.806 1548.18 256.168 1292.01 1616.32 1124.68 1212.98 915.827 161.472 1711.42 592.094
internal_count=75988 43869 32119 21622 13167 10497 15414 10553 9152 30702 5632 9082 7535 19683 12813 5154 1415 385 2600 1074 6208 1027 5181 6482 4507 4861 3669 647 6870 2377
is_linear=0
shrinkage=0.05


Tree=4
num_leaves=31
num_cat=0
split_feature=44 42 39 45 0 23 43 45 33 16 39 7 1 44 11 44 4 39 33 27 39 11 1 43 31 43 42 33 31 43
split_gain=100.727 66.1752 45.9449 45.4569 35.407 28.6259 26.6224 24.1047 25.888 18.944 17.6316 17.3313 16.9381 16.129 15.6357 13.8208 13.7802 13.6985 14.8273 13.5251 12.1098 15.3621 11.5085 11.479 11.3825 11.3501 9.56715 9.09739 8.86939 8.60707
threshold=33.431752837445806 1.0000000180025095e-35 0.97309719636412984 -10.503431019812433 2.5000000000000004 1.0000000180025095e-35 -23.026797130356162 11.371258058403756 9.0950950870789775 42.744870238494194 0.96112963831684639 1.0000000180025095e-35 22.500000000000004 -24.534775191727043 16.099423999022964 8.7624256926459818 20.000000000000004 0.97063665877037453 8.1371773558906373 1.0000000180025095e-35 0.9644478730293401 24.081838956063603 1.0000000180025095e-35 0.80811491843000305 1.5000000000000002 0.085066058879957232 1.5000000000000002 0.91093583461741578 1.5000000000000002 0.40952155339517576
decision_type=10 2 2 10 2 2 10 10 2 10 2 2 2 10 10 8 2 2 2 2 2 10 2 8 2 10 2 2 2 10
left_child=1 3 29 4 6 20 19 8 9 -5 -10 25 17 -13 -8 -4 23 -7 -19 -1 -2 26 -9 -17 -18 -6 28 -24 -22 -3
right_child=5 2 15 7 11 12 14 22 10 -11 -12 13 -14 -15 -16 16 24 18 -20 -21 21 -23 27 -25 -26 -27 -28 -29 -30 -31
leaf_value=-0.02941106305334474 -0.0085060060480802013 -0.022545968976366494 -0.0076868100299551743 -0.0017893090543582271 -0.013026892577617534 0.0063520344842565484 0.0061596562643126103 0.019833848632339786 0.033923259948096578 -0.0073607838946083103 0.0049348218664425018 -0.030798528119357762 -0.0018599740303234175 0.023723620484334296 0.016354869952173594 -0.0059546922840137181 -0.012827860056416755 0.010089652712355077 0.021734190392035699 0.0047760583518627331 -0.012672923653487021 0.051233901345872912 0.023550736207076744 0.0099481948995534981 0.0023600838409580899 0.0049326260975179823 -0.017222463672939115 0.0021273288780150148 0.0085971201071988902 -0.012350232104932753
leaf_weight=73.776061430573463 229.11614260077477 271.3928901553154 739.2892599105835 5614.2467346489429 143.7978670746088 421.56456272304058 2662.1816549301147 114.58530305325985 63.636321246623993 2114.7847349792719 318.0861220061779 107.12483885884285 173.72558373212814 13.709399461746214 447.66706535220146 144.55560624599457 241.29072931408882 483.24209234118462 710.20112831890583 43.117351084947586 53.400158688426018 16.730609580874443 51.649488240480423 469.91564460098743 241.63567160069942 219.01757471263409 47.899362206459045 1104.5302037894726 391.16535080969334 1217.8207560032606
leaf_count=296 919 1090 2968 22526 577 1689 10671 459 255 8492 1276 430 697 55 1793 580 968 1935 2842 173 214 67 207 1884 969 878 192 4427 1567 4892
internal_value=0 -0.00142825 -0.00772549 0.00016817 0.00485573 0.00929308 0.00675507 -0.00168075 -0.00268794 -0.00332098 0.00997409 -0.00770067 0.0127127 -0.0240583 0.00764813 -0.0023986 0.00112217 0.0143114 0.0170734 -0.0164431 0.000934592 0.0052888 0.00470548 0.00612217 -0.00513597 -0.00206424 0.00352592 0.0031471 0.00590729 -0.0142557
internal_weight=18944.9 16417.8 3325.9 13091.9 3710.39 2527.04 3226.74 9381.52 8110.75 7729.03 381.722 483.65 1788.73 120.834 3109.85 1836.69 1097.4 1615.01 1193.44 116.893 738.312 509.195 1270.76 614.471 482.926 362.815 492.465 1156.18 444.566 1489.21
internal_count=75988 65866 13351 52515 14873 10122 12933 37642 32549 31018 1531 1940 7163 485 12464 7369 4401 6466 4777 469 2959 2040 5093 2464 1937 1455 1973 4634 1781 5982
is_linear=0
shrinkage=0.05


Tree=5
num_leaves=31
num_cat=0
split_feature=44 42 45 0 37 23 0 44 19 15 19 19 5 23 1 19 36 19 44 36 12 23 45 12 19 24 42 19 24 42
split_gain=90.9102 59.816 41.0071 31.9496 26.8172 25.8423 25.2307 22.8495 32.9813 18.5888 22.3691 21.1676 16.6505 16.0097 15.3131 14.4739 24.1634 21.3536 13.3785 18.0605 13.1856 19.8212 18.9165 13.0591 11.4457 11.1601 12.3167 10.9084 10.8398 10.6272
threshold=33.431752837445806 1.0000000180025095e-35 -10.503431019812433 2.5000000000000004 1.0000000180025095e-35 1.0000000180025095e-35 1.0000000180025095e-35 7.4048138013284488 6.6225139280394076 1.0000000180025095e-35 -3.4094620235401774 14.801437957193434 67.500000000000014 1.0000000180025095e-35 22.500000000000004 24.289150142164885 31.500000000000004 45.531538502959428 -1.6705735764452052 4.5000000000000009 25.889644653241458 1.0000000180025095e-35 12.124196171678127 26.097819740879299 25.156315052328022 1.0000000180025095e-35 1.5000000000000002 27.058360164597882 1.0000000180025095e-35 1.5000000000000002
decision_type=10 2 10 2 2 2 2 10 10 2 10 8 2 2 2 10 2 10 8 2 2 2 10 2 10 2 2 10 2 2
left_child=1 2 3 9 18 25 12 8 23 11 -11 -1 -6 -5 15 -7 17 -17 19 -3 22 -22 -9 -4 -10 26 -2 -8 29 -20
right_child=5 4 7 13 6 14 27 20 24 10 -12 -13 -14 -15 -16 16 -18 -19 28 -21 21 -23 -24 -25 -26 -27 -28 -29 -30 -31
leaf_value=0.027260863897601212 0.0088835780619734191 -0.010894357417413778 0.0024282029146787806 -0.014699674989695972 0.039169769327506751 0.0072116740177707323 -0.0066136855557554905 0.001890810975481513 -0.007298396008222692 0.012716585331268106 0.0024238877131217687 0.0030542687483329422 -0.010697201629830878 0.0037059795030132425 -0.0017676914292243631 0.020863373210846876 0.030627913542001679 0.0039691639946325928 -0.00087495819679401967 -0.030648829645701009 -0.0090968860806330109 0.0025605149615368205 0.014481907075263513 -0.010502784415358492 0.0039778301413873002 -0.0066037522072199348 -0.017590286799457729 0.0068869366228172125 -0.011707758041591763 -0.012314336877508133
leaf_weight=213.48841759562492 397.96074728667736 442.64151254296303 2042.1326294094324 291.99852912127972 63.470592111349106 592.23025201261044 475.69137406349182 1682.2420815974474 3316.9429551810026 708.30570858716965 2140.4791771620512 165.24703012406826 20.197600081562996 191.39017456769943 173.70782092213631 389.77880604565144 256.87749584019184 376.49977424740791 738.63548707962036 164.55801025032997 594.6289963722229 929.8763961493969 365.59133392572403 214.02355468273163 234.88496911525726 292.94161933660507 47.361223503947258 214.37349824607372 919.49556805193424 285.06557722389698
leaf_count=855 1594 1780 8191 1173 254 2371 1909 6750 13318 2837 8579 662 81 767 697 1560 1028 1507 2965 663 2387 3729 1464 860 943 1175 190 860 3694 1145
internal_value=4.75658e-09 -0.00135665 0.00016069 0.0046126 -0.00734559 0.00882839 0.000747509 -0.00159549 -0.00353324 0.00641642 0.00500412 0.0168667 0.0265571 -0.00731642 0.012077 0.0135968 0.0172333 0.0126438 -0.00981978 -0.0163718 0.00154108 -0.00195663 0.00416902 0.00117528 -0.00653771 0.000882491 0.00592288 -0.00234337 -0.00773934 -0.00411814
internal_weight=18942.7 16415.4 13091.2 3710.91 3324.13 2527.36 773.733 9380.32 5807.98 3227.52 2848.78 378.735 83.6682 483.389 1789.09 1615.39 1023.16 766.279 2550.4 607.2 3572.34 1524.51 2047.83 2256.16 3551.83 738.264 445.322 690.065 1943.2 1023.7
internal_count=75988 65866 52515 14873 13351 10122 3104 37642 23312 12933 11416 1517 335 1940 7163 6466 4095 3067 10247 2443 14330 6116 8214 9051 14261 2959 1784 2769 7804 4110
is_linear=0
shrinkage=0.05


end of trees

feature_importances:
Column_45=19
Column_19=16
Column_44=15
Column_1=12
Column_43=12
Column_12=10
Column_39=10
Column_42=8
Column_23=7
Column_36=7
Column_0=6
Column_16=6
Column_18=6
Column_33=6
Column_4=5
Column_11=5
Column_24=4
Column_7=3
Column_15=3
Column_29=3
Column_31=3
Column_27=2
Column_35=2
Column_37=2
Column_2=1
Column_5=1
Column_10=1
Column_17=1
Column_20=1
Column_25=1
Column_32=1
Column_38=1

parameters:
[boosting: gbdt]
[objective: binary]
[metric: binary_logloss]
[tree_learner: serial]
[device_type: cpu]
[data_sample_strategy: bagging]
[data: ]
[valid: ]
[num_iterations: 500]
[learning_rate: 0.05]
[num_leaves: 31]
[num_threads: 8]
[seed: 0]
[deterministic: 0]
[force_col_wise: 0]
[force_row_wise: 0]
[histogram_pool_size: -1]
[max_depth: 6]
[min_data_in_leaf: 50]
[min_sum_hessian_in_leaf: 0.001]
[bagging_fraction: 0.8]
[pos_bagging_fraction: 1]
[neg_bagging_fraction: 1]
[bagging_freq: 0]
[bagging_seed: 3]
[bagging_by_query: 0]
[feature_fraction: 0.7]
[feature_fraction_bynode: 1]
[feature_fraction_seed: 2]
[extra_trees: 0]
[extra_seed: 6]
[early_stopping_round: 0]
[early_stopping_min_delta: 0]
[first_metric_only: 0]
[max_delta_step: 0]
[lambda_l1: 1]
[lambda_l2: 1]
[linear_lambda: 0]
[min_gain_to_split: 0]
[drop_rate: 0.1]
[max_drop: 50]
[skip_drop: 0.5]
[xgboost_dart_mode: 0]
[uniform_drop: 0]
[drop_seed: 4]
[top_rate: 0.2]
[other_rate: 0.1]
[min_data_per_group: 100]
[max_cat_threshold: 32]
[cat_l2: 10]
[cat_smooth: 10]
[max_cat_to_onehot: 4]
[top_k: 20]
[monotone_constraints: ]
[monotone_constraints_method: basic]
[monotone_penalty: 0]
[feature_contri: ]
[forcedsplits_filename: ]
[refit_decay_rate: 0.9]
[cegb_tradeoff: 1]
[cegb_penalty_split: 0]
[cegb_penalty_feature_lazy: ]
[cegb_penalty_feature_coupled: ]
[path_smooth: 0]
[interaction_constraints: ]
[verbosity: -1]
[saved_feature_importance_type: 0]
[use_quantized_grad: 0]
[num_grad_quant_bins: 4]
[quant_train_renew_leaf: 0]
[stochastic_rounding: 1]
[linear_tree: 0]
[max_bin: 255]
[max_bin_by_feature: ]
[min_data_in_bin: 3]
[bin_construct_sample_cnt: 200000]
[data_random_seed: 1]
[is_enable_sparse: 1]
[enable_bundle: 1]
[use_missing: 1]
[zero_as_missing: 0]
[feature_pre_filter: 1]
[pre_partition: 0]
[two_round: 0]
[header: 0]
[label_column: ]
[weight_column: ]
[group_column: ]
[ignore_column: ]
[categorical_feature: ]
[forcedbins_filename: ]
[precise_float_parser: 0]
[parser_config_file: ]
[objective_seed: 5]
[num_class: 1]
[is_unbalance: 0]
[scale_pos_weight: 1]
[sigmoid: 1]
[boost_from_average: 1]
[reg_sqrt: 0]
[alpha: 0.9]
[fair_c: 1]
[poisson_max_delta_step: 0.7]
[tweedie_variance_power: 1.5]
[lambdarank_truncation_level: 30]
[lambdarank_norm: 1]
[label_gain: ]
[lambdarank_position_bias_regularization: 0]
[eval_at: ]
[multi_error_top_k: 1]
[auc_mu_weights: ]
[num_machines: 1]
[local_listen_port: 12400]
[time_out: 120]
[machine_list_filename: ]
[machines: ]
[gpu_platform_id: -1]
[gpu_device_id: -1]
[gpu_use_dp: 0]
[num_gpu: 1]

end of parameters

pandas_categorical:null
