tree
version=v4
num_class=1
num_tree_per_iteration=1
label_index=0
max_feature_idx=45
objective=binary sigmoid:1
feature_names=Column_0 Column_1 Column_2 Column_3 Column_4 Column_5 Column_6 Column_7 Column_8 Column_9 Column_10 Column_11 Column_12 Column_13 Column_14 Column_15 Column_16 Column_17 Column_18 Column_19 Column_20 Column_21 Column_22 Column_23 Column_24 Column_25 Column_26 Column_27 Column_28 Column_29 Column_30 Column_31 Column_32 Column_33 Column_34 Column_35 Column_36 Column_37 Column_38 Column_39 Column_40 Column_41 Column_42 Column_43 Column_44 Column_45
feature_infos=[0:18] [0:25] [0:25] [0:25] [0:25] [0:100] [0:1] [0:1] [0:1] [0:1] [0:100] [0:30] [0:30] [0:15] [0:15] [0:1] [0:90] [0:1] [0:3] [-94.499318212830502:11301.315932541343] [0:1] [0:1] [0:1] [0:1] [0:1] [0:1] [0:1] [0:1] [0:1] [0:3] [0:3] [0:4] [0:4] [0:906.29514883883519] [0:1] [0:3] [0:109] [0:1] [0:14] [0.81818170409141433:1.0000000000000002] [0:1] [0:1] [0:10] [-101.06728697568118:10847.953936207316] [-109.96576723484168:9741.5298838323888] [-95.397477866349647:10405.384315257344]
tree_sizes=3472 3545 3530 3537 3556 3491 3570 3536 3556 3519 3576 3558 3564 3558 3562 3544 3551 3571 3578 3565 3557 3573 3536 3566 3541 3551 3546 3548 3567 3562 3591 3567 3401 3554 3576 3501 3507 3575 3564 3474 3509 3533 3497 3570 3555 3532 3565 3419 3544 3438 3465 3548 3510 3485 3491 3531 3530 3479 3554

Tree=0
num_leaves=31
num_cat=0
split_feature=2 37 11 32 1 4 44 43 43 43 19 19 18 10 44 43 19 0 18 32 25 1 29 12 10 44 19 22 43 18
split_gain=255.586 129.356 106.735 78.7214 92.1353 59.0167 55.4691 66.6648 47.6053 43.0346 74.001 42.0157 40.7126 38.6532 33.1733 32.252 31.1693 24.3591 32.148 22.0985 21.3787 21.3315 20.5747 20.1192 19.5348 16.8338 16.8025 15.8556 15.8315 14.5182
threshold=10.000000000000002 1.0000000180025095e-35 inf 1.0000000180025095e-35 22.500000000000004 1.0000000180025095e-35 35.152283562445575 -33.488175459144848 -3.4133750295110397 -9.9429486538014178 2.747074740389492 -6.1157168093986369 1.0000000180025095e-35 20.000000000000004 3.614120897368978 -4.8066307204459857 28.625288171882541 1.0000000180025095e-35 1.0000000180025095e-35 1.0000000180025095e-35 1.0000000180025095e-35 1.0000000180025095e-35 1.5000000000000002 1.4271594573939168 1.0000000180025095e-35 -15.647452361226916 11.517610764257556 inf -9.0652661043635661 1.5000000000000002
decision_type=2 2 8 2 2 2 8 10 10 8 8 10 2 2 8 8 10 2 2 2 2 2 2 10 2 10 10 8 10 2
left_child=2 6 3 14 9 -3 8 22 17 20 -11 13 -13 -9 26 24 23 19 -19 -2 -5 -10 27 -7 -16 -23 -1 -8 -6 -17
right_child=1 5 -4 4 28 16 7 11 21 10 -12 12 -14 -15 15 29 -18 18 -20 -21 -22 25 -24 -25 -26 -27 -28 -29 -30 -31
leaf_value=-0.12258562142970096 -0.12400883651714828 -0.05766714728213182 -0.14184147842346417 -0.11874120854469639 -0.14568001255428403 -0.088804944862635932 -0.12617432637051057 -0.085437050898789113 -0.10886142623984756 -0.10697359378431913 -0.11737093851827619 -0.10335688013925602 -0.11488123838450807 -0.1182018534382359 -0.12355115330271452 -0.11449034977891728 -0.086060157923578406 -0.096622954932721924 -0.11005204647145797 -0.10737951213180666 -0.1356768430991897 -0.12303026236108948 -0.1383574138432849 -0.11145513394641435 -0.1542158328240977 -0.11628943290521264 -0.1292599386095464 -0.10168926127842669 -0.12802077424431085 -0.12105097714769436
leaf_weight=6705.8579284846783 470.9099905192852 101.90591858327389 521.98752917349339 1702.5015688985586 168.18213947117329 132.30328305065632 172.91615524888039 418.58665823936462 829.94771344959736 3424.9358358085155 3404.2556616216898 2077.9837676882744 1230.345784753561 110.87563268840313 1523.3564455211163 3088.073239415884 335.61680276691914 576.80244870483875 2056.8052760511637 344.58651687204838 210.28996402025223 1093.8068033754826 185.62325023114681 403.63713473081589 53.818284630775452 6123.3248291015625 1120.4667869657278 105.39414073526859 615.42205110192299 1158.3389131873846
leaf_count=26914 1890 409 2095 6833 675 531 694 1680 3331 13746 13663 8340 4938 445 6114 12394 1347 2315 8255 1383 844 4390 745 1620 216 24576 4497 423 2470 4649
internal_value=-0.116149 -0.111426 -0.119492 -0.118985 -0.115502 -0.0937357 -0.112521 -0.107675 -0.114339 -0.114024 -0.112163 -0.105504 -0.107626 -0.0923836 -0.12142 -0.118549 -0.0980725 -0.109425 -0.107086 -0.116919 -0.120638 -0.11644 -0.125505 -0.10573 -0.124653 -0.117319 -0.123549 -0.116704 -0.131907 -0.116269
internal_weight=40468.9 16771.4 23697.5 23175.5 9525.59 973.463 15797.9 4301.73 11496.2 8741.98 6829.19 3837.79 3308.33 529.462 13649.9 5823.59 871.557 3449.1 2633.61 815.497 1912.79 8047.08 463.934 535.94 1577.17 7217.13 7826.32 278.31 783.604 4246.41
internal_count=162422 67312 95110 93015 38231 3907 63405 17265 46140 35086 27409 15403 13278 2125 54784 23373 3498 13843 10570 3273 7677 32297 1862 2151 6330 28966 31411 1117 3145 17043
is_linear=0
shrinkage=1


Tree=1
num_leaves=31
num_cat=0
split_feature=2 33 37 1 16 39 45 43 19 19 33 2 43 19 34 43 0 33 19 39 31 33 33 33 43 45 39 43 33 36
split_gain=230.796 116.845 116.727 87.6037 81.55 56.5971 87.7002 54.0034 61.1958 51.6065 45.2601 44.5753 41.9447 43.6651 34.185 28.7791 38.8956 30.858 27.7528 27.1218 26.9471 20.9301 21.8489 20.7109 20.5883 19.9836 18.8487 18.1909 36.0112 18.0428
threshold=10.000000000000002 5.3379387545168475 1.0000000180025095e-35 22.500000000000004 89.998687399874683 0.98537753645871951 15.695921698354681 -9.9429486538014178 2.9091233226017787 -1.5584398924608134 7.1938924900229475 20.000000000000004 -33.488175459144848 -11.721326007478638 1.0000000180025095e-35 -3.4133750295110397 1.0000000180025095e-35 5.4326349946453032 28.625288171882541 0.97590929877718613 1.5000000000000002 26.007282708932213 7.2608913314844274 1.0000000180025095e-35 -4.883316513716184 42.326087184155078 0.99999302735579443 -12.415525714823946 7.7145337391764839 12.500000000000002
decision_type=2 2 2 2 8 2 8 10 10 8 2 2 10 10 2 10 2 2 10 2 2 2 2 2 8 8 2 10 2 2
left_child=1 4 5 7 14 9 15 21 10 27 -9 -4 -8 -14 19 16 -7 -17 26 25 -16 22 -3 -6 -22 -1 -13 -2 -29 -10
right_child=2 3 11 -5 23 6 12 8 29 -11 -12 18 13 -15 20 17 -18 -19 -20 -21 24 -23 -24 -25 -26 -27 -28 28 -30 -31
leaf_value=-0.0079504079263704869 -0.0046309212873370783 -0.011273574492164597 0.058554408124444235 -0.015723330432345025 0.0057159638817921125 -0.0045028611642928462 -0.0054373674740173491 0.0036985263164955096 -0.0030614895723804305 -0.0038285342414223138 0.015625661262597061 -0.026705357122610043 0.031680275702228464 0.011892811582754473 -0.017475672226287233 -0.0013180138363249891 0.0097441916059515452 0.0076588141441482037 0.029200007337013417 0.0064744057281123403 -0.0090553418652855235 -0.029182560729043541 0.00036404520863345433 -0.031023152581454484 -0.0044136712112718621 0.0064845306041027076 0.013206867717805741 0.0059349453149177781 0.038643153588700484 0.0062863185635879983
leaf_weight=978.49150608479977 97.472320288419724 554.14192001521587 74.43614299595356 675.77840343117714 39.799482822418213 604.38418324291706 299.82952202856541 1503.9081232845783 1771.8906345367432 3475.2595338523388 1721.5255040228367 29.667406871914864 316.53920887410641 2592.1650535613298 512.59887777268887 4627.8433837592602 2225.8621194213629 1204.9024788588285 348.61711883544922 1024.6052433103323 3360.4804849922657 77.966515958309174 1446.6792533099651 383.35344059765339 8601.8801917433739 312.92543461918831 521.80508807301521 213.07755170762539 143.56719179451466 726.49509143829346
leaf_count=3928 391 2225 298 2715 160 2426 1204 6033 7112 13946 6906 119 1269 10399 2058 18574 8929 4836 1397 4113 13493 313 5808 1541 34533 1256 2093 855 576 2916
internal_value=0 -0.00317755 0.00448699 0.00152134 -0.00579931 0.00344667 0.00516924 0.00302312 0.0055333 -0.00174485 0.0100828 0.0212824 0.0122336 0.0140735 -0.00517487 0.00254593 0.00668363 0.000528803 0.0180831 0.000383461 -0.00621075 -0.00386379 -0.00283812 -0.0274445 -0.00572244 -0.00441166 0.0109248 0.0140646 0.0193127 -0.000321847
internal_weight=40467.9 23692.5 16775.4 8478.39 15214.1 15800.9 11871.5 7802.61 5723.82 3929.38 3225.43 974.526 3208.53 2908.7 14791 8662.99 2830.25 5832.75 900.09 2316.02 12475 2078.79 2000.82 423.153 11962.4 1291.42 551.472 454.117 356.645 2498.39
internal_count=162422 95110 67312 34028 61082 63405 47637 31313 22967 15768 12939 3907 12872 11668 59381 34765 11355 23410 3609 9297 50084 8346 8033 1701 48026 5184 2212 1822 1431 10028
is_linear=0
shrinkage=0.05


Tree=2
num_leaves=31
num_cat=0
split_feature=2 37 16 42 44 2 23 12 27 45 42 45 3 45 16 27 44 36 1 42 18 10 12 42 12 31 1 23 45 3
split_gain=208.35 105.304 88.4489 82.1231 46.4942 40.2289 36.0388 58.7419 38.3848 34.1263 33.5012 31.9377 28.2569 27.6282 25.0615 24.1325 24.1306 22.9234 13.6856 15.1089 13.3635 12.4598 11.2439 10.826 10.3749 9.95047 9.89365 13.5762 12.6832 9.12022
threshold=10.000000000000002 1.0000000180025095e-35 inf 1.0000000180025095e-35 35.152283562445575 20.000000000000004 1.0000000180025095e-35 0.4087089977358237 1.0000000180025095e-35 4.7852776530592003 1.0000000180025095e-35 1.6369127885555501 20.000000000000004 -11.117238450287763 45.001327788776365 1.0000000180025095e-35 124.71217869735044 48.500000000000007 22.500000000000004 1.5000000000000002 1.0000000180025095e-35 20.000000000000004 0.4087089977358237 1.5000000000000002 8.308097617025469 1.0000000180025095e-35 22.500000000000004 1.0000000180025095e-35 -6.2072218749372103 10.000000000000002
decision_type=2 2 8 2 10 2 2 10 2 8 2 8 2 10 8 2 10 2 2 2 2 2 10 2 10 2 2 2 8 2
left_child=2 4 3 6 10 -3 7 8 -1 -8 13 -9 -11 14 -2 -15 26 20 19 -5 -6 24 -4 25 -20 -12 27 -7 -28 -21
right_child=1 5 22 18 17 16 9 11 -10 12 23 -13 -14 15 -16 -17 -18 -19 21 29 -22 -23 -24 -25 -26 -27 28 -29 -30 -31
leaf_value=-0.00093379175223657718 0.0083217160573184467 0.055617205301445309 -0.016548573351813211 -0.0061640429076265232 0.013689257817462719 0.01317821199365697 -0.0017856577375780381 -0.0094907342830056751 0.009282997940670043 0.01172699427655788 -0.021272091885562009 -0.0024599662433071458 -0.0018854200750963339 0.00034954799578313116 -0.0041322832313903405 0.0063512093671042012 0.056748749655708121 0.035408934451455175 -0.041352167806005286 -0.01963821520948077 0.0015286188110497393 -0.0017537912172743604 -0.032100929660304277 -0.013324678691779133 -0.017814054582644373 -0.0012656087355739551 0.041722451893255678 0.030881725837663517 0.0061894905059853541 -0.0085952456982227171
leaf_weight=8540.5161332637072 3375.7887891381979 74.49941511452198 295.85818862915039 2176.0264892727137 848.75546514987946 300.43116901814938 1762.2643145918846 3261.6385562717915 1029.0130400806665 1346.2318747937679 65.780919671058655 3248.7142559140921 523.08329997956753 7091.2886543422937 452.54670703411102 2200.3939415216446 36.969317644834518 101.01388446986675 60.665189817547798 406.74910743534565 321.27231423556805 104.22573859989643 224.37266100943089 297.82913474738598 314.93612425029278 1048.7253625392914 26.948020219802856 187.50634877383709 348.88334028422832 392.79167403280735
leaf_count=34283 13539 298 1191 8737 3403 1204 7077 13100 4131 5404 264 13044 2100 28456 1816 8830 148 405 244 1633 1289 419 904 1195 1266 4208 108 751 1398 1577
internal_value=0 0.00426247 -0.00301977 -0.00255894 0.003274 0.0202094 -0.00130938 -0.0023272 0.000160452 0.00318294 0.00246717 -0.00599092 0.00789218 0.00325715 0.00683578 0.00177673 0.017167 0.0124503 -0.00967023 -0.0083692 0.010397 -0.0176002 -0.0234009 -0.00483319 -0.0218483 -0.00250927 0.0153514 0.0201329 0.00897393 -0.0142931
internal_weight=40465.7 16778.6 23687.1 23166.9 15803.4 975.238 19711.5 16079.9 9569.53 3631.58 14532.4 6510.35 1869.32 13120 3828.34 9291.68 900.738 1271.04 3455.39 2975.57 1170.03 479.827 520.231 1412.34 375.601 1114.51 863.769 487.938 375.831 799.541
internal_count=162422 67312 95110 93015 63405 3907 79139 64558 38414 14581 58308 26144 7504 52641 15355 37286 3609 5097 13876 11947 4692 1929 2095 5667 1510 4472 3461 1955 1506 3210
is_linear=0
shrinkage=0.05


Tree=3
num_leaves=31
num_cat=0
split_feature=39 45 19 11 45 2 45 2 27 1 1 45 39 12 32 37 4 39 39 27 1 39 12 2 12 12 29 15 19 11
split_gain=192.568 123.517 99.1149 75.2249 55.998 43.7765 42.7892 42.6592 40.6086 41.3181 34.0281 28.2224 58.8845 41.219 27.0054 21.8035 20.258 18.4017 15.8556 15.8355 28.9574 15.3007 14.886 14.8309 14.3322 14.24 14.0626 36.5227 15.9865 13.0439
threshold=0.98675688251329485 16.104944201644312 -1.5584398924608134 inf -27.423675145302585 1.0000000180025095e-35 47.044069157158681 1.0000000180025095e-35 1.0000000180025095e-35 22.500000000000004 22.500000000000004 6.6405932993934904 0.97167935714864739 0.4087089977358237 1.0000000180025095e-35 1.0000000180025095e-35 10.000000000000002 0.95413144616193601 0.98886706947538594 1.0000000180025095e-35 1.0000000180025095e-35 0.9935435106062015 1.0000000180025095e-35 20.000000000000004 20.523763920919851 0.4087089977358237 1.0000000180025095e-35 1.0000000180025095e-35 3.4883706589614301 1.0000000180025095e-35
decision_type=2 8 8 8 10 2 10 2 2 2 2 8 2 10 2 2 2 2 2 2 2 2 10 2 10 10 2 2 8 10
left_child=2 7 4 10 -1 21 26 18 14 22 11 13 -13 -4 -6 19 -16 -12 -2 20 -9 -3 -10 -17 -25 -5 27 -7 -28 -19
right_child=1 5 3 25 8 6 -8 15 9 -11 17 12 -14 -15 16 23 -18 29 -20 -21 -22 -23 -24 24 -26 -27 28 -29 -30 -31
leaf_value=-0.0065453864461224899 -0.00083417005913287131 -0.0030559273261635813 -0.0013528270671334379 -0.014136963401514602 -0.0048020413340779233 0.041824863361310673 0.033881143247021454 0.0079565000421434589 0.026646361707984768 -0.0130066803053576 -0.016241696754933921 -0.0046945271814636848 0.0038998986582579735 -0.0074146639362427354 0.0015645037648504387 0.064078201918453662 0.010835478589033234 0.00030807028269438659 -0.017869407553290698 0.0065822819882812734 -0.00015778721302445368 -0.043134465493463447 -0.001951737578370243 0.021100360342420462 0.00076913068494538408 -0.030114023986737327 -0.0062277406279683863 0.011208410327043623 0.011269091820295549 -0.011510455617326932
leaf_weight=974.69209173321724 232.30285032093525 63.739857688546181 5451.0754213780165 334.0993810147047 611.71746626496315 136.24944372475147 237.01242728531361 1319.1355624496937 477.140499740839 85.526980638504028 741.92151948809624 4183.984113663435 3801.1371791213751 5827.8577618896961 1042.2368092238903 13.988831520080565 1399.0729765594006 460.50160326063633 354.57186311483383 1667.9024805277586 6513.7654021531343 40.316969186067581 46.576603516936302 200.99030117690563 161.23536698520184 269.24671013653278 132.42904008924961 366.23584553599358 2860.4282760173082 456.36297005414963
leaf_count=3912 933 256 21886 1346 2457 546 949 5293 1913 344 2984 16800 15255 23412 4181 56 5612 1849 1424 6691 26139 162 187 805 646 1087 531 1468 11465 1833
internal_value=0 0.00466497 -0.00255047 -0.00397996 0.0040743 0.0123405 0.0132416 0.00184519 0.00691533 0.0187178 -0.0034746 -0.00287896 -0.000597107 -0.00448981 0.00453837 0.00262788 0.00690027 -0.0103559 -0.0112243 0.00215337 0.0012032 -0.0193231 0.0240088 0.0144409 0.0122151 -0.0213876 0.0118184 0.019676 0.0104764 -0.00552618
internal_weight=40463.5 14300.3 26163.2 21526.2 4636.96 3836.41 3732.36 10463.9 3662.27 609.244 20922.8 19264.1 7985.12 11278.9 3053.03 9877.02 2441.31 1658.79 586.875 9500.8 7832.9 104.057 523.717 376.214 362.226 603.346 3495.34 502.485 2992.86 916.865
internal_count=162422 57364 105058 86452 18606 15377 14959 41987 14694 2444 84019 77353 32055 45298 12250 39630 9793 6666 2357 38123 31432 418 2100 1507 1451 2433 14010 2014 11996 3682
is_linear=0
shrinkage=0.05


Tree=4
num_leaves=31
num_cat=0
split_feature=39 33 45 42 11 43 0 43 33 45 2 45 33 43 15 42 45 33 39 1 33 1 3 33 33 1 33 33 39 11
split_gain=173.859 115.043 111.392 95.8186 64.0028 57.8325 55.6799 42.998 42.709 47.4879 39.6545 38.6451 38.3143 28.3891 43.8186 26.5469 32.0088 27.9471 25.1558 24.8271 23.8474 29.5024 19.9856 17.2616 15.9843 16.5714 15.5429 20.5033 13.8821 13.7126
threshold=0.98675688251329485 5.3379387545168475 16.104944201644312 1.0000000180025095e-35 27.495762849360883 -9.9429486538014178 1.0000000180025095e-35 -5.3705144304287407 8.922127956695947 3.0845798327570795 1.0000000180025095e-35 38.592015942907992 1.0000000180025095e-35 -33.488175459144848 1.0000000180025095e-35 1.0000000180025095e-35 1.6369127885555501 2.4941270517786776 0.97420080941417031 22.500000000000004 5.8739463671359191 1.0000000180025095e-35 20.000000000000004 6.4827659128809181 1.5810014540253772 1.0000000180025095e-35 7.2608913314844274 21.452756684391719 0.9935435106062015 5.5236602615798889
decision_type=2 2 8 2 8 10 2 10 2 8 2 10 2 10 2 2 8 2 2 2 2 2 2 2 2 2 2 2 2 10
left_child=1 4 6 5 15 26 20 24 19 -10 28 13 -6 -12 -15 16 17 -1 -5 -7 21 -2 -18 -9 25 -8 -3 -28 -4 -20
right_child=2 3 10 18 12 8 7 23 9 -11 11 -13 -14 14 -16 -17 22 -19 29 -21 -22 -23 -24 -25 -26 -27 27 -29 -30 -31
leaf_value=-0.0089985786185287041 0.003999836521910014 -0.0099611516175552618 -0.0029060622239421678 -0.010408918147094508 0.014186957518658269 0.0050949003831641665 -0.0045351677909456732 0.00091965723101125596 0.021916509563903841 0.0053608503490551393 -0.0021287423355936235 0.028707909075877225 -0.026978685340325711 0.023819425463507599 0.0092676886336396438 -0.0098429745660659693 0.0007339313462585797 -0.0028975132668066813 -0.0052733000762399907 -0.010665109239637278 0.0065529252849247117 -0.0090831958371574532 -0.0060668714933195646 0.0082399787960924977 0.008631958896396872 0.02552845524579794 0.0015632308632931625 -0.018763133335263558 -0.041166159221205423 0.011167229791561289
leaf_weight=3616.3101137578487 551.80417285859585 551.61622822284698 63.727474331855774 1692.1490061432123 61.891822025179863 3790.8940314203501 50.632405266165733 5091.3833974599838 850.04733090102673 904.37779685854912 364.40193793177605 340.54250630736351 471.73312652111053 672.73173965513706 2356.3823489397764 2009.8107437491417 4486.151651352644 3972.4513742923737 271.7993301153183 264.72676688432693 434.94737216830254 1886.0311549007893 1418.4937560111284 961.19547884166241 1192.0243074297905 296.59471461176872 1427.1359752267599 134.81230460107327 40.183586582541466 233.18261806666851
leaf_count=14534 2215 2217 256 6802 249 15205 203 20428 3407 3628 1462 1363 1907 2694 9440 8078 18012 15959 1091 1064 1745 7574 5697 3854 4779 1189 5730 542 162 936
internal_value=0 -0.00242418 0.00443172 0.00174606 -0.00505905 0.00431194 0.0017534 0.0040002 0.00689048 0.0134187 0.011719 0.0125761 -0.022093 0.0109346 0.0125228 -0.00446812 -0.00366318 -0.00581227 -0.00748237 0.00405148 -0.00416608 -0.00610092 -0.000892134 0.00209161 0.0114664 0.0210006 -0.00275255 -0.000170036 -0.0184296 0.0022266
internal_weight=40460.2 26157.6 14302.6 10120.7 16036.8 7923.61 10464.6 7591.83 5810.05 1754.43 3837.97 3734.06 533.625 3393.52 3029.11 15503.2 13493.4 7588.76 2197.13 4055.62 2872.78 2437.84 5904.65 6052.58 1539.25 347.227 2113.56 1561.95 103.911 504.982
internal_count=162422 105058 57364 40622 64436 31793 41987 30453 23304 7035 15377 14959 2156 13596 12134 62280 54202 30493 8829 16269 11534 9789 23709 24282 6171 1392 8489 6272 418 2027
is_linear=0
shrinkage=0.05


Tree=5
num_leaves=31
num_cat=0
split_feature=40 42 11 19 19 0 27 5 44 5 1 42 45 12 19 19 12 5 16 0 36 0 45 45 5 44 44 16 0 11
split_gain=127.482 97.8897 76.052 83.1438 47.1745 64.1725 47.0261 39.0716 24.6636 23.0906 21.9831 21.7083 25.7462 18.3011 18.1446 17.3304 14.7252 13.6729 10.0698 9.65559 9.2804 8.63168 8.31402 7.78979 7.16561 6.6383 6.51686 6.15587 5.73585 5.16824
threshold=1.0000000180025095e-35 1.0000000180025095e-35 inf 29.455362237373688 -1.5584398924608134 1.0000000180025095e-35 1.0000000180025095e-35 72.500000000000014 46.045973153551479 12.500000000000002 22.500000000000004 2.5000000000000004 35.848346007489852 0.4087089977358237 28.625288171882541 1.0000000180025095e-35 1.4271594573939168 17.500000000000004 18.139190195266767 1.0000000180025095e-35 53.500000000000007 3.5000000000000004 -2.0151800714241701 7.6438061380159743 97.500000000000014 59.452012760408088 -9.8424616633953121 41.868311137318706 3.5000000000000004 0.52186089893972298
decision_type=2 2 8 8 10 2 2 2 10 2 2 2 10 10 10 10 10 2 8 2 2 2 8 10 2 10 8 10 2 10
left_child=1 2 3 4 6 -6 -1 27 9 -5 11 12 18 17 16 -12 -9 -4 -3 -19 -10 25 -17 -18 -16 -13 -24 -2 -14 -25
right_child=7 10 13 8 5 -7 -8 14 20 -11 15 21 28 -15 24 22 23 19 -20 -21 -22 -23 26 29 -26 -27 -28 -29 -30 -31
leaf_value=0.0023656404877194482 0.032844983346303584 -0.002955565003279485 -0.031062115717931955 0.026188205842427311 -0.0030953656631856723 0.002013292847617859 0.015293928786400502 0.022527725687272647 0.017433735388794554 0.005752074465172969 -0.044116495895615761 -0.021061429328649156 0.008111033069172411 -0.025853946182314781 0.02848765041743441 0.0041663627685339048 0.0078883525484335307 -0.011497534710139423 -0.0081069840954075181 0.0047317360699002499 0.041307994591958344 0.014618884502896348 -0.033710962787010364 0.001923663147723469 0.011860858509966337 -0.0035339082928979235 -0.012950751002609819 0.058642785696801272 0.03181081992012888 -0.016928958017795478
leaf_weight=5317.7431469857693 93.112386241555214 2072.6528893560171 61.058183893561363 149.9446559548378 13722.763184458017 11123.543973699212 812.97078390419483 123.95093376934528 397.01748965680599 1945.2345687001944 48.542210891842842 328.31919252872467 202.83947341144085 272.49859318137169 212.20462542772293 60.276845917105675 250.93652319908142 242.64561660587788 1821.4622937738895 140.93027649819851 49.694417953491211 18.94561605155468 44.175567016005516 70.913665056228638 114.47541379928589 73.704817682504654 538.8162355273962 47.656921237707138 31.199784800410271 65.416800811886787
leaf_count=21331 373 8328 247 602 55127 44629 3259 496 1591 7802 196 1320 814 1105 849 243 1005 980 7320 566 199 76 178 284 458 296 2170 191 125 262
internal_value=0 -0.000442729 0.000530139 0.000876459 0.000161338 -0.000806248 0.00409038 0.0178163 0.00956819 0.00725027 -0.00680635 -0.00552385 -0.00440183 -0.015566 0.0136006 -0.0151474 0.00754795 -0.00910479 -0.00537943 -0.0054079 0.0202876 -0.0163717 -0.0128186 0.00257898 0.0228678 -0.0179888 -0.0146645 0.0422835 0.0116051 -0.00681589
internal_weight=40455.6 39477 34236 33518.9 30977 24846.3 6130.71 978.667 2541.89 2095.18 5240.93 4549.12 4128.15 717.133 837.898 691.811 511.218 444.634 3894.12 383.576 446.712 420.97 643.269 387.267 326.68 402.024 582.992 140.769 234.039 136.33
internal_count=162422 158504 137438 134540 124346 99756 24590 3918 10194 8404 21066 18279 16587 2898 3354 2787 2047 1793 15648 1546 1790 1692 2591 1551 1307 1616 2348 564 939 546
is_linear=0
shrinkage=0.05


Tree=6
num_leaves=31
num_cat=0
split_feature=39 44 12 29 11 32 0 44 39 44 39 3 2 37 44 42 44 19 39 31 34 1 44 44 39 44 19 37 2 29
split_gain=148.595 90.677 78.2545 59.802 54.4752 52.5972 48.8134 42.8842 33.636 29.0528 25.8669 25.7583 25.4695 24.2854 23.7931 22.8944 22.6881 20.0831 17.8283 16.7619 26.2059 16.6628 14.9143 14.1877 13.0988 31.197 12.1755 12.1611 17.9378 14.3125
threshold=0.98675688251329485 28.419891061941851 0.4087089977358237 2.5000000000000004 23.770440052806659 1.0000000180025095e-35 1.0000000180025095e-35 -28.128047440151246 0.97478452115433911 80.078740155288344 0.95294116450841082 1.0000000180025095e-35 1.0000000180025095e-35 1.0000000180025095e-35 -0.70910405457776349 1.0000000180025095e-35 31.187322877374513 20.275890256272309 0.9956896447061323 1.5000000000000002 1.0000000180025095e-35 1.0000000180025095e-35 -52.747647589096658 59.452012760408088 0.9628087782836956 46.045973153551479 24.432127801304407 1.0000000180025095e-35 20.000000000000004 1.0000000180025095e-35
decision_type=2 8 10 2 8 2 2 10 2 10 2 2 2 2 10 2 8 8 2 2 2 2 8 8 2 8 10 2 2 2
left_child=2 6 5 4 10 19 13 22 15 12 -4 -9 -3 18 -13 16 -5 -10 21 20 -1 -2 -7 -17 25 -21 -8 29 -29 -14
right_child=1 9 3 8 -6 7 26 11 17 -11 -12 14 27 -15 -16 23 -18 -19 -20 24 -22 -23 -24 -25 -26 -27 -28 28 -30 -31
leaf_value=0.012334409827340881 0.0046855129558264173 -0.014689259253991341 -0.012634782431340728 -0.0057840753787464904 -0.025713634105187899 -0.013737717592724656 0.0032048875127628734 -0.00076609740048330958 -0.00026371526915469943 0.026946973262653676 -0.0052004130175687287 0.011352719011801729 0.016997748594372281 0.038542011803861333 0.0020454520940808444 -0.013782282054533915 0.0050712274416851201 0.0089777855142537631 -0.01469717636818163 0.0092596801728697629 -0.024862946355754756 -0.0050904511364317567 -0.00037227186711161859 -0.0031398410103777061 -0.0033384604872013983 -0.016690747363081113 0.010861216734011995 0.04838394616896767 0.014483978896860317 0.0075090822059512667
leaf_weight=60.421511828899384 560.87977504730225 102.99316971004009 1435.040367513895 1004.9731665998697 388.62457689642906 231.78377737104893 7098.0154690742493 905.96932584047318 1328.2973785400391 259.74926786124706 6699.2942370325327 2407.6786662191153 486.96968844532967 32.110377803444862 980.88937619328499 735.33600953221321 920.1628153026104 1039.3846118748188 366.6754441857338 568.13867457211018 188.61110626161098 1886.6837469041348 2113.4965547174215 571.18563356995583 4424.8969627171755 143.51090815663338 567.02816817164421 44.58195897936821 395.0524178147316 2503.4996318817139
leaf_count=243 2251 415 5775 4038 1577 931 28465 3634 5332 1040 26931 9654 1950 129 3935 2961 3693 4169 1473 2283 763 7580 8486 2298 17778 577 2272 179 1581 10029
internal_value=0 0.00409699 -0.00224142 -0.00476584 -0.00740349 0.000719186 0.0016996 0.00370038 -0.000741449 0.0107257 -0.00651951 0.00667172 0.00951167 -0.00388225 0.00867469 -0.00406544 -0.000569637 0.00377416 -0.00439759 -0.00294701 -0.0156247 -0.00282879 -0.00171978 -0.00917382 -0.00231971 0.00394029 0.00377914 0.010257 0.0181371 0.0090761
internal_weight=40451.9 14304.2 26147.7 14122.3 8522.96 12025.4 10511.4 6639.82 5599.34 3792.85 8134.33 4294.54 3533.1 2846.35 3388.57 3231.66 1925.14 2367.68 2814.24 5385.58 249.033 2447.56 2345.28 1306.52 5136.55 711.65 7665.04 3430.1 439.634 2990.47
internal_count=162422 57364 105058 56774 34283 48284 42170 26640 22491 15194 32706 17223 14154 11433 13589 12990 7731 9501 11304 21644 1006 9831 9417 5259 20638 2860 30737 13739 1760 11979
is_linear=0
shrinkage=0.05


Tree=7
num_leaves=31
num_cat=0
split_feature=33 39 0 1 16 38 42 45 45 33 44 30 39 33 45 1 42 23 18 45 33 10 39 39 39 0 45 45 2 38
split_gain=136.108 106.093 74.0766 64.5402 61.9993 58.0043 71.2861 46.3232 40.156 38.589 35.7111 29.1636 29.1411 23.5294 22.1077 21.4602 19.2998 16.8806 16.4367 28.6496 15.8265 14.8527 14.6339 14.5509 13.3005 13.2645 12.6533 12.6142 12.5681 12.5041
threshold=6.9956346027191598 0.98290039471078716 1.0000000180025095e-35 22.500000000000004 inf 1.0000000180025095e-35 1.5000000000000002 -18.923483415689876 14.827616416390022 2.5259983540480593 -5.4712262805655651 1.0000000180025095e-35 0.98022999948295586 1.0000000180025095e-35 1.8614041845498743 1.0000000180025095e-35 1.5000000000000002 1.0000000180025095e-35 1.0000000180025095e-35 -7.8545771733485514 21.452756684391719 70.000000000000014 0.98408273338335184 0.90504740660962368 0.99999302735579443 4.5000000000000009 63.822604058033306 -5.2607698909267251 20.000000000000004 1.0000000180025095e-35
decision_type=2 2 2 2 8 2 2 8 8 2 8 2 2 2 8 2 2 2 2 10 2 2 2 2 2 2 10 8 2 2
left_child=1 4 11 5 9 6 7 20 18 14 -9 15 -5 -6 -1 27 17 -11 19 -4 -2 -10 -17 -16 -7 -8 28 -3 -26 -20
right_child=3 2 8 12 13 24 25 10 21 16 -12 -13 -14 -15 23 22 -18 -19 29 -21 -22 -23 -24 -25 26 -27 -28 -29 -30 -31
leaf_value=-0.009904160492898717 -0.0014652934942352756 -0.0075440823420448479 0.01591478534824332 -0.011930264780427642 0.009684912335867565 -0.012864593264996086 -0.011623257920475204 0.014036009896046845 0.010970342259736971 -0.0025126460931383858 0.0060054214543167487 0.0023465364218148432 0.0030249000891130087 -0.02649341651830385 -0.028980512692257984 0.0019928409001771104 -0.014577717685348974 0.0029753338259113611 -0.00035085077370198767 0.0029569930557624942 -0.020524456202532057 -0.017419321407051228 -0.0096538250488638171 -0.0034715854517227149 0.047939389250434693 0.024686751732059059 0.051598577301712349 0.0048515904307512405 0.019042930121083573 0.018429519618925583
leaf_weight=3167.65277980268 501.06058548390865 309.78600865602493 498.04576680064201 728.85584384202957 47.770228207111359 19.965237513184547 626.58047169446945 1932.1387523412704 1967.2328941226006 7145.3159565031528 5051.4028571695089 1488.6565853655338 580.02747839689255 410.66057386994362 56.583892062306404 297.34852953255177 288.55753791332245 1734.6838475465775 3811.77798807621 3083.6704200357199 140.82032740116119 44.972430855035782 2299.1936181932688 3101.0110392570496 46.395189389586449 24.450932785868645 48.291797608137131 599.98249407112598 304.08729442954063 89.716670572757721
leaf_count=12748 2010 1244 1997 2938 192 80 2520 7742 7881 28708 20255 5979 2324 1675 228 1195 1163 6968 15288 12370 566 180 9242 12464 187 98 194 2410 1217 359
internal_value=0 -0.00166284 0.00143152 0.00505927 -0.00447668 0.00661993 0.00569169 0.00705166 0.00402669 -0.00393574 0.0082361 -0.00349171 -0.00526751 -0.0226018 -0.00694259 -0.00598464 -0.00185538 -0.00143474 0.00233127 0.0047767 -0.00574982 0.0103027 -0.00830058 -0.00395356 0.0247904 -0.0101471 0.0268282 0.000572182 0.0231359 7.2812e-05
internal_weight=40446.7 30442.6 14490.4 10004.1 15952.2 8695.19 8276.45 7625.42 9495.42 15493.8 6983.54 4994.97 1308.88 458.431 6325.25 3506.31 9168.56 8880 7483.21 3581.72 641.881 2012.21 2596.54 3157.59 418.74 651.031 398.774 909.769 350.482 3901.49
internal_count=162422 122291 58145 40131 64146 34869 33191 30573 38075 62279 27997 20070 5262 1867 25440 14091 36839 35676 30014 14367 2576 8061 10437 12692 1678 2618 1598 3654 1404 15647
is_linear=0
shrinkage=0.05


Tree=8
num_leaves=31
num_cat=0
split_feature=33 0 43 33 1 38 42 43 19 43 18 0 44 43 33 44 43 44 33 1 38 11 29 24 3 19 3 44 11 3
split_gain=122.876 78.1756 66.4718 58.6218 58.246 52.5521 64.3077 43.1324 45.0127 42.216 92.4048 41.6346 34.6359 32.8216 36.7522 31.4092 30.9232 26.7599 25.9604 23.6684 23.199 23.1592 17.0909 17.0499 16.028 15.5585 14.84 13.351 13.2413 12.7829
threshold=6.9956346027191598 1.0000000180025095e-35 -5.4542017281189503 3.7797638926386381 22.500000000000004 1.0000000180025095e-35 1.5000000000000002 -10.327823219404356 1.8000033995131721 -5.3705144304287407 1.0000000180025095e-35 2.5000000000000004 4.9066914795743442 -5.3705144304287407 0.030741107009985006 3.8092469859756513 11.01415468310349 -8.8183214369861975 26.007282708932213 22.500000000000004 1.0000000180025095e-35 29.432565982795236 2.5000000000000004 1.0000000180025095e-35 10.000000000000002 11.944605725290259 20.000000000000004 -13.93937451425427 1.7769757580225056 1.0000000180025095e-35
decision_type=2 2 10 2 2 2 2 10 10 8 2 2 8 10 2 8 10 10 2 2 2 8 2 2 2 10 2 10 8 2
left_child=1 2 21 15 5 6 7 18 -9 10 11 17 24 14 -14 26 19 -3 -2 -5 22 -1 -6 -15 27 29 -4 -11 -17 -12
right_child=4 9 3 16 20 -7 -8 8 -10 12 25 -13 13 23 -16 28 -18 -19 -20 -21 -22 -23 -24 -25 -26 -27 -28 -29 -30 -31
leaf_value=-0.0078163901142539217 0.0015358872701088553 0.037816484334326633 -0.0048793412638220854 0.0047424718660565813 -0.015370033471825813 0.023596010733615544 -0.0096427620631174774 0.014126861151703196 0.0050874198258729405 -0.010135273875909475 -0.0032843510840972869 -0.0010422974759628253 0.015910345473077969 0.0072458232395554477 -0.01795413232950591 0.0011133870961038742 -0.011852690441803281 0.010744877693413306 -0.025326369044195829 -0.0151583230570984 0.0075067846514808344 -0.020363771691421145 -0.0023021083170030043 0.00055188948905250581 6.9671384968179978e-05 -0.0088450614738565404 -0.01064581533602737 -0.0028763507359327429 -0.0060059997022859565 0.006374601844560521
leaf_weight=4144.3532547354698 1827.0423960387707 355.51240625977516 3329.941767796874 3899.8498840630054 483.93687275052071 418.28837640583515 650.51730939745903 2386.411194011569 3320.4186647981405 927.17018154263496 470.25257863104343 127.77867020666599 103.28358823060989 2476.2588091045618 330.82978913187981 2592.2804399430752 331.81589706242085 131.74242295324802 93.566420182585716 153.31302158534527 284.71627587080002 410.03080981969833 539.5137005597353 1572.0852238386869 2889.6259623616934 291.12783652544022 1726.9521103948355 2098.6107932627201 869.6182099878788 1204.0901577025652
leaf_count=16663 7331 1424 13402 15661 1950 1678 2618 9556 13309 3725 1890 512 414 9928 1335 10417 1335 528 377 618 1140 1674 2172 6306 11589 1168 6950 8430 3497 4825
internal_value=0 -0.00158019 -0.0037657 -0.00192751 0.00480688 0.0062891 0.00540579 0.00669688 0.00887799 0.0013559 0.00707899 0.0239827 -6.01663e-05 0.00324959 -0.00976419 -0.00434751 0.00276239 0.0306364 0.000188718 0.00397383 -0.00500548 -0.00896123 -0.00853903 0.00465951 -0.00257675 0.00175458 -0.00686022 -0.00511979 -0.00066176 0.00363162
internal_weight=40440.9 30436.5 17458.2 12903.8 10004.4 8696.24 8277.96 7627.44 5706.83 12978.4 2580.5 615.033 10397.9 4482.46 434.113 8518.79 4384.98 487.255 1920.61 4053.16 1308.17 4554.38 1023.45 4048.34 5915.41 1965.47 5056.89 3025.78 3461.9 1674.34
internal_count=162422 122291 70217 51880 40131 34869 33191 30573 22865 52074 10347 2464 41727 17983 1749 34266 17614 1952 7708 16279 5262 18337 4122 16234 23744 7883 20352 12155 13914 6715
is_linear=0
shrinkage=0.05


Tree=9
num_leaves=31
num_cat=0
split_feature=2 33 37 43 1 33 44 4 43 43 44 19 5 19 0 16 5 33 0 31 43 44 43 19 19 1 1 36 12 5
split_gain=114.31 64.2798 58.2978 47.6531 43.9566 41.7476 40.1336 36.6019 35.4343 34.8938 49.713 30.8135 45.8064 29.002 33.3935 27.7526 23.6803 21.7496 20.6952 20.6582 20.3467 19.9175 18.8481 18.4812 18.4263 18.3106 17.698 17.3611 16.0225 15.5632
threshold=10.000000000000002 6.6640411586952117 1.0000000180025095e-35 -5.2036794520739775 22.500000000000004 2.6514765309293535 4.0303380492340786 1.0000000180025095e-35 -17.78313848179867 -3.4133750295110397 35.152283562445575 4.5703353812991923 47.500000000000007 inf 2.5000000000000004 45.877218813266275 22.500000000000004 1.1292003093308913 1.0000000180025095e-35 2.5000000000000004 15.539402781649732 -14.770342312930056 -3.279789029129065 0.87878534174645928 28.625288171882541 1.0000000180025095e-35 22.500000000000004 49.500000000000007 1.4271594573939168 62.500000000000007
decision_type=2 2 2 10 2 2 8 2 8 8 10 10 2 8 2 8 2 2 2 2 10 8 10 10 10 2 2 2 10 2
left_child=1 3 9 15 8 6 -5 -4 -3 13 21 12 -10 17 -15 16 19 18 -2 -1 26 -11 -23 -18 28 -13 -7 -12 -9 -8
right_child=2 4 7 5 -6 20 29 24 11 10 27 25 -14 14 -16 -17 23 -19 -20 -21 -22 22 -24 -25 -26 -27 -28 -29 -30 -31
leaf_value=0.0129709320956902 -0.0040893601555282294 -0.0093751110678479254 0.043544789308492787 -0.0083768242766360645 -0.011202252830010738 0.0016259641366909623 0.0010267418185616586 0.02075056462791482 0.0026372439485245324 -0.0058979544435247763 0.0089296950217968765 0.011009375158049426 0.014651937890102513 0.031722714667148592 -0.020630955244696318 -0.018440522825063112 -0.013065978722351249 0.0035555513816625758 0.017050271453390005 -0.0042298130251167835 -0.018444452981755444 -0.0083467422116497141 0.0012633764273415502 -0.0054394111585288679 0.020845821338628664 -0.0029597266218388436 -0.010439179434589378 0.031963012798956247 0.00064466953263000646 -0.012290141679506518
leaf_weight=250.05665089190006 138.56034757196903 477.0606537014246 101.16329234838486 3744.0606363117695 550.74069713056087 6121.3092274069786 2304.8816052228212 132.71677489578724 1912.1957177370787 1332.0558015555143 1041.8728694021702 279.92603580653667 1371.0336711704731 192.59103848040104 34.222515866160393 568.21145649254322 1331.2007677704096 3629.6261865496635 599.37262432277203 568.26144425570965 135.94147884845734 542.20721708238125 8209.250406652689 2065.9234487712383 336.08158233761787 1409.5892811119556 318.05496552586555 90.439032524824142 404.76569524407387 241.31046356260777
leaf_count=1005 557 1917 409 15082 2227 24594 9264 531 7667 5348 4172 1124 5492 771 137 2320 5352 14549 2401 2286 548 2180 32928 8316 1347 5662 1283 362 1620 971
internal_value=0 -0.00224 0.00315517 -0.00376094 0.00222505 -0.00217106 -0.0050836 0.0150264 0.00359296 0.00241922 0.000910376 0.00484874 0.00767258 0.00609074 0.023548 -0.0080251 -0.00660528 0.00516753 0.0130131 0.000974676 0.000607966 -0.000200672 0.000661372 -0.00844565 0.0116207 -0.000610547 0.00102075 0.0108401 0.00573145 -0.00022004
internal_weight=40434.7 23649.8 16784.9 17649.2 6000.55 12865.6 6290.25 974.727 5449.81 15810.2 11215.8 4972.74 3283.23 4594.37 226.814 4783.65 4215.44 4367.56 737.933 818.318 6575.31 10083.5 8751.46 3397.12 873.564 1689.52 6439.36 1132.31 537.482 2546.19
internal_count=162422 95110 67312 71021 24089 51742 25317 3907 21862 63405 44990 19945 13159 18415 908 19279 16959 17507 2958 3291 26425 40456 35108 13668 3498 6786 25877 4534 2151 10235
is_linear=0
shrinkage=0.05


Tree=10
num_leaves=31
num_cat=0
split_feature=39 45 33 42 33 45 0 2 44 11 45 33 30 5 39 2 45 42 33 33 33 24 45 44 27 45 39 45 18 44
split_gain=109.487 78.8763 76.921 58.1853 41.0681 46.0646 37.9956 33.0952 31.5183 28.2975 27.2233 25.0529 23.1269 25.8594 22.0964 18.7056 18.6361 21.66 15.613 15.3009 14.5306 13.3962 23.1272 16.9682 13.0919 18.2182 12.8388 12.7679 23.4866 14.5289
threshold=0.98537753645871951 16.104944201644312 3.7797638926386381 1.0000000180025095e-35 7.9582491193123888 -16.482098161140964 1.0000000180025095e-35 1.0000000180025095e-35 -5.0072190986918619 28.971415187968891 47.044069157158681 1.0000000180025095e-35 1.0000000180025095e-35 22.500000000000004 0.97459860739611537 1.0000000180025095e-35 1.6369127885555501 1.0000000180025095e-35 5.2901471343400077 21.452756684391719 0.89222213884613832 1.0000000180025095e-35 5.4297632627854595 59.452012760408088 1.0000000180025095e-35 -9.0351501198848734 0.9935435106062015 -7.6297462609363054 2.5000000000000004 -6.7475273318490556
decision_type=2 8 2 2 2 10 2 2 10 8 10 2 2 2 2 2 8 2 2 2 2 2 8 8 2 10 2 10 2 10
left_child=2 6 9 4 27 19 12 26 -7 16 -9 -11 15 -14 21 -2 -1 20 -17 -6 -18 22 -5 -23 -8 -26 -3 28 -4 -29
right_child=1 7 3 14 5 8 24 10 -10 11 -12 -13 13 -15 -16 18 17 -19 -20 -21 -22 23 -24 -25 25 -27 -28 29 -30 -31
leaf_value=-0.0067002007551339214 -0.013310008187376963 -0.0042908700499464944 0.0029697612016393589 0.0085186780159365871 0.0011025008589416972 0.017555111397091611 0.0019691282375530342 0.0088997250802641294 0.005551022006742891 0.011513183048322911 0.026208891245801575 -0.023658750449604873 0.028504616216370279 0.00071768025735031733 0.0026315878966103826 -0.0055138175962291848 -0.0059408454242136314 -0.0092207285571837185 0.0052522804192253495 -0.01578245520573265 0.00079074154805946594 -0.016486093548024296 -0.0087276016865699239 -0.0024234550948015379 0.023334323198042042 0.0052396314438934184 -0.038361445367640107 0.0066577864413382808 -0.0060053849576436006 -7.319944767460503e-05
leaf_weight=5539.0176028162241 605.95766776800156 99.422217577695847 1171.0341505110264 256.29941684007645 1286.9779976457357 982.28286762535572 6414.5671397149563 3804.225632339716 1273.8305108696222 56.944227918982506 244.71654303371906 334.65968278050423 93.114671781659126 800.24202884733677 552.76897013187408 1593.3741907328367 1074.9673448204994 973.93875531852245 421.57746398448944 148.49607609212399 3112.3198541253805 762.74326121807098 770.92866164445877 311.13291251659393 154.81203012168407 1524.1577321588993 39.908994734287262 1081.3716175407171 1905.2766971588135 3036.9371287971735
leaf_count=22315 2440 400 4711 1031 5162 3933 25719 15237 5106 229 983 1378 374 3216 2220 6410 4321 3924 1691 599 12507 3082 3105 1255 620 6108 162 4341 7650 12193
internal_value=0 0.00324888 -0.00208394 0.000441609 0.00206347 0.00635024 0.00112136 0.0091317 0.0108051 -0.0051712 0.00996444 -0.0184006 -0.00321241 0.00369846 -0.0061907 -0.00558761 -0.00468069 -0.00250279 -0.00323499 -0.000619168 -0.00092647 -0.00853565 -0.00437183 -0.0124643 0.00300945 0.00695074 -0.0146099 -0.000129723 -0.00257279 0.00168325
internal_weight=40428 15796.1 24631.9 13540.1 10886.2 3691.59 11607.8 4188.27 2256.11 11091.8 4048.94 391.604 3514.27 893.357 2653.87 2620.91 10700.2 5161.23 2014.95 1435.47 4187.29 2101.1 1027.23 1073.88 8093.54 1678.97 139.331 7194.62 3076.31 4118.31
internal_count=162422 63360 99062 54388 43695 14800 46578 16782 9039 44674 16220 1607 14131 3590 10693 10541 43067 20752 8101 5761 16828 8473 4136 4337 32447 6728 562 28895 12361 16534
is_linear=0
shrinkage=0.05


Tree=11
num_leaves=31
num_cat=0
split_feature=39 45 12 4 29 29 16 0 2 45 45 5 45 39 39 39 45 42 24 2 45 37 16 31 39 45 1 0 45 0
split_gain=98.8525 71.1533 64.8969 43.1742 45.5716 39.9301 38.5031 34.2855 29.9854 24.7333 22.1733 22.8254 22.0162 21.1573 20.6549 20.4351 17.1184 21.7366 15.79 14.4573 13.2223 12.7822 12.1167 16.0064 11.6827 11.5591 16.2349 19.917 11.4186 11.1087
threshold=0.98537753645871951 16.104944201644312 0.4087089977358237 10.000000000000002 1.0000000180025095e-35 2.5000000000000004 83.696260921713574 1.0000000180025095e-35 1.0000000180025095e-35 53.778474792646293 -4.9986549397856157 17.500000000000004 -23.450170133631083 0.95294116450841082 0.9843672571219334 0.97478452115433911 9.706683763818944 1.0000000180025095e-35 1.0000000180025095e-35 1.0000000180025095e-35 -2.0151800714241701 1.0000000180025095e-35 45.001327788776365 2.5000000000000004 0.9935435106062015 -8.9101071677634014 1.0000000180025095e-35 1.5000000000000002 17.085075640050871 5.5000000000000009
decision_type=2 8 10 2 2 2 8 2 2 10 10 2 10 2 2 2 8 2 2 2 10 2 8 2 2 10 2 2 8 2
left_child=2 7 3 18 12 6 13 10 24 -10 19 -12 -5 -4 -14 16 -7 -18 22 -2 -6 -13 23 -1 -3 -9 27 -27 -17 -28
right_child=1 8 5 4 20 15 -8 25 9 -11 11 21 14 -15 -16 28 17 -19 -20 -21 -22 -23 -24 -25 -26 26 29 -29 -30 -31
leaf_value=0.0028203908014242866 -0.016387274711993152 -0.004079758498784892 -0.011312201033697195 -0.0015879986221371035 -0.0062404076576943286 -0.009610857921157864 -0.023517326938576839 0.0069787226641785678 0.0085722793295082526 0.027087419940867039 0.018515671364189489 -0.0016579823255387532 0.0084130748050921488 -0.0045732262533312419 -0.016984740326865776 -0.00061595141135739042 0.0031399422548491988 -0.0063979562842955183 -0.010055812998983938 -0.0048077896967813217 0.0020602246242442134 0.037518962810737563 -0.0204823582539919 -0.0035975941251618093 -0.03666992901822088 0.0025884607731041613 0.00073411104498058888 0.01854051400604716 0.006835618135056603 0.018390226337000225
leaf_weight=1531.64878693223 363.95117294788361 99.391136541962624 1449.544278383255 729.58081358671188 1163.2267949730158 832.62405064702034 322.45023980736732 1414.1550581306219 3857.5429607629776 191.54329085350037 158.38669830560684 1844.4819113314152 3649.6955373585224 6277.4053640365601 79.673229232430458 1052.9699203073978 1285.5786489993334 1109.2747795730829 641.53460624814034 1126.4218833297491 803.53154146671295 19.978497162461281 82.764392524957657 2630.4327806532383 39.713545262813568 554.39165861904621 5726.4385381489992 309.6658232063055 983.11466339230537 89.833681643009186
leaf_count=6146 1467 400 5851 2931 4687 3354 1328 5666 15449 771 636 7417 14647 25277 320 4228 5160 4476 2580 4530 3228 81 339 10569 162 2222 22958 1241 3941 360
internal_value=0 0.00308703 -0.00198048 0.000800348 0.0034972 -0.004347 -0.00656217 0.0010661 0.00867458 0.00946696 -0.00305117 0.000335236 0.00629675 -0.0058452 0.00785267 -0.000949312 -0.00343058 -0.00125788 -0.00273583 -0.00767813 -0.0028244 -0.00119149 -0.00161566 -0.00122365 -0.0139363 0.00285944 0.00197903 0.00837807 0.00295905 0.00101852
internal_weight=40420.9 15795.9 24625.1 11312.1 6425.71 13313 8049.4 11607.7 4188.19 4049.09 3513.22 2022.85 4458.95 7726.95 3729.37 5263.56 3227.48 2394.85 4886.38 1490.37 1966.76 1864.46 4244.85 4162.08 139.105 8094.48 6680.33 864.057 2036.08 5816.27
internal_count=162422 63360 99062 45447 25813 53615 32456 46578 16782 16220 14131 8134 17898 31128 14967 21159 12990 9636 19634 5997 7915 7498 17054 16715 562 32447 26781 3463 8169 23318
is_linear=0
shrinkage=0.05


Tree=12
num_leaves=31
num_cat=0
split_feature=39 44 12 43 32 44 23 5 16 2 43 44 39 18 43 44 43 27 3 39 32 43 36 39 24 2 11 39 39 12
split_gain=89.4111 55.5014 51.8276 53.468 52.8497 58.3294 39.9362 37.1269 32.1886 28.4642 28.438 22.5569 22.8302 19.5618 32.4677 21.5129 18.7138 19.8463 18.6798 18.4541 17.5375 22.3025 15.2558 14.3105 14.1793 14.0705 15.6831 13.7174 13.3177 11.7384
threshold=0.98675688251329485 28.419891061941851 0.4087089977358237 -5.0386003804221531 1.0000000180025095e-35 -48.59470188778603 1.0000000180025095e-35 47.500000000000007 84.363826323044478 1.0000000180025095e-35 -33.488175459144848 10.266735553570063 0.97167935714864739 1.0000000180025095e-35 -10.750120602182582 80.078740155288344 -9.3976333198095059 1.0000000180025095e-35 20.000000000000004 0.98006762390733548 1.0000000180025095e-35 -20.254222676176621 2.5000000000000004 0.9628087782836956 1.0000000180025095e-35 1.0000000180025095e-35 0.18068363382136446 0.97459860739611537 0.98886706947538594 29.999766003862963
decision_type=2 8 10 10 2 10 2 2 8 2 10 8 2 2 10 10 10 2 2 2 2 8 2 2 2 2 8 2 2 8
left_child=2 9 3 20 23 -6 8 -7 19 28 29 -8 -13 14 -12 -16 -11 -18 -14 -4 25 -22 -21 -5 -23 26 -1 -10 -2 -3
right_child=1 10 6 4 5 7 11 -9 27 16 13 12 18 -15 15 -17 17 -19 -20 22 21 24 -24 -25 -26 -27 -28 -29 -30 -31
leaf_value=-0.007035199773080968 0 -0.0086390848038428916 -0.0062606823846076444 0.0076731244685962971 -0.0098629671580500282 0.0055118086115684573 -0.0048094573042806272 0.018686576857549764 -0.02365129739965428 0.0099295975521522337 0.042487655678010897 -0.0017211720378296218 0.0095457534589987198 0.0044527568105233468 0.0096684921655843074 0.027181308990005638 0.00014759742055364946 0.0058735437928626065 -0.0051700388662056724 -0.0035085294569606276 -0.011823690140543826 0.0020626719860258893 0.0058330201913993204 -0.0011822205240794321 -0.0050110986200100904 -0.0022489875265687348 -0.021967483930878197 -0.0037247998739552883 -0.015551915235585932 0.014164569318165841
leaf_weight=617.55648498237133 228.94756039977074 314.18109042942524 6836.0840041339397 531.98555253446102 333.66435962915421 1027.7674691230059 1569.3614532649517 1148.1932923346758 342.58567970991135 682.37575919926167 87.296378046274185 1508.8551094532013 1233.7249725610018 1155.5451689511538 1971.7849466353655 196.40658104419708 7336.7074390500784 1912.0357181280851 255.88325349986553 1628.5612883865833 426.19031815230846 2752.5580867677927 594.12348493933678 3161.600658416748 951.96307255327702 810.40668651461601 256.00475852191448 124.36822599172592 350.83779664337635 66.505099445581436
leaf_count=2487 922 1261 27551 2138 1339 4119 6321 4600 1408 2735 350 6073 4946 4629 7895 791 29434 7663 1027 6554 1717 11045 2386 12714 3820 3264 1041 508 1416 268
internal_value=0 0.00317711 -0.00174098 0.000667775 0.00389975 0.00949727 -0.00379842 0.0124921 -0.0056414 0.00130042 0.00836451 3.43583e-05 0.00258698 0.00981554 0.0125377 0.0112897 0.00193362 0.00133726 0.00698258 -0.00497262 -0.00277163 -0.00100362 -0.000987548 8.14091e-05 0.000230547 -0.00707566 -0.0114885 -0.0184702 -0.0094442 -0.00449766
internal_weight=40414.1 14302.6 26111.4 12017.9 6203.21 2509.63 14093.5 2175.96 9525.72 10510.9 3791.72 4567.82 2998.46 3411.03 2255.49 2168.19 9931.12 9248.74 1489.61 9058.77 5814.68 4130.71 2222.68 3693.59 3704.52 1683.97 873.561 466.954 579.785 380.686
internal_count=162422 57364 105058 48284 24910 10058 56774 8719 38407 42170 15194 18367 12046 13665 9036 8686 39832 37097 5973 36491 23374 16582 8940 14852 14865 6792 3528 1916 2338 1529
is_linear=0
shrinkage=0.05


Tree=13
num_leaves=31
num_cat=0
split_feature=33 39 0 43 33 43 18 39 42 43 31 0 44 18 4 29 44 44 43 43 2 2 38 43 39 44 33 44 23 44
split_gain=84.2159 65.2554 46.6438 45.827 46.4089 42.5525 70.65 33.3034 57.9637 34.8486 25.9079 25.5441 23.0247 22.5673 50.9037 20.9502 19.6149 18.9936 18.6745 17.4393 16.2708 18.0435 19.0591 15.3596 13.7231 13.7878 13.417 13.2899 13.2044 12.6582
threshold=6.9956346027191598 0.98290039471078716 1.0000000180025095e-35 -5.8120509372078351 2.5259983540480593 -5.3705144304287407 1.0000000180025095e-35 0.98662789810535523 1.0000000180025095e-35 -9.9429486538014178 1.5000000000000002 2.5000000000000004 6.5765463132400344 1.0000000180025095e-35 10.000000000000002 1.5000000000000002 36.449563256268753 73.288993146176821 11.67281285799486 -16.83653097807052 1.0000000180025095e-35 20.000000000000004 1.0000000180025095e-35 -5.3705144304287407 0.97011797062896754 -5.0072190986918619 1.0000000180025095e-35 -8.1754089580528362 1.0000000180025095e-35 4.0303380492340786
decision_type=2 2 2 10 2 8 2 2 2 8 2 2 8 2 2 2 10 10 10 10 2 2 2 10 2 8 2 10 2 8
left_child=1 3 15 19 29 6 11 8 9 -2 -6 -4 -7 16 -15 -3 -11 20 -12 26 -9 22 -22 -14 -10 -26 -1 -21 -29 -5
right_child=7 2 5 4 10 12 -8 17 24 13 18 -13 23 14 -16 -17 -18 -19 -20 27 21 -23 -24 -25 25 -27 -28 28 -30 -31
leaf_value=0.010140770401907001 -0.0016931085050738218 -0.0049106850067543936 0.031821029298162627 -0.0077408639647656352 -0.0064109952552728515 -0.00069492699861444245 0.0041220127395753181 -0.015504304475144844 -0.0087543343662986328 -0.0012288068351548999 0.0026905859154513073 0.002811264075082268 -0.0062857994660951086 0.00099541079853519799 0.016385522019522675 0.0021509824398235392 0.013213955096227381 0.021358350873598213 -0.010440631115146079 -0.00358927522565302 0.012036714524762706 0.0052725736867981626 0.043182028117278504 0.0061130418734677214 -0.018686073181616872 0.0042247388202674699 -0.016396632772747739 -0.013214960841725038 -0.0010063129998689226 -0.0027576721832520894
leaf_weight=47.713616728782654 1488.30830283463 3499.6176633834839 394.95095850527287 2923.3886030763388 1074.6299403905869 4648.0190340131521 1418.1824195832014 75.610841333866119 1220.1821945458651 1003.7576060146093 5484.582895219326 98.918449655175209 270.84578695893288 888.9800461679697 1386.0170591771603 1488.3936061114073 304.19675619900227 255.48350362479687 282.53117118775845 1727.8049610108137 679.8818121701479 2116.1444146931171 53.91765832901001 2667.6988115012646 75.594418331980705 451.46205498278141 775.56430174410343 973.27706010639668 298.6234632730484 2332.5856699943542
leaf_count=192 5976 14091 1582 11803 4329 18643 5681 305 4932 4027 22039 396 1088 3560 5550 5979 1218 1030 1139 6957 2722 8473 221 10685 304 1813 3176 3922 1203 9386
internal_value=0 -0.00130958 0.00111598 -0.00351972 -0.00200593 0.00317431 0.0098431 0.00397972 0.00199856 0.00470984 0.00070196 0.026129 0.0014859 0.00738322 0.0103967 -0.00279349 0.00209954 0.00820861 0.00203692 -0.00829521 0.00703627 0.00765706 0.0144489 0.00495148 -0.00584037 0.000814847 -0.0147875 -0.00649237 -0.0103909 -0.00553979
internal_weight=40406.9 30407.3 14486.6 15920.7 12097.7 9498.62 1912.05 9999.54 6818.5 5071.26 6841.74 493.869 7586.56 3582.95 2275 4988.01 1307.95 3181.04 5767.11 3822.98 2925.55 2849.94 733.799 2938.54 1747.24 527.056 823.278 2999.71 1271.9 5255.97
internal_count=162422 122291 58145 64146 48696 38075 7659 40131 27380 20331 27507 1978 30416 14355 9110 20070 5245 12751 23178 15450 11721 11416 2943 11773 7049 2117 3368 12082 5125 21189
is_linear=0
shrinkage=0.05


Tree=14
num_leaves=31
num_cat=0
split_feature=33 39 1 0 43 43 18 40 42 45 24 33 4 0 45 43 31 45 5 43 18 37 45 29 5 43 39 45 5 0
split_gain=76.1424 61.7727 46.1765 45.2476 42.507 39.6647 62.9733 35.1621 49.6724 33.132 27.6126 25.5407 35.7737 23.2031 23.0467 21.1747 20.9009 20.688 18.0411 17.5848 16.3982 15.0552 14.6168 14.1039 11.7281 11.5544 11.2935 11.0946 10.8665 10.6626
threshold=7.2608913314844274 0.98290039471078716 22.500000000000004 1.0000000180025095e-35 -11.520260808289267 -5.3705144304287407 1.0000000180025095e-35 1.0000000180025095e-35 1.5000000000000002 -27.423675145302585 1.0000000180025095e-35 2.4941270517786776 20.000000000000004 2.5000000000000004 8.7414072932593374 -12.755949835812117 1.5000000000000002 -4.9986549397856157 17.500000000000004 -5.3705144304287407 1.0000000180025095e-35 1.0000000180025095e-35 -9.8541628797377356 2.5000000000000004 87.500000000000014 -11.81122826702026 0.99999302735579443 4.9345597186398722 72.500000000000014 4.5000000000000009
decision_type=2 2 2 2 10 8 2 2 2 8 2 2 2 2 8 10 2 8 2 10 2 2 8 2 2 10 2 10 2 2
left_child=1 4 7 17 -1 6 13 8 9 -2 11 27 -13 -5 20 -11 -12 25 -19 -16 -7 23 -8 -4 -23 -3 -9 -6 -28 -10
right_child=2 3 21 5 10 14 22 26 29 15 16 12 -14 -15 19 -17 -18 18 -20 -21 -22 24 -24 -25 -26 -27 28 -29 -30 -31
leaf_value=-0.011473127808757004 -0.011324198057924784 0.0086173662370948121 -0.014230821017503691 0.030335050252171859 -0.0055712435502130548 0.0024034398547259153 0.011710767236234702 -0.015448073956537467 -0.010160616576653488 0.00042359131303145044 -0.011154760080928569 -0.00026696562804955662 0.011799984290108388 0.002672011677348418 -0.0057862117870181046 0.0077694876768612869 -0.0036640238332752437 0.010841461947391422 -0.0015687141375331809 0.0076761509308468038 -0.0030336538159664393 0.037524886197783235 0.00081394761893500826 -0.0021103728268035116 0.0017525618249629718 -0.0081518888330515873 0.037133861226074906 0.00082423836776560414 0.016558043287438734 0.022379633860063669
leaf_weight=1455.8298483937979 269.22927057743073 105.95575700700283 460.50540411472321 396.71855533123016 2925.5791292339563 2943.2167303562164 450.94271358847618 19.438607826828957 609.35704644024372 1208.0628117322922 1226.0921712368727 5100.8451279848814 696.22644336521626 98.921926364302635 273.49021849036217 5579.4343465566635 4042.4003058820963 323.18467374145985 3004.7365730404854 1876.7009655833244 2618.7076958417892 24.675542742013931 1000.8926267027855 524.64443418383598 254.69646415114403 1629.8217173218727 91.075011283159256 865.39946784079075 296.97704142332077 24.431719452142715
leaf_count=5925 1084 427 1862 1590 11805 11803 1806 78 2459 4849 4950 20505 2797 396 1099 22350 16277 1299 12084 7513 10503 100 4009 2116 1020 6568 373 3483 1194 98
internal_value=0 -0.00119284 0.00395136 0.00115259 -0.00331279 0.00316172 0.00954073 0.00534189 0.00457344 0.00578219 -0.00250905 -0.000904711 0.00117543 0.0249311 0.00154337 0.00646966 -0.00541855 -0.00267007 -0.000345609 0.00593869 -0.000147591 -0.00491126 0.00423867 -0.00783543 0.00521306 -0.00709509 0.0196756 -0.00409827 0.0215987 -0.00879419
internal_weight=40398.2 31035.7 9362.53 14723.3 16312.4 9659.59 1947.48 8098.01 7690.52 7056.73 14856.5 9588.05 5797.07 495.64 7712.12 6787.5 5268.49 5063.7 3327.92 2150.19 5561.92 1264.52 1451.84 985.15 279.372 1735.78 407.491 3790.98 388.052 633.789
internal_count=162422 124839 37583 59097 65742 38719 7801 32485 30840 28283 59817 38590 23302 1986 30918 27199 21227 20378 13383 8612 22306 5098 5815 3978 1120 6995 1645 15288 1567 2557
is_linear=0
shrinkage=0.05


Tree=15
num_leaves=31
num_cat=0
split_feature=33 2 1 43 40 42 45 33 44 43 19 0 44 33 43 16 5 45 45 10 44 23 4 44 43 1 5 43 1 5
split_gain=68.9304 43.793 40.9895 38.012 33.1738 44.4197 31.7053 31.5143 31.914 29.3458 28.4827 26.6722 25.7705 23.9146 19.4449 19.1768 19.9779 18.9963 18.0955 17.1058 16.3974 14.3854 14.313 14.204 16.0971 13.7215 13.6365 13.0825 12.6572 10.4575
threshold=6.9956346027191598 10.000000000000002 22.500000000000004 -5.2036794520739775 1.0000000180025095e-35 1.5000000000000002 -18.923483415689876 2.6514765309293535 4.0303380492340786 -3.4133750295110397 -15.087548025286369 2.5000000000000004 -0.52900733911608333 1.1292003093308913 14.518598293486997 45.877218813266275 22.500000000000004 -2.0151800714241701 15.695921698354681 32.500000000000007 10.551044136660776 1.0000000180025095e-35 1.0000000180025095e-35 -14.770342312930056 -3.279789029129065 22.500000000000004 62.500000000000007 10.705199374964593 1.0000000180025095e-35 72.500000000000014
decision_type=2 2 2 10 2 2 8 2 8 8 10 2 8 2 10 8 2 8 10 2 8 2 2 8 10 2 2 10 2 2
left_child=1 3 4 15 5 6 22 8 28 10 11 19 -8 20 25 16 17 -1 23 -3 -12 -18 -2 -11 -25 -9 -10 -4 -5 -6
right_child=2 9 27 7 29 -7 12 14 26 18 13 -13 -14 -15 -16 -17 21 -19 -20 -21 -22 -23 -24 24 -26 -27 -28 -29 -30 -31
leaf_value=-0.0064779142566565046 -0.013997713120470628 0.035931232039825671 -0.0104731008063679 0.00078936183238539643 0.03334410573047103 -0.0083797162627790023 0.010483389295327947 0.0019923323616488297 0.0016063929932586523 -0.0060915211419401176 0.016978430424769052 -0.014357370365392612 0.0040200926639244487 0.0015400788033614939 -0.014380500432302136 -0.015185458499703021 -0.0083102335864790582 0.00843462868247556 0.0087757639285988703 -0.0078282512858537569 0.0011100966178766184 0.00069462869705817429 0.00096721596709183977 -0.0089624178585592622 0.00047262115528954235 -0.0083994171255877791 -0.010870064302156715 -0.0002739960945541451 -0.007939765764545352 0.013915984959693978
leaf_weight=395.73882243037224 274.64129184186459 161.17637732625008 553.07420045137405 463.73040556907654 97.284787997603416 648.58063569664955 2343.2045447826385 6330.4631838053465 2302.548436999321 1203.2347195744514 490.86675126850605 38.946010127663612 4644.3673709630966 2810.2095757722855 197.96460941433907 566.15801450610161 3031.0426200181246 458.41290372610092 492.42542625963688 23.431563556194305 254.01143056154251 507.5066502392292 366.43458107113838 485.52150659263134 6338.2376216500998 331.95522025227547 240.69577972590923 751.25375202298164 3269.2168081700802 317.388931453228
leaf_count=1595 1105 648 2232 1871 400 2619 9382 25440 9264 4834 1968 156 18615 11266 801 2342 12224 1845 1972 94 1018 2046 1471 1956 25425 1344 971 3030 13211 1277
internal_value=0 -0.00118486 0.00360127 -0.00275024 0.00484437 0.00414385 0.00521611 -0.00133725 -0.003899 0.00111442 0.0047825 0.022099 0.00619583 0.00367361 0.000999294 -0.00648232 -0.00534602 0.0014675 -0.000506992 0.0300954 0.0116429 -0.00700478 -0.00537781 -0.0010837 -0.000192586 0.00146588 0.000402145 -0.00464174 -0.00684207 0.0186635
internal_weight=40389.7 30393.5 9996.23 18095.4 8691.9 8277.23 7628.65 13136.6 6276.19 12298.1 3778.64 223.554 6987.57 3555.09 6860.38 4958.86 4392.7 854.152 8519.42 184.608 744.878 3538.55 641.076 8026.99 6823.76 6662.42 2543.24 1304.33 3732.95 414.674
internal_count=162422 122291 40131 72954 34869 33192 30573 52902 25317 49337 15150 898 27997 14252 27585 20052 17710 3440 34187 742 2986 14270 2576 32215 27381 26784 10235 5262 15082 1677
is_linear=0
shrinkage=0.05


Tree=16
num_leaves=31
num_cat=0
split_feature=39 19 33 1 43 19 27 0 43 33 43 19 33 16 29 5 10 1 19 12 27 39 3 39 5 33 44 33 11 39
split_gain=63.3303 51.2271 48.1403 44.9525 41.7662 48.4391 61.8922 30.1075 32.621 28.617 25.2604 27.0489 20.3792 18.1928 17.801 21.8453 16.3375 16.2826 15.4101 15.3381 15.1862 15.1653 14.8452 14.269 13.3068 13.2132 13.5826 12.8662 12.494 12.3901
threshold=0.98537753645871951 21.778429951279545 3.7797638926386381 22.500000000000004 -7.4302526627348149 6.8082432396686015 1.0000000180025095e-35 1.0000000180025095e-35 -3.4133750295110397 6.9288488244518556 -33.488175459144848 57.999177531176052 1.1587312475321301 52.830501007494185 1.5000000000000002 22.500000000000004 70.000000000000014 1.0000000180025095e-35 0.67236487540680911 27.23186232459209 1.0000000180025095e-35 0.97627462158166323 20.000000000000004 0.9956896447061323 52.500000000000007 0.030741107009985006 -10.561857174474047 5.2901471343400077 20.507160623604207 0.95413144616193601
decision_type=2 8 2 2 10 10 2 2 10 2 10 8 2 8 2 2 2 2 10 10 2 2 2 2 2 2 10 2 10 2
left_child=2 7 13 4 9 6 -6 14 12 -4 -3 28 24 22 23 -16 19 -10 -11 -13 -19 -7 29 27 -9 -15 -27 -2 -12 -1
right_child=1 10 3 -5 5 21 -8 8 17 18 11 16 -14 25 15 -17 -18 20 -20 -21 -22 -23 -24 -25 -26 26 -28 -29 -30 -31
leaf_value=-0.0076823640740536327 -0.0051737101183483049 -0.0030793703890004947 -0.0085999717463410494 -0.0086523392480026048 0.004135418904311257 -0.003097534432367822 0.019753653586304439 0.004525237300307113 0.0074876202156955521 0.0023367221397470662 0.0050377486411738196 0.03002093035531915 0.0049385116845011021 0.01166163388630731 0.02419093663400932 0.00045937252959467204 -0.011118868624079988 -0.0018805834814679915 -0.0085096908294511019 0.013909939233743052 0.0044881758038600676 0.003318704255609769 -0.0067211396266337849 -0.014476277884844155 0.021155205846949528 -0.018463170708387894 -0.0066274712066818828 0.0035636134570487554 0.015599364309282862 -0.0014619410938612909
leaf_weight=918.14129857718945 1982.270288720727 404.28649371862411 1444.6616147607565 1240.2600808143616 3843.8242836296558 2555.8558369725943 762.88108949363232 191.73038357496262 742.92632479965687 1850.5867037326097 1497.2475702017546 269.79700314998627 2425.3220760524273 62.422244012355804 108.47422131896019 893.29211004078388 40.129889383912086 4068.3489121794701 396.32010981440544 374.66232286393642 1212.9112095236778 1433.7588468194008 2470.7610313147306 327.33709079027176 369.44626703858376 424.08805434405804 615.15508349239826 527.22881098091602 353.70600734651089 6574.0120209008455
leaf_count=3711 7990 1628 5836 5023 15417 10285 3059 768 2976 7427 6003 1086 9712 252 435 3589 161 16312 1592 1510 4858 5749 9972 1320 1479 1764 2483 2116 1417 26492
internal_value=0 0.00247087 -0.00158678 0.000410529 0.00132998 0.00324299 0.00673641 0.00110384 0.0026862 -0.00311086 0.00842642 0.0102812 0.00695948 -0.00403313 -0.00259726 0.00310052 0.0188126 0.000558611 0.000398403 0.0207682 -0.000407875 -0.00077893 -0.00335074 -0.00462731 0.0155805 -0.0101503 -0.0115185 -0.00331745 0.00709034 -0.00223183
internal_weight=40381.8 15789.1 24592.7 13528.1 12287.9 8596.32 4606.71 12849.3 9010.69 3691.57 2939.83 2535.54 2986.5 11064.6 3838.6 1001.77 684.589 6024.19 2246.91 644.459 5281.26 3989.61 9962.91 2836.84 561.177 1101.67 1039.24 2509.5 1850.95 7492.15
internal_count=162422 63360 99062 54388 49365 34510 18476 51555 36105 14855 11805 10177 11959 44674 15450 4024 2757 24146 9019 2596 21170 16034 40175 11426 2247 4499 4247 10106 7420 30203
is_linear=0
shrinkage=0.05


Tree=17
num_leaves=31
num_cat=0
split_feature=39 42 19 32 43 19 27 2 43 19 1 43 44 44 31 27 19 0 39 36 39 29 5 19 44 43 36 43 19 39
split_gain=57.2455 44.1147 40.1488 36.0056 35.6309 36.2711 51.4874 26.1626 23.244 22.91 18.6552 23.3673 22.5553 18.403 18.0926 17.8341 17.5899 16.8896 16.46 15.6116 15.5947 15.0219 14.8426 14.6491 14.2818 16.3063 12.6446 12.3268 12.1041 12.848
threshold=0.98675688251329485 1.0000000180025095e-35 21.778429951279545 1.0000000180025095e-35 -7.4302526627348149 0.26945758017701671 1.0000000180025095e-35 1.0000000180025095e-35 -33.488175459144848 57.999177531176052 1.0000000180025095e-35 -5.3705144304287407 -12.016992759599185 33.028129111990651 1.5000000000000002 1.0000000180025095e-35 -0.69313164831135243 1.0000000180025095e-35 0.98730468177018338 8.5000000000000018 0.9935435106062015 1.0000000180025095e-35 42.500000000000007 20.652180183014494 3.614120897368978 1.0000000180025095e-35 51.500000000000007 -13.478541757560601 6.6299833484475732 0.97459860739611537
decision_type=2 2 8 2 10 10 2 2 10 8 2 10 8 10 2 2 10 2 2 2 2 2 2 10 8 10 2 10 8 2
left_child=1 3 7 14 16 6 -6 18 -4 26 12 17 20 -7 23 -13 -5 -12 -2 -14 -9 22 -11 -1 -16 -26 -10 -3 -29 -30
right_child=2 27 8 4 5 13 -8 10 9 21 11 15 19 -15 24 -17 -18 -19 -20 -21 -22 -23 -24 -25 25 -27 -28 28 29 -31
leaf_value=-0.0097375480603397249 0.011505395413739274 -0.01491421548832611 -0.0034833231497430027 -0.00015843995785172493 0.005625143179118974 -0.00052296343415617964 0.025338824270606006 0.0047624723513629216 0.0061406195844605077 -2.6228261064053747e-05 -0.0022045274262804146 -0.0016701712260745257 0.010883775702082835 0.0094919039457923363 -0.0031156306081072949 0.0045821760910123395 -0.0087613955716704783 0.0085120808403587305 -0.011914852227366313 -0.0075055549905292665 -0.014978174330161634 0.015208928559395003 0.054268237180971859 0.0087061153276627445 -0.0017325970320051329 0.0041894625016260702 0.038573496657404095 0.00057104672514922611 -0.0083736034660757321 -0.00089021518601365042
leaf_weight=1117.0662876665592 84.114635184407234 364.71735356748104 373.82805526256561 2291.163322404027 1996.043876722455 3033.4482449740171 399.66852259635925 217.85758773982525 1686.0582481771708 14.382563069462774 484.57780537009239 5744.6461996138096 1330.8485083580017 538.05695034563541 6538.9659919142723 1420.2966770380735 807.16476234793663 1435.5178962498903 541.54687570035458 122.37646007537842 179.8813374787569 580.00556954741478 49.014537513256073 115.49388325214386 3170.1897648721933 1830.9417628645897 30.307225987315178 720.55245779454708 2378.1162101328373 776.50952510535717
leaf_count=4557 339 1483 1505 9209 7995 12177 1602 874 6759 58 1950 23050 5332 2155 26379 5690 3248 5747 2190 490 721 2338 199 465 12774 7357 122 2906 9629 3122
internal_value=0 -0.00139395 0.00254283 -0.00048521 0.00192158 0.00418314 0.00894397 0.00124895 0.00799454 0.00983471 0.00182191 0.000883081 0.0064 0.000974042 -0.00219739 -0.000423333 -0.00241789 0.00578175 -0.00867308 0.00929673 -0.00405521 0.017924 0.0413652 -0.00796314 -0.0015766 0.00042591 0.00676455 -0.00606152 -0.00521181 -0.00654828
internal_weight=40373.4 26078.1 14295.3 21838.2 9065.55 5967.22 2395.71 11561.7 2733.6 2359.77 10936 9085.04 1850.96 3571.51 12772.7 7164.94 3098.33 1920.1 625.662 1453.22 397.739 643.403 63.3971 1232.56 11540.1 5001.13 1716.37 4239.9 3875.18 3154.63
internal_count=162422 105058 57364 87918 36386 23929 9597 46383 10981 9476 43854 36437 7417 14332 51532 28740 12457 7697 2529 5822 1595 2595 257 5022 46510 20131 6881 17140 15657 12751
is_linear=0
shrinkage=0.05


Tree=18
num_leaves=31
num_cat=0
split_feature=39 19 42 32 43 19 27 2 43 19 43 1 45 44 44 39 19 5 27 22 10 39 45 1 44 14 36 45 39 44
split_gain=51.9765 42.133 41.5643 33.0481 33.7614 34.1295 45.1908 29.2921 20.6227 22.2601 18.2161 16.8017 19.9319 18.4661 16.6837 16.1381 15.9855 15.2326 14.8963 14.826 14.7043 14.2281 14.121 13.9846 12.85 12.7084 12.3752 12.3414 11.2968 11.1379
threshold=0.98537753645871951 21.778429951279545 1.0000000180025095e-35 1.0000000180025095e-35 -7.4302526627348149 0.26945758017701671 1.0000000180025095e-35 1.0000000180025095e-35 -33.488175459144848 57.999177531176052 -4.6532301535005418 1.0000000180025095e-35 -11.117238450287763 -12.207635943887277 36.449563256268753 0.97752806758804667 -0.69313164831135243 52.500000000000007 1.0000000180025095e-35 1.0000000180025095e-35 70.000000000000014 0.9935435106062015 -7.5265558602169786 1.0000000180025095e-35 4.4577497475916559 1.0000000180025095e-35 51.500000000000007 -0.4786433026226708 0.99219564127295368 8.8761762929962753
decision_type=2 8 2 2 10 10 2 2 10 8 10 2 10 8 10 2 10 2 2 10 2 2 8 2 10 2 2 8 2 10
left_child=2 7 3 10 16 6 -6 24 -3 26 15 13 25 21 -7 -1 -5 27 -14 -15 23 -9 -18 -11 28 -13 -10 -12 -2 -17
right_child=1 8 -4 4 5 14 -8 11 9 20 17 12 18 19 -16 29 22 -19 -20 -21 -22 -23 -24 -25 -26 -27 -28 -29 -30 -31
leaf_value=-0.007959731377390129 -0.0071747003625392122 -0.0027458167042877569 -0.0060144667231353029 -0.00025573543075528489 0.0056171683090221348 -0.00050888677338670728 0.024414897994602051 0.0042638222447748883 0.0058302336188857003 0.026828445440440704 -0.0020436829337988822 0.002860327282699643 -0.001430301984992258 0.01186090341641366 0.0099044540505501006 -0.0026551469897146711 -0.016186464499710767 -0.0038629084515857505 0.0041257147669204958 0.0016728290746441711 -0.011298859028941115 -0.014214888679968229 -0.0024423846245474829 0.011615918678898709 0.0050353077958307582 0.011940996904736824 0.036736828180193908 0.0027388328296409602 -0.022573002537142228 0.011190111754944238
leaf_weight=2144.2321387529373 558.55929686129093 404.15351928770542 4128.4715781956911 2215.8895429968834 1920.3825621604919 2881.6808700412512 386.44983956217766 244.00824123620987 1818.0787284523249 304.84000274538994 2432.064209073782 1625.5038810819387 6332.8576420396566 1028.7330788224936 441.8039503544569 1128.611067533493 343.98123107850552 2946.6925417035818 1487.427896887064 566.11981938779354 40.125658288598061 177.27609100937843 431.04647743701935 337.95783013105392 153.66096132993698 515.0281230956316 32.715796932578087 3013.311994150281 158.41868633031845 165.10712750256062
leaf_count=8710 2256 1628 16704 8907 7691 11569 1550 979 7288 1233 9815 6513 25420 4122 1769 4562 1385 11874 5960 2267 161 711 1736 1363 619 2064 132 12125 644 665
internal_value=0 0.00223886 -0.00143776 -0.000511167 0.00183999 0.00412356 0.00879712 0.000998865 0.00764226 0.00931942 -0.00222883 0.00164623 0.000797618 0.00581158 0.000862923 -0.00529696 -0.00244198 -0.000965485 -0.000366756 0.00827912 0.0170748 -0.00340885 -0.00861986 0.0189384 -0.00784093 0.00507311 0.0064231 0.000593658 -0.0106733 -0.000842288
internal_weight=40365.2 15785.5 24579.7 20451.3 8621.23 5630.32 2306.83 12847.6 2937.87 2533.72 11830 11977 9960.82 2016.14 3323.48 3437.95 2990.92 8392.07 7820.29 1594.85 682.923 421.284 775.028 642.798 870.639 2140.53 1850.79 5445.38 716.978 1293.72
internal_count=162422 63360 99062 82358 34607 22579 9241 51555 11805 10177 47751 48036 39957 8079 13338 13937 12028 33814 31380 6389 2757 1690 3121 2596 3519 8577 7420 21940 2900 5227
is_linear=0
shrinkage=0.05


Tree=19
num_leaves=31
num_cat=0
split_feature=33 39 44 1 31 0 40 42 45 16 33 44 18 45 23 45 33 45 39 39 38 29 5 33 39 45 39 19 7 5
split_gain=52.0962 41.3538 37.6809 34.018 27.3646 26.8009 25.8314 36.5167 25.9453 18.2652 16.5111 16.4592 15.0536 18.2454 14.1011 14.738 12.8741 11.2421 13.8663 11.0455 10.821 12.2029 10.6187 10.4564 10.1789 11.8862 10.1695 9.83364 9.73379 10.7693
threshold=7.2608913314844274 0.98087427737827992 4.9066914795743442 22.500000000000004 1.5000000000000002 1.0000000180025095e-35 1.0000000180025095e-35 1.5000000000000002 -27.423675145302585 45.877218813266275 1.9722162770911269 -5.0072190986918619 1.0000000180025095e-35 -7.8545771733485514 1.0000000180025095e-35 12.021690090795277 3.4650189487196119 1.8614041845498743 0.95413144616193601 0.99482712227122305 1.0000000180025095e-35 2.5000000000000004 87.500000000000014 1.0000000180025095e-35 0.95413144616193601 19.970858558184968 0.99999302735579443 3.0781142576534042 1.0000000180025095e-35 22.500000000000004
decision_type=2 2 8 2 2 2 2 2 8 10 2 8 2 10 2 8 2 8 2 2 2 2 2 2 2 8 2 10 2 2
left_child=1 4 5 6 9 16 7 8 -2 23 17 -10 13 -7 15 -12 19 18 -6 -3 21 -5 -22 -1 -11 -26 -8 -19 29 -4
right_child=3 2 28 20 10 12 26 -9 11 24 14 -13 -14 -15 -16 -17 -18 27 -20 -21 22 -23 -24 -25 25 -27 -28 -29 -30 -31
leaf_value=0.0117557160465965 -0.01030579322686485 -0.0054646300575939321 0.010847027521459933 -0.012787933714489334 -0.019180593979632645 0.01212981244240874 -0.016550112546688266 -0.0076690836561095392 0.0091255214460950855 -0.010023697733336938 -0.00034848998297439411 0.0037737738786167967 -0.0013123544345898814 0.001683598188852702 0.0038633058295958877 -0.0054849925989945677 -0.00067314674745083247 -0.0097029688924111027 -0.005853862794963886 -0.017430309859711279 0.035034109416168753 -0.0014988626516785142 0.00093571721459334263 -0.013203841650733237 -0.0016670164377987177 0.018246082582849005 0.018643110255752778 -0.00055155804087380917 -0.0059031278885057631 0.0034778463537594542
leaf_weight=40.682594209909439 268.70983658730984 2291.495163872838 553.07692097127438 458.85560846328735 224.26176576316357 522.81738476455212 19.421228975057602 631.97840416431427 2115.8539434969425 271.37580543756485 5397.969831392169 4670.3135422319174 3245.8135622888803 2158.1655546575785 1350.6544304788113 1894.6158336699009 1541.0575936436653 354.8490237891674 1755.1985599249601 215.36459229886532 24.518553003668785 523.73603072762489 254.54969541728497 1151.367139056325 391.69092679023743 90.836597606539726 385.46762771904469 1762.7703169584274 245.48237031698227 5544.2294201999903
leaf_count=164 1084 9251 2223 1862 911 2097 78 2557 8477 1101 21730 18722 13018 8658 5434 7638 6203 1437 7106 871 100 2116 1020 4718 1580 365 1567 7106 985 22243
internal_value=0 -0.000986531 0.000743424 0.00327065 -0.00291196 -0.00116874 0.00446436 0.00380625 0.00484225 -0.00844131 -0.00206289 0.00545086 0.000966296 0.00374312 -0.00081639 -0.00169038 -0.00430658 -0.00467946 -0.00739788 -0.00651908 -0.00434319 -0.00682917 0.00422448 -0.012301 -0.0022641 0.00200823 0.0167952 -0.00211251 0.00375809 0.00415616
internal_weight=40357.2 31003.8 16317.5 9353.4 14686.3 9974.71 8091.74 7686.86 7054.88 1945.95 12740.3 6786.17 5926.8 2680.98 8643.24 7292.59 4047.92 4097.08 1979.46 2506.86 1261.66 982.592 279.068 1192.05 753.903 482.528 404.889 2117.62 6342.79 6097.31
internal_count=162422 124839 65549 37583 59290 40098 32485 30840 28283 7928 51362 27199 23773 10755 34802 29368 16325 16560 8017 10122 5098 3978 1120 4882 3046 1945 1645 8543 25451 24466
is_linear=0
shrinkage=0.05


Tree=20
num_leaves=31
num_cat=0
split_feature=33 1 2 43 40 42 44 33 44 43 18 16 19 44 16 44 42 19 11 43 22 18 36 19 43 19 43 33 36 1
split_gain=47.0366 30.6913 30.1018 27.3025 23.3604 32.9746 23.0374 22.1159 25.3547 21.7966 47.8759 21.8437 20.1077 18.3251 14.7742 15.259 14.6814 17.2505 14.4154 16.9317 19.0943 14.3067 12.8432 11.7993 11.5519 11.2616 11.0789 10.7729 10.2978 10.1894
threshold=7.2608913314844274 22.500000000000004 10.000000000000002 -5.2036794520739775 1.0000000180025095e-35 1.5000000000000002 -40.219533410614339 2.6514765309293535 3.2061204991585046 -3.4133750295110397 1.0000000180025095e-35 37.571295525298375 3.7334672419899091 -5.0072190986918619 45.877218813266275 -8.8183214369861975 1.5000000000000002 47.040516355299495 1.0000000180025095e-35 -3.279789029129065 1.0000000180025095e-35 1.5000000000000002 2.5000000000000004 11.944605725290259 10.705199374964593 26.074669385464919 -4.1295827300871109 0.030741107009985006 39.500000000000007 1.0000000180025095e-35
decision_type=2 2 2 10 2 2 8 2 8 8 2 8 8 8 8 10 2 8 8 10 10 2 2 8 10 10 10 2 2 2
left_child=2 4 3 14 5 6 -2 8 29 10 11 12 -4 -8 15 21 17 -9 19 20 -11 -1 -21 -12 -3 27 -25 -20 -7 -5
right_child=1 24 9 7 -6 28 13 16 -10 18 23 -13 -14 -15 -16 -17 -18 -19 25 22 -22 -23 -24 26 -26 -27 -28 -29 -30 -31
leaf_value=0.0018995554782073364 -0.0068800765745084458 -0.0097957450603888708 0.0014796438290909941 0.0010645394231780772 0.015981273166281455 -0.0086285073438646422 0.0093612716239457744 0.00098123133936210889 0.00050309793513941858 -0.003284805063712717 0.0019515212935530706 -0.008943430657417482 0.019401131455211239 0.0035848431244877885 -0.01297813706919564 -0.0078663276594177611 -0.011305208957810238 0.020828235059992661 0.011338509410257972 0.0006004784219926176 -0.03594250542904992 -0.0053726940304759177 0.0073513717401521217 -0.010369187109083536 -2.0622264311954085e-05 0.014015226495304588 0.018816922857908314 -0.0043117514998024303 0.023809469248517144 -0.0069148765555281143
leaf_weight=1267.7628113180399 407.13064156472683 523.82815849781036 206.41754630208015 445.44919224083424 404.10570429265499 607.72626969218254 1977.2322546839714 6735.0421716272831 2652.0615212619305 179.70324802398682 2425.1175014078617 97.316743269562721 740.84866420924664 4670.6720503270626 567.2070938795805 1851.1664615124464 236.9913964420557 110.64109101891518 111.7219875305891 4511.7353794723749 60.683989033102989 1430.8676545023918 839.06999297440052 341.28439395129681 736.99016751348972 90.32350592315197 33.922680661082268 2894.0368950068951 23.791893139481544 3168.5496252477169
leaf_count=5120 1638 2120 828 1799 1645 2461 7923 27084 10681 723 9722 390 2978 18722 2367 7477 963 444 448 18106 244 5774 3362 1369 2978 362 136 11625 96 12837
internal_value=0 0.00310759 -0.000937987 -0.00222235 0.0042414 0.0036157 0.00460004 -0.00102719 -0.00319241 0.000950518 0.00408561 0.0132178 0.0155543 0.00531155 -0.0053296 -0.00436246 0.000881514 0.0013123 -0.000431598 0.00107736 -0.0118509 -0.00193838 0.00166962 0.000657741 -0.00412603 -0.00317223 -0.00755455 -0.00370984 -0.00729168 -0.00591751
internal_weight=40349.4 9351.48 30997.9 18465.7 8090.66 7686.55 7055.03 13348.7 6266.06 12532.2 3844.91 1044.58 947.266 6647.9 5117 4549.8 7082.67 6845.68 8687.27 5591.19 240.387 2698.63 5350.81 2800.32 1260.82 3096.08 375.207 3005.76 631.518 3614
internal_count=162422 37583 124839 74546 32485 30840 28283 53808 25317 50293 15423 4196 3806 26645 20738 18371 28491 27528 34870 22435 967 10894 21468 11227 5098 12435 1505 12073 2557 14636
is_linear=0
shrinkage=0.05


Tree=21
num_leaves=31
num_cat=0
split_feature=33 39 0 24 45 43 43 12 39 45 45 33 43 45 43 40 33 7 43 45 33 5 4 39 4 45 43 5 29 39
split_gain=42.4499 35.5282 29.7017 29.3603 38.7682 27.9523 26.3164 22.1211 20.3647 20.1049 18.5487 18.481 18.1301 16.2917 27.1637 20.8477 16.0673 15.9981 15.3411 15.1344 14.6352 14.3604 14.1653 12.8866 12.1647 16.7455 10.5008 10.3751 10.5822 10.19
threshold=7.2608913314844274 0.98290039471078716 1.0000000180025095e-35 1.0000000180025095e-35 -12.334533434394244 -11.520260808289267 -5.3705144304287407 4.695384502225429 0.99433196999349993 6.4634738899068322 14.827616416390022 26.007282708932213 -5.0386003804221531 3.0845798327570795 -4.1295827300871109 1.0000000180025095e-35 2.6514765309293535 1.0000000180025095e-35 -5.3705144304287407 -4.9986549397856157 5.8739463671359191 17.500000000000004 20.000000000000004 0.97055983488522701 10.000000000000002 -8.1918210314355253 -11.81122826702026 32.500000000000007 1.0000000180025095e-35 0.98377836058436008
decision_type=2 2 2 2 10 10 8 10 2 8 8 2 10 10 10 2 2 2 10 8 2 2 2 2 2 10 10 2 2 2
left_child=1 5 19 4 -2 -1 24 12 11 -9 -8 27 20 14 -6 23 -14 -11 -12 26 -7 -21 -16 -15 -4 -26 -3 -5 -29 -28
right_child=3 2 6 8 13 7 10 9 -10 17 18 -13 16 15 22 -17 -18 -19 -20 21 -22 -23 -24 -25 25 -27 29 28 -30 -31
leaf_value=-0.0091461101149856016 0.00089181055595958429 0.0089924889598566159 0.0047258500045418046 -0.014751868005340034 0.0078484278084220271 -0.0063393920403093862 -4.5360653216159826e-05 -0.0059895450222700979 0.0062690606301568155 -0.00018569896466466606 -0.0046482882667727814 -0.018918789236202629 -0.0020515304869801201 -0.0039327612877293012 0.018276190271192694 0.030092531761064602 0.003890587640473557 -0.017486405983114846 0.008259045806737423 0.0097543651158925673 0.0032743548493476705 -0.0013158789707158175 0.040236479134070753 0.0071247593023168621 0.019148354532900133 0.0027552571525550464 0.0055660521943277285 0.0040400836904241925 -0.0025693615305744642 -0.0082494539666430125
leaf_weight=1444.9634559005499 2489.9004193097353 105.8491129130125 1258.4425398260355 134.89996252954006 843.94945296645164 1494.9177172034979 6122.4256163537502 4273.7770735770464 935.05812215805054 3410.0140160024166 273.00671419501305 155.11488427221775 1737.5160728991032 356.370754763484 413.46998472511768 81.852915048599243 3248.5713838338852 138.38935431838036 1315.8483722805977 323.3886483758688 530.02564324438572 3001.9089995771646 96.849208831787109 956.91309553384781 430.03190305829048 256.69647029042244 141.52496962249279 859.99357534945011 2025.456231996417 1484.3698450773954
leaf_count=5925 10002 427 5044 542 3380 6033 24552 17300 3759 13739 1099 631 7015 1435 1656 339 13042 558 5267 1299 2130 12084 389 3835 1729 1028 571 3455 8160 5997
internal_value=0 -0.000891007 0.000887111 0.00295261 0.00543435 -0.00250124 0.00251516 -0.00184999 -0.000199024 -0.00367815 0.00119608 -0.00212075 0.000182783 0.00952815 0.0134612 0.00566757 0.0018099 -0.000879258 0.00600825 -0.00221165 -0.00379796 -0.000221646 0.0226122 0.00408545 0.00771541 0.0131063 -0.00600167 -0.00123554 -0.000581411 -0.00701348
internal_weight=40341.5 30991.7 14713.5 9349.83 5239.31 16278.2 9656.45 14833.2 4110.52 7822.18 7711.28 3175.46 7011.03 2749.41 1354.27 1395.14 4986.09 3548.4 1588.86 5057.04 2024.94 3325.3 510.319 1313.28 1945.17 686.728 1731.74 3020.35 2885.45 1625.89
internal_count=162422 124839 59097 37583 21036 65742 38719 59817 16547 31597 30918 12788 28220 11034 5425 5609 20057 14297 6366 20378 8163 13383 2045 5270 7801 2757 6995 12157 11615 6568
is_linear=0
shrinkage=0.05


Tree=22
num_leaves=31
num_cat=0
split_feature=40 42 33 43 11 33 1 23 4 31 12 43 23 39 33 36 44 2 43 42 33 43 12 33 39 12 36 0 44 33
split_gain=38.8459 44.9819 44.1706 24.4383 23.5706 25.8789 25.2743 30.1959 23.5161 17.8076 16.4464 35.3808 33.4055 15.4192 12.5076 11.8849 11.1296 10.1187 10.0885 10.2769 12.4958 8.2796 8.10086 7.41952 5.92569 8.82417 6.83688 5.8199 5.60259 5.41776
threshold=1.0000000180025095e-35 1.0000000180025095e-35 7.1938924900229475 -9.9429486538014178 28.971415187968891 1.0000000180025095e-35 1.0000000180025095e-35 1.0000000180025095e-35 1.0000000180025095e-35 2.5000000000000004 1.6174298451907057 -1.4645400972797815 1.0000000180025095e-35 0.99999302735579443 21.452756684391719 43.500000000000007 124.71217869735044 20.000000000000004 -13.478541757560601 2.5000000000000004 2.2129222485543223 5.5473495081844577 1.4271594573939168 8.1257479912918438 0.94815872496477327 24.355859880865506 1.0000000180025095e-35 1.0000000180025095e-35 59.452012760408088 5.246167501926009
decision_type=2 2 2 8 8 2 2 2 2 2 10 10 2 2 2 2 10 2 10 2 2 10 10 2 2 10 2 2 10 2
left_child=1 2 4 14 6 27 9 -8 -2 -1 11 -5 -12 -10 17 18 22 -4 24 20 -20 -7 29 -24 25 -3 -26 -6 -21 -15
right_child=8 15 3 10 5 21 7 -9 13 -11 12 -13 -14 16 -16 -17 -18 -19 19 28 -22 -23 23 -25 26 -27 -28 -29 -30 -31
leaf_value=0.0068756080797798495 0.032898517284403399 -0.025693594734538545 -0.00091522960357273133 0.0061155462585466098 -0.0055879156784279429 -0.01586079837249885 -0.0019942829442128316 0.0023603349778206235 -0.020379129896016562 0.00062336631914174654 -0.0067643866899024492 0.022639838549851396 0.0063623589798682337 0.025947626796073483 -0.014346428101403208 0.020170209837321915 0.037740434818236739 0.013443496915289399 -0.0081810387087506622 -0.013622640404763339 -0.0018060283858089836 0.0062359103236051434 -0.0032445660721519207 0.0084257260769645941 -0.0032206418325607259 0.0023558673426897782 -0.025994035106336438 0.015905161360858521 0 0.0028111036281752914
leaf_weight=1861.0622611343861 99.769158631563187 130.72327861189842 1429.8770648092031 2052.1642955541611 40.624517127871513 534.0411202609539 16674.614206597209 5219.7594909518957 46.112012773752213 2984.8901159763336 648.28734937310219 388.55166184902191 1884.6750381588936 89.240265384316444 159.56516075134277 46.354312434792519 31.775669097900391 133.03169228136539 1020.1809170544147 394.50181366503239 3251.2032299339771 42.115706250071526 182.49497476220131 477.10064750909805 209.46892754733562 31.394857496023178 40.140283897519112 101.74306321144104 84.701217606663704 42.690888226032257
leaf_count=7488 417 536 5737 8223 164 2237 67140 20979 185 12001 2600 1559 7551 358 648 187 133 533 4129 1605 13123 170 731 1922 850 130 163 408 343 172
internal_value=0 -0.000243456 0.000415296 0.0040569 -0.000471044 -0.0094031 -0.000228823 -0.00095377 0.00988405 0.00303575 0.00583574 0.00877482 0.00298162 0.00715083 -0.00105094 -0.00457197 0.00877626 0.0002828 -0.00480768 -0.00413929 -0.0033419 -0.0141509 0.00750426 0.00512111 -0.0123698 -0.019974 -0.00717151 0.00942717 -0.0111209 0.0189146
internal_weight=40332.9 39363.7 34155 6696.15 27458.9 718.524 26740.3 21894.4 969.184 4845.95 4973.68 2440.72 2532.96 869.414 1722.47 5208.67 823.302 1562.91 5162.31 4750.59 4271.38 576.157 791.527 659.596 411.727 162.118 249.609 142.368 479.203 131.931
internal_count=162422 158504 137438 26851 110587 2979 107608 88119 3918 19489 19933 9782 10151 3501 6918 21066 3316 6270 20879 19200 17252 2407 3183 2653 1679 666 1013 572 1948 530
is_linear=0
shrinkage=0.05


Tree=23
num_leaves=31
num_cat=0
split_feature=39 42 33 19 44 43 43 19 0 43 18 33 24 44 43 19 12 29 12 1 39 11 33 27 44 11 29 43 4 33
split_gain=35.9578 31.1721 39.6618 30.731 22.9046 22.1916 22.1179 63.6649 19.7515 23.3451 33.9595 19.7332 19.8449 17.2012 18.2324 22.1784 14.8282 14.5658 12.0441 12.0046 11.9958 11.9667 11.0605 10.9251 10.9222 16.3384 10.8976 9.62223 9.38735 9.23703
threshold=0.98537753645871951 1.0000000180025095e-35 7.9582491193123888 21.778429951279545 -35.123865915703753 -4.9579971018085525 -5.0386003804221531 2.747074740389492 1.0000000180025095e-35 -3.4133750295110397 1.0000000180025095e-35 0.33010137459558725 1.0000000180025095e-35 44.037116622126092 -8.7494224505960698 72.089620403121998 13.806815029766424 1.5000000000000002 8.097432973306633 1.0000000180025095e-35 0.99703041064614284 8.6900027773187691 5.2901471343400077 1.0000000180025095e-35 -16.83030646397 29.998687399874672 1.0000000180025095e-35 -20.254222676176621 10.000000000000002 9.2558028008557187
decision_type=2 2 2 8 10 10 10 10 2 10 2 2 2 10 8 8 10 2 8 2 2 10 2 2 10 8 2 10 2 2
left_child=1 2 5 8 26 24 27 -8 17 10 16 -7 -13 14 15 -5 -10 20 -16 -11 22 -12 -2 -21 25 -1 -4 -6 -28 -17
right_child=3 -3 4 13 6 11 7 -9 9 19 21 12 -14 -15 18 29 -18 -19 -20 23 -22 -23 -24 -25 -26 -27 28 -29 -30 -31
leaf_value=-6.5911225219030525e-06 -0.0047016176881788663 -0.0051647496485680774 -0.0045374949152485935 -0.0062408095604300677 -0.0098470069872295621 -0.0086827149312597145 0.025926855463125772 0.0027205883564121215 0.019473928939880585 0.0062354062614089793 0.00047562744951293339 0.0018964196867044354 -0.0025298289560411608 0.014636497433469073 -0.0038056646817062872 0.037661584414144397 0.002038365888288781 0.0029571464512247844 0.0052745211577738789 -0.0017947816970351371 -0.014713658509883652 0.0086162516691541575 0.0032871355929402477 0.0036043397560233032 -0.0065013111230246366 -0.010416990056316428 0.017524906885613582 0.0038625706463725966 0.00034413667441174524 -0.0011060003916724844
leaf_weight=2148.893286973238 2049.2855331003666 4119.3313712924719 831.06891793012619 50.862680971622467 142.87767347693443 648.43007844686508 484.34048710763454 770.86919075250626 529.77813632786274 743.1854142844677 1662.3907775878906 6974.1920863986015 3971.0511775165796 533.88937017321587 452.27855645120144 103.24385407567024 167.2539985626936 1001.2986836880445 1776.8379307985306 4067.2758735567331 241.94397056102753 626.55844356119633 540.99831539392471 1213.1455552130938 2541.759394749999 458.56336304545403 114.66951169073582 1069.6390516757965 274.5418858230114 15.04842635989189
leaf_count=8666 8275 16704 3340 204 576 2621 1946 3090 2124 2976 6656 28062 16008 2162 1820 422 670 4024 7136 16312 979 2509 2172 4858 10264 1937 460 4287 1101 61
internal_value=0 -0.00119645 -0.000393692 0.00186289 0.0042961 -0.00142991 0.00706921 0.0117284 0.000803776 0.0020856 0.00570062 -0.000212126 0.000285877 0.00648301 0.00464174 0.0204788 0.0153708 -0.0021955 0.00340889 0.000284637 -0.0040352 0.0027286 -0.00301319 -0.000544451 -0.00416152 -0.00185989 -0.0012721 0.00219911 0.00556601 0.0323427
internal_weight=40325.5 24550.2 20430.9 15775.3 3688.01 16742.9 2467.73 1255.21 12843.1 9009.59 2985.98 11593.7 10945.2 2932.16 2398.27 169.155 697.032 3833.53 2229.12 6023.61 2832.23 2288.95 2590.28 5280.42 5149.22 2607.46 1220.28 1212.52 389.211 118.292
internal_count=162422 99062 82358 63360 14800 67558 9899 5036 51555 36105 11959 46691 44070 11805 9643 687 2794 15450 8956 24146 11426 9165 10447 21170 20867 10603 4901 4863 1561 483
is_linear=0
shrinkage=0.05


Tree=24
num_leaves=31
num_cat=0
split_feature=40 42 33 4 11 33 1 4 24 16 27 39 3 33 39 4 33 42 33 1 19 19 39 16 11 10 0 16 19 3
split_gain=33.4217 37.5955 36.2715 21.4996 19.761 23.351 21.8213 17.8484 19.0814 18.7364 16.4341 13.9767 13.6273 13.187 12.9089 12.4186 9.49349 9.47343 12.5386 12.8684 8.26765 7.96137 6.20357 5.84593 5.72793 5.97169 5.26076 5.11897 6.78124 5.0923
threshold=1.0000000180025095e-35 1.0000000180025095e-35 7.1938924900229475 1.0000000180025095e-35 28.971415187968891 1.0000000180025095e-35 1.0000000180025095e-35 1.0000000180025095e-35 1.0000000180025095e-35 71.943504887974711 1.0000000180025095e-35 0.99999302735579443 1.0000000180025095e-35 14.599427439916726 0.98466680356804948 10.000000000000002 39.1918467280613 2.5000000000000004 2.2129222485543223 22.500000000000004 27.958283599929587 -0.56665099930857199 0.974401572671317 18.420389573851768 0.87757419675881831 32.500000000000007 1.0000000180025095e-35 85.836071266737491 28.625288171882541 20.000000000000004
decision_type=2 2 2 2 8 2 2 2 2 10 2 2 2 2 2 2 2 2 2 2 10 10 2 8 8 2 2 8 10 2
left_child=1 2 4 -2 6 26 14 9 15 13 -8 20 -10 -4 -1 -9 27 18 23 22 -5 -21 -20 -3 25 29 -6 28 -13 -19
right_child=3 17 7 11 5 -7 10 8 12 -11 -12 16 -14 -15 -16 -17 -18 24 19 21 -22 -23 -24 -25 -26 -27 -28 -29 -30 -31
leaf_value=0.00031797494824695779 0.031275763389044288 -0.0049549683331894315 -0.000517011816844342 -0.035260447398728238 -0.0049806834617111958 -0.013152472976458086 -0.001553863422802887 0.0036852925817645477 -0.0067305569119156423 0.040466023023555293 0.0019016868384780156 0.0043176703225489338 0.0030088712370181674 -0.015005142012286157 0.0055047734295072988 0.0098189565049779416 0.032065982582931446 -0.026013618853895821 -0.0027627772183802654 -0.031388285657724654 0.0061716915514599246 -0.0074225585268313564 0.0017405828176975131 -0.012630999376012045 -0.0059782331141159297 0.01277956782743217 0.015404434990866767 -0.0059522343599140819 0.014748636059616741 -0.0083821914367398932
leaf_weight=2510.5639874786139 98.991702541708946 633.50328576564789 592.6876428425312 29.699258387088776 40.57387575507164 573.48032557964325 17626.819764614105 1537.218033567071 434.04993607103825 22.71917824447155 4262.9298752993345 464.23476377129555 2015.1004246175289 216.6547891497612 2335.271998167038 1875.634379863739 39.562643975019455 119.97859229147434 1749.6188791692257 38.484699085354805 16.411479353904724 469.95753788948059 1344.659264549613 448.2612257450819 306.67161601781845 13.028554633259771 101.78633777797222 66.678737759590149 251.77310362458229 79.374237596988678
leaf_count=10112 417 2566 2376 119 164 2407 70965 6159 1745 91 17154 1862 8084 875 9377 7521 164 489 7083 160 66 1918 5402 1822 1251 53 408 269 1021 322
internal_value=0 -0.000225192 0.000376833 0.00917738 -0.000426295 -0.00862052 -0.000204712 0.00367739 0.00465349 -0.0031367 -0.00087857 0.00656761 0.00126035 -0.00447081 0.0028285 0.00707276 0.00811981 -0.00418458 -0.00345705 -0.00201997 -0.0196348 -0.00939276 -0.000789699 -0.00819067 -0.0106352 -0.0170658 0.00925151 0.00680623 0.00807075 -0.0193199
internal_weight=40316.4 39349 34145.5 967.352 27451.4 715.841 26735.6 6694.06 5862 832.062 21889.7 868.36 2449.15 809.342 4845.84 3412.85 822.249 5203.54 4684.48 3602.72 46.1107 508.442 3094.28 1081.76 519.053 212.381 142.36 782.687 716.008 199.353
internal_count=162422 158504 137438 3918 110587 2979 107608 26851 23509 3342 88119 3501 9829 3251 19489 13680 3316 21066 18951 14563 185 2078 12485 4388 2115 864 572 3152 2883 811
is_linear=0
shrinkage=0.05


Tree=25
num_leaves=31
num_cat=0
split_feature=40 42 33 43 4 43 45 15 33 12 27 45 3 18 22 12 36 43 42 42 31 43 0 43 45 2 36 5 5 33
split_gain=30.2632 34.0032 32.8088 20.1094 19.6207 18.4765 24.9137 29.5008 21.6768 13.3854 46.1554 17.8449 12.5982 16.7337 12.3786 10.7126 10.4906 10.214 9.71381 9.00369 9.87744 15.0808 6.90858 6.85532 6.70005 6.48667 4.8854 4.66496 4.57231 4.20539
threshold=1.0000000180025095e-35 1.0000000180025095e-35 6.9956346027191598 -9.9429486538014178 1.0000000180025095e-35 -16.83653097807052 13.005374477141974 1.0000000180025095e-35 1.0000000180025095e-35 1.5170125227632016 1.0000000180025095e-35 33.613892827511286 10.000000000000002 1.5000000000000002 1.0000000180025095e-35 15.877235690570902 43.500000000000007 -4.7309585982786606 6.5000000000000009 1.5000000000000002 1.0000000180025095e-35 9.1399257401059923 4.5000000000000009 -1.7315018887874178 -6.1089921501677553 20.000000000000004 29.500000000000004 52.500000000000007 67.500000000000014 16.875848889756455
decision_type=2 2 2 8 2 10 8 2 2 10 2 10 2 2 10 10 2 8 2 2 2 10 2 10 8 2 2 2 2 2
left_child=1 2 5 12 29 8 15 -8 -1 10 -5 -11 13 -4 -10 -7 19 -6 23 20 27 -22 26 -19 -25 -14 -21 -3 -24 -2
right_child=4 16 3 9 17 6 7 -9 14 11 -12 -13 25 -15 -16 -17 -18 18 -20 22 21 -23 28 24 -26 -27 -28 -29 -30 -31
leaf_value=0.011605795100430312 0.041386606692095665 0.0027919887476898744 0.017903974912698073 0.0045470545840818975 0.022785563949457677 -0.00030705004155674709 0.010732737282104863 0.0010828174533649606 -0.0068174620684928969 0.00087789067335030063 0.022636950594623298 0.013540332857295796 0.00056270153884639413 -0.0087697889101966253 -0.022399881829800065 -0.003019843775044757 0.019274708223889228 -0.010909771625492504 0.035742747786226811 -0.0087842410426634873 -0.0043407886220948695 0.0028448277614158599 0.034328907831097009 0.029046917313559878 0.0037910618017273504 0.011753138580292491 0.0086046777015522814 -0.017088464497769768 -0.00095782196077244617 0.017469168404350085
leaf_weight=138.15907241404057 47.936629682779312 30.395992547273636 62.604297280311584 2225.9738827049732 84.676036596298218 16200.993932023644 990.95451381802559 4011.1545447707176 826.97891663014889 2357.2398892194033 421.39263997972012 316.42291897535324 917.38266941905022 652.08699353039265 155.53887350857258 4713.3691576868296 46.315577492117882 73.515513196587563 23.24803452193737 1307.1835007667542 2569.6133701652288 1010.4106191694736 14.650258615612985 27.216842979192734 659.03181637823582 152.18119332194328 38.014314517378807 168.19814024865627 15.920823365449904 50.388237163424492
leaf_count=555 201 125 251 8919 342 65220 3989 16110 3435 9445 1697 1272 3686 2622 629 18998 187 295 97 5322 10395 4073 59 109 2658 610 154 687 64 216
internal_value=0 -0.000214255 0.000358131 0.00338216 0.00873906 -0.000434822 -0.000160921 0.00300629 -0.00671862 0.00492409 0.00745284 0.00239966 -0.00118836 -0.00634165 -0.00935536 -0.000920925 -0.00398091 0.00624822 0.00436929 -0.00420328 -0.00291958 -0.00229856 -0.00768803 0.00329785 0.00490628 0.00221111 -0.00824967 -0.0137964 0.0149203 0.0299324
internal_weight=40309.1 39343.1 34142.4 7105.28 966.013 27037.1 25916.5 5002.11 1120.68 5321.03 2647.37 2673.66 1784.26 714.691 982.518 20914.4 5200.7 867.688 783.012 5154.39 3778.62 3580.02 1375.77 759.764 686.249 1069.56 1345.2 198.594 30.5711 98.3249
internal_count=162422 158504 137438 28502 3918 108936 104317 20099 4619 21333 10616 10717 7169 2873 4064 84218 21066 3501 3159 20879 15280 14468 5599 3062 2767 4296 5476 812 123 417
is_linear=0
shrinkage=0.05


Tree=26
num_leaves=31
num_cat=0
split_feature=23 31 45 1 11 43 27 12 31 0 43 0 10 43 19 43 36 19 12 19 0 12 44 18 18 1 45 18 32 16
split_gain=27.3701 43.4965 25.3869 23.8835 27.3142 18.1852 14.8015 16.6073 14.5577 13.7621 13.043 12.9759 16.1052 24.8136 16.1144 11.1128 11.1106 10.7279 10.5227 10.2249 10.7419 10.0755 8.25491 8.8538 7.98156 11.7977 7.79808 7.62019 7.09449 6.71136
threshold=1.0000000180025095e-35 1.5000000000000002 23.085384730685899 1.0000000180025095e-35 9.9400408735015429 11.01415468310349 1.0000000180025095e-35 0.10685008552129774 1.0000000180025095e-35 2.5000000000000004 -22.176718381596181 1.0000000180025095e-35 20.000000000000004 4.0523201751396796 23.023177759648039 -13.900629040136241 43.500000000000007 20.275890256272309 0.4087089977358237 -8.7465771414135762 6.5000000000000009 18.23742896515056 0.18295786709492926 1.0000000180025095e-35 1.0000000180025095e-35 1.0000000180025095e-35 9.706683763818944 1.0000000180025095e-35 1.5000000000000002 84.363826323044478
decision_type=2 2 10 2 10 10 2 10 2 2 10 2 2 8 10 10 2 10 10 10 2 10 10 2 2 2 10 2 2 8
left_child=1 18 8 11 6 10 9 -8 -2 -5 -6 22 13 -13 -14 26 24 -18 -1 -17 -21 -20 23 -3 25 -4 -10 -24 -7 -23
right_child=2 3 16 4 5 28 7 -9 15 -11 -12 12 14 -15 -16 19 17 -19 21 20 -22 29 27 -25 -26 -27 -28 -29 -30 -31
leaf_value=-0.0015097518345085399 -0.0082858763386671214 -0.0049666602061837796 0.024352894199521653 -0.0020466611965162802 -0.0141447080883848 -0.017595842019846038 0.0056694252902814418 -0.0016756457670086683 -0.010476428810512015 -0.008487246816997843 0.0046719286517966059 0.010617726104415965 -0.012132934276763627 -0.002312401342944474 0.029172760463352362 0.015385613309019774 0 0.026563088440931387 -0.016658835141475273 0.0014982378707717563 0.020123175278720019 -0.0057102436096460318 0.017148237927278716 0.0012179820207256073 -0.00039754620913566238 0.0066584288531748781 0.023896050834096599 0.0031560876244057881 0.0019994958959317593 -0.015605874126049808
leaf_weight=631.80940622091293 387.87889595329762 798.24784596264362 107.3801207691431 13800.853972747922 92.780614674091339 139.15730421245098 1298.4042642712593 1871.8321377336979 260.05237543582916 888.26683254539967 3049.2187711447477 1406.2845339924097 192.90518823266029 495.52708664536476 25.386631444096565 138.40222783386707 49.602012068033218 140.15309710800648 362.82554207742214 8273.375040397048 77.647856846451759 1244.123352214694 112.34711597859859 2079.2928996235132 313.64618214964867 937.09039600193501 15.880963861942289 841.05883319675922 62.199154421687126 208.28595466911793
leaf_count=2587 1568 3233 436 55589 377 563 5225 7558 1049 3569 12257 5650 776 1997 102 556 199 568 1512 33263 311 5041 452 8377 1270 3776 64 3386 251 860
internal_value=2.23803e-07 -0.000781984 0.00216846 -0.000204597 -0.00099192 0.00314981 -0.0017702 0.00131768 0.0011602 -0.00244009 0.00409606 0.00259181 0.00573339 0.00722299 -0.00699008 0.0015848 0.00809392 0.0195326 -0.00716586 0.00191091 0.00167979 -0.00910508 0.000839125 -0.000481436 0.00644572 0.00854694 -0.00823847 0.00487352 -0.0113158 -0.00717351
internal_weight=40301.9 29600.8 10701.1 27153.8 21202.7 3343.36 17859.4 3170.24 9153.24 14689.1 3142 5951.05 2120.1 1901.81 218.292 8765.36 1547.87 189.755 2447.04 8489.43 8351.02 1815.23 3830.95 2877.54 1358.12 1044.47 275.933 953.406 201.356 1452.41
internal_count=162422 119362 43060 109362 85389 13448 71941 12783 36811 59158 12634 23973 8525 7647 878 35243 6249 767 10000 34130 33574 7413 15448 11610 5482 4212 1113 3838 814 5901
is_linear=0
shrinkage=0.05


Tree=27
num_leaves=31
num_cat=0
split_feature=40 42 33 43 19 43 23 5 23 31 1 33 19 43 43 43 3 42 45 19 19 44 19 31 11 33 45 43 43 19
split_gain=27.5557 30.4694 28.6613 23.8211 21.9255 26.572 24.4232 16.8888 15.1663 24.9787 23.7311 18.2373 17.0926 21.4791 9.573 9.17183 9.03563 8.63316 11.3351 10.6624 8.19968 6.77588 10.3979 9.49965 13.8053 6.29514 6.30982 5.90666 5.50325 5.14911
threshold=1.0000000180025095e-35 1.0000000180025095e-35 8.7053350589198804 -13.094757351759233 0.97764780262123419 -4.4994413143811629 1.0000000180025095e-35 72.500000000000014 1.0000000180025095e-35 1.5000000000000002 1.0000000180025095e-35 1.0000000180025095e-35 31.868133710758304 0.35809298931818173 -13.900629040136241 -13.478541757560601 10.000000000000002 2.5000000000000004 28.741906480816393 7.7759177596970579 18.977039336561955 -6.5839633653795344 28.625288171882541 1.5000000000000002 9.3024584374839563 17.706819970308732 27.380403213000239 -0.4921695354016708 -22.176718381596181 12.995811449940286
decision_type=2 2 2 10 10 10 2 2 2 2 2 2 8 10 10 10 2 2 10 10 8 8 10 2 8 2 10 10 10 10
left_child=1 2 8 16 5 -5 -6 27 9 11 -11 -1 14 -14 -10 -3 20 18 19 -17 -4 29 23 -23 -25 -24 -27 -2 -18 -9
right_child=7 15 3 4 6 -7 -8 21 12 10 -12 -13 13 -15 -16 17 28 -19 -20 -21 -22 22 25 24 -26 26 -28 -29 -30 -31
leaf_value=0.012760590576237366 0.010634790279467224 -0.010988217273427182 -0.012221698665139006 0.0063136375727744125 -0.006803880777796892 0.021223649075965037 0.0061212999856183406 0.026403710896705554 -0.01208333217602877 0.0028550591110738793 -0.0012407923805163911 -0.0087826323193054504 -0.0015998251492794166 0.020857110668543326 0.0014926952947688773 0.00085466720309424675 -0.0046855007523014264 -0.0094929075740489526 0.0055649613227925707 -0.0048934360135999642 0.004893027080195375 -0.012047415332379937 0.020410557291344483 0.00041995235062973067 0.045958609678436152 -0.0056666461728995358 0.01231385748201376 0.033947249341371458 0.0049459444206096589 0.0062418641310668203
leaf_weight=103.33878113329411 54.793065667152405 410.06003551185131 309.97683957219124 1004.8667515963316 499.17653149366379 435.13552415370941 1335.6353470087051 63.02522711455822 130.93885619938374 4449.4577619880438 17163.29867374897 1337.9938786476851 176.52750137448311 252.73219072818756 6230.0447072386742 1115.3848955482244 236.45617911219597 484.92608545720577 398.74191108345985 2788.0490773320198 84.950624704360962 144.78919617831707 104.86624713242054 226.13317412137985 17.186690300703049 79.175905719399452 114.75596022605896 78.691841036081314 384.85115925967693 81.263104543089867
leaf_count=415 227 1680 1250 4029 2002 1752 5355 253 528 17912 69106 5496 709 1013 25031 4507 954 1980 1608 11291 341 580 425 908 69 320 473 337 1545 326
