tree
version=v4
num_class=1
num_tree_per_iteration=1
label_index=0
max_feature_idx=45
objective=binary sigmoid:1
feature_names=Column_0 Column_1 Column_2 Column_3 Column_4 Column_5 Column_6 Column_7 Column_8 Column_9 Column_10 Column_11 Column_12 Column_13 Column_14 Column_15 Column_16 Column_17 Column_18 Column_19 Column_20 Column_21 Column_22 Column_23 Column_24 Column_25 Column_26 Column_27 Column_28 Column_29 Column_30 Column_31 Column_32 Column_33 Column_34 Column_35 Column_36 Column_37 Column_38 Column_39 Column_40 Column_41 Column_42 Column_43 Column_44 Column_45
feature_infos=[0:18] [0:25] [0:25] [0:25] [0:25] [0:100] [0:1] [0:1] [0:1] [0:1] [0:100] [0:30] [0:30] [0:15] [0:15] [0:1] [0:90] [0:1] [0:3] [-94.499318212830502:11301.315932541343] [0:1] [0:1] [0:1] [0:1] [0:1] [0:1] [0:1] [0:1] [0:1] [0:3] [0:3] [0:4] [0:4] [0:906.29514883883519] [0:1] [0:3] [0:109] [0:1] [0:14] [0.81818170409141433:1.0000000000000002] [0:1] [0:1] [0:10] [-101.06728697568118:10847.953936207316] [-109.96576723484168:9741.5298838323888] [-95.397477866349647:10405.384315257344]
tree_sizes=3484 3506 3546 3532 3554 3531 3549 3566 3534 3507 3569 3507 3552 3572 3584 3545 3492 3545 3509 3554 3522 3552 3553 3522 3543 3540 3511

Tree=0
num_leaves=31
num_cat=0
split_feature=43 19 32 1 7 44 43 43 19 12 11 18 12 1 18 32 19 0 16 22 13 37 31 43 22 25 41 43 36 0
split_gain=414.646 427.741 144.227 148.807 122.522 105.838 95.19 84.2096 148.621 63.1731 61.8811 60.1616 53.2016 48.5779 48.1039 42.2322 33.9968 29.6693 29.4419 23.5914 20.749 25.7599 20.0568 16.9148 13.9208 15.6036 13.5906 12.4374 10.0744 9.4572
threshold=-33.488175459144848 inf 1.0000000180025095e-35 22.500000000000004 1.0000000180025095e-35 3.2061204991585046 -5.0386003804221531 -7.5377283158131076 0.26945758017701671 3.0391304067522316 14.406341146308394 1.0000000180025095e-35 1.2286114506261112 1.0000000180025095e-35 2.5000000000000004 1.0000000180025095e-35 0.77519512581496497 1.5000000000000002 37.306283282322553 1.0000000180025095e-35 1.0000000180025095e-35 1.0000000180025095e-35 1.5000000000000002 -9.3976333198095059 1.0000000180025095e-35 1.0000000180025095e-35 1.0000000180025095e-35 -7.5377283158131076 2.5000000000000004 2.5000000000000004
decision_type=10 8 2 2 2 8 10 10 10 10 10 2 10 2 2 2 10 2 8 10 2 2 2 10 10 2 2 10 2 2
left_child=15 2 5 7 9 12 11 10 -9 14 -4 -7 19 -8 17 24 -14 -3 28 -2 -20 -22 -23 -5 25 -1 27 -11 -17 -6
right_child=1 4 3 23 29 6 13 8 -10 26 -12 -13 16 -15 -16 18 -18 -19 20 -21 21 22 -24 -25 -26 -27 -28 -29 -30 -31
leaf_value=-0.15822465775952377 -0.12541126906931602 -0.052920284324937422 -0.12827147553306481 -0.14885535037396516 -0.12279614715804955 -0.11212091882210148 -0.11051245282786827 -0.10669537010930193 -0.11976612625408319 -0.11334894756460555 -0.10991965920217257 -0.13458375476983059 -0.14670810788033894 -0.12125771352834755 -0.11503065161708173 -0.15289998318175452 -0.13162444448949509 -0.10249227872012789 -0.11774989182041029 -0.13674309154248213 -0.16518334620012254 -0.14711461519645155 -0.081367587742360484 -0.13185200169346176 -0.17999022938093728 -0.13948754355554546 -0.12377798063569713 -0.087238700812538122 -0.12378639630820566 -0.15040620848422942
leaf_weight=654.24054816365242 6561.0838375985622 281.91865265369415 2754.4348925352097 163.87144297361374 100.86312219500542 350.40595784783363 1292.5422325730324 3029.8783817887306 7759.7362008690834 62.510231286287308 549.6417547762394 1906.4375318586826 405.19580200314522 5746.7075176537037 45.575188547372818 289.38999503850937 5407.7576181292534 38.352890908718109 184.04406741261482 495.10095536708832 64.253544509410858 22.912116646766663 20.919758677482605 1651.4157117903233 65.996857732534409 149.92493718862534 40.345248878002167 278.93011569976807 34.119130223989487 41.83951735496521
leaf_count=2627 26345 1132 11060 658 405 1407 5190 12166 31158 251 2207 7655 1627 23075 183 1162 21714 154 739 1988 258 92 84 6631 265 602 162 1120 137 168
internal_value=-0.123786 -0.122798 -0.1236 -0.119967 -0.0885587 -0.126206 -0.122145 -0.118229 -0.11609 -0.0804552 -0.1252 -0.13107 -0.129143 -0.119276 -0.0654647 -0.149701 -0.132688 -0.0586162 -0.139484 -0.126215 -0.127752 -0.14514 -0.116604 -0.133427 -0.156846 -0.154817 -0.0950653 -0.0918285 -0.14988 -0.130672
internal_weight=40450.3 38964.5 38074.2 15909 890.335 22165.2 9296.09 14093.7 10789.6 747.632 3304.08 2256.84 12869.1 7039.25 365.847 1485.8 5812.95 320.272 615.639 7056.18 292.129 108.085 43.8319 1815.29 870.162 804.165 381.786 341.44 323.509 142.703
internal_count=162422 156456 152881 63880 3575 89001 37327 56591 43324 3002 13267 9062 51674 28265 1469 5966 23341 1286 2472 28333 1173 434 176 7289 3494 3229 1533 1371 1299 573
is_linear=0
shrinkage=1


Tree=1
num_leaves=31
num_cat=0
split_feature=43 19 33 1 7 45 45 29 1 43 20 22 15 33 33 18 16 11 33 22 33 45 0 43 33 43 0 33 39 25
split_gain=375.24 385.812 214.861 129.017 110.333 91.4794 86.8774 115.253 86.3394 97.2967 57.8276 55.1989 53.3815 47.1788 45.0767 38.3481 33.9164 28.5631 27.2923 26.8193 22.0019 19.6919 18.7669 16.9773 16.8289 16.2073 12.5653 11.0484 9.6125 9.15022
threshold=-33.488175459144848 inf 7.5517384400549341 22.500000000000004 1.0000000180025095e-35 0.68025509510223114 -16.482098161140964 1.0000000180025095e-35 1.0000000180025095e-35 -4.6532301535005418 1.0000000180025095e-35 1.0000000180025095e-35 1.0000000180025095e-35 4.9376602467789974 5.7707066850663411 1.0000000180025095e-35 40.311827786867333 8.6011150480785723 1.0000000180025095e-35 1.0000000180025095e-35 16.189248172523616 -17.012503143679524 1.5000000000000002 -3.4133750295110397 8.922127956695947 -13.478541757560601 1.0000000180025095e-35 3.2994547553392377 0.95351411772118366 1.0000000180025095e-35
decision_type=10 8 2 2 2 8 10 2 2 10 2 10 2 2 2 2 8 10 2 8 2 8 2 10 2 10 2 2 2 2
left_child=13 2 5 6 10 11 21 -8 15 -10 12 14 20 18 -2 -7 28 -13 -1 26 -3 -4 -18 -12 -25 -5 29 -14 -15 -20
right_child=1 4 3 25 -6 8 7 -9 9 -11 23 17 27 16 -16 -17 22 -19 19 -21 -22 -23 -24 24 -26 -27 -28 -29 -30 -31
leaf_value=-0.011013420354648536 -0.0043422572811533952 0.062297898433436985 -0.0054500737091980299 -0.028114508827544505 -0.0065365759692226138 0.018600789073413355 0.023502238106408661 0.0075020791819952861 -0.011323603033983167 0.001338655699375266 0.00085079675486273733 -0.009343765155743854 -0.016608993641580149 -0.037116312807897393 0.0037378569679459408 0.0053263231186819436 0.0052311128870871212 -0.02569380970668236 -0.028071520418297732 -0.048705476633541508 0 0.0049262418637503998 -0.029440843881612222 0.042989418966488363 0.015604193512219665 -0.0060548846750925322 -0.038865455289161147 0.025585392265939179 -0.017886292294808905 -0.0085662113461824375
leaf_weight=137.88520753383636 11970.384236171842 363.55146902799606 668.03634351491928 91.243623301386833 142.63263340294361 800.07651333510876 1872.6060462146997 2856.6890930235386 1800.0118474811316 9606.6749763041735 66.079030945897102 1817.2006471306086 23.691658362746239 108.88147364556789 2009.4268697202206 1753.47181160748 227.62422846257687 318.92829857766628 183.84603336453438 271.92380729317665 14.486601501703261 1428.774307101965 45.99092723429203 127.24841699004173 116.4762991219759 1080.5015370994806 184.90550492703915 37.628613725304604 218.28668412566185 103.74165999889374
leaf_count=555 48075 1456 2682 367 573 3211 7515 11468 7230 38571 265 7300 95 438 8065 7039 914 1281 740 1095 58 5736 185 510 467 4341 744 151 878 417
internal_value=0 0.000939507 0.000176329 0.00746081 0.0334297 -0.00175928 0.010095 0.0138517 0.00120068 -0.000655924 0.0411041 -0.00432633 0.0528689 -0.0246765 -0.00317708 0.0095107 -0.0136895 -0.0118191 -0.0320773 -0.0358918 0.0598964 0.00159553 -0.000500677 0.0241423 0.0302235 -0.00783781 -0.0283245 0.00847597 -0.024532 -0.0212627
internal_weight=40448.9 38965.8 38074 7997.85 891.795 30076.2 6826.11 4729.3 13960.2 11406.7 749.162 16115.9 439.358 1483.09 13979.8 2553.55 600.783 2136.13 882.302 744.417 378.038 2096.81 273.615 309.804 243.725 1171.75 472.493 61.3203 327.168 287.588
internal_count=162422 156456 152881 32109 3575 120772 27401 18983 56051 45801 3002 64721 1760 5966 56140 10250 2415 8581 3551 2996 1514 8418 1099 1242 977 4708 1901 246 1316 1157
is_linear=0
shrinkage=0.05


Tree=2
num_leaves=31
num_cat=0
split_feature=16 1 45 12 18 27 18 18 45 42 36 31 1 1 3 18 31 44 18 44 37 42 45 45 14 44 45 25 35 0
split_gain=147.452 114.1 127.656 171.677 163.238 101.131 65.8914 52.1535 50.6175 48.435 44.2407 42.9095 36.4684 35.3258 27.0837 30.5936 22.8333 17.4009 15.9473 15.8279 15.7331 12.3146 12.4116 11.5064 10.3344 9.76395 10.4923 9.21639 8.82406 7.41896
threshold=inf 22.500000000000004 12.021690090795277 0.30038180107406004 1.5000000000000002 1.0000000180025095e-35 1.5000000000000002 1.0000000180025095e-35 0.57934014504687303 1.0000000180025095e-35 31.500000000000004 2.5000000000000004 1.0000000180025095e-35 1.0000000180025095e-35 10.000000000000002 1.0000000180025095e-35 1.5000000000000002 13.888771676286376 1.0000000180025095e-35 -16.102830603151766 1.0000000180025095e-35 1.0000000180025095e-35 -27.423675145302585 33.613892827511286 1.0000000180025095e-35 8.8761762929962753 -7.7445665175889973 1.0000000180025095e-35 2.5000000000000004 2.5000000000000004
decision_type=8 2 8 10 2 2 2 2 10 2 2 2 2 2 2 2 2 10 2 10 2 2 10 10 2 10 8 2 2 2
left_child=1 2 3 5 9 11 -7 19 -9 12 -11 -1 -4 17 -2 16 27 -6 25 -5 -18 22 -20 -23 -24 26 28 -16 -3 -15
right_child=14 18 4 7 13 6 -8 8 -10 10 -12 -13 -14 29 15 -17 20 -19 21 -21 -22 23 24 -25 -26 -27 -28 -29 -30 -31
leaf_value=0.0049561232917135212 -0.031117936053256801 0.015316793463341558 0.018079991440938924 -0.0087611611053624427 0.00080696163919514129 0.00088126650997292003 0.019340996915389159 -0.012832073357350017 -0.0031230249945957203 0.0010520869889615238 0.035087655283592978 -0.0011393931532645411 0.0093363394225945678 -0.00630812567267338 -0.029945934492050377 0.011744544689861795 -0.009119061543594582 0.017276970146765037 -0.02437159095496412 -0.00099935464629306837 0.04033697024713398 -0.023887461383452796 -0.012029877951059389 0.0046609429274481829 0.0016518928990650536 -0.00077877878888996945 -0.01050199395216294 -0.0026495125419604935 -0.016673722198905432 -0.02120200360214335
leaf_weight=4587.1700114458799 368.17398943006992 74.162362575531006 1730.6644860059023 758.13668617606163 706.83984903991222 749.97199955582619 1389.9862535148859 3249.4250268638134 2315.5222387909889 1855.9289965033531 99.929808616638184 7764.9714731276035 4016.4090677648783 2266.0167025178671 236.31612479686737 98.237189650535583 56.803302675485611 209.32838407158852 123.07463455200195 5065.7435939013958 20.963941723108292 363.2707813680172 343.58993600308895 35.580563634634018 220.16275833547115 563.93263864517212 1017.1700440645218 40.501736506819725 28.12290221452713 89.398917719721794
leaf_count=18411 1485 298 6948 3046 2837 3012 5579 13059 9297 7449 401 31182 16122 9100 953 395 229 840 495 20343 84 1460 1381 143 885 2266 4087 163 113 359
internal_value=0 0.000433923 0.00117066 -0.000743868 0.00568986 0.00286384 0.0128984 -0.00533886 -0.0088025 0.00966538 0.00283364 0.00112045 0.0119808 -0.00365529 -0.0209614 -0.0125429 -0.0194265 0.00463932 -0.0093507 -0.00201968 0.00392101 -0.0141118 -0.00989192 -0.0212104 -0.00660473 -0.00624388 -0.00894918 -0.026156 0.00596077 -0.00690339
internal_weight=40445.5 39624.5 36855.4 25880.9 10974.5 14492.1 2139.96 11388.8 5564.95 7702.93 1955.86 12352.1 5747.07 3271.58 820.996 452.822 354.585 916.168 2769.07 5823.88 77.7672 1085.68 686.827 398.851 563.753 1683.39 1119.46 276.818 102.285 2355.42
internal_count=162422 159113 147985 103929 44056 58184 8591 45745 22356 30920 7850 49593 23070 13136 3309 1824 1429 3677 11128 23389 313 4364 2761 1603 2266 6764 4498 1116 411 9459
is_linear=0
shrinkage=0.05


Tree=3
num_leaves=31
num_cat=0
split_feature=32 11 1 45 19 45 27 4 45 39 29 12 13 39 1 19 15 39 19 4 31 36 12 7 39 25 12 11 19 36
split_gain=160.639 131.563 127.251 106.256 71.5005 87.5585 51.2139 53.274 46.1453 44.3281 40.9069 37.2921 42.2759 34.4461 33.637 46.7379 52.3407 24.8954 22.825 22.8211 26.2106 21.8712 19.4768 19.1085 18.623 21.3033 18.0177 15.7434 15.3101 15.1835
threshold=1.0000000180025095e-35 inf 22.500000000000004 0.68025509510223114 -1.5584398924608134 22.19405778730032 1.0000000180025095e-35 20.000000000000004 -16.482098161140964 0.97167935714864739 1.0000000180025095e-35 1.2286114506261112 1.0000000180025095e-35 0.98886706947538594 1.0000000180025095e-35 0.87878534174645928 1.0000000180025095e-35 0.94000005888591298 7.8749340980624281 10.000000000000002 3.5000000000000004 8.5000000000000018 0.30038180107406004 1.0000000180025095e-35 0.99056600626456237 1.0000000180025095e-35 5.4026653039400943 13.898412219821608 1.3513530307058985 6.5000000000000009
decision_type=2 8 2 8 10 10 2 2 8 2 2 10 2 2 2 10 2 2 10 2 2 2 10 2 2 2 10 10 10 2
left_child=1 3 4 11 6 8 13 27 -6 -7 -9 19 28 21 15 -5 -17 -16 -14 20 -1 -2 -10 -21 25 -3 -19 -8 -13 -15
right_child=2 24 -4 14 5 9 7 10 22 -11 -12 12 18 29 17 16 -18 26 -20 23 -22 -23 -24 -25 -26 -27 -28 -29 -30 -31
leaf_value=-0.0039888881390990104 0.0094858377832607015 -0.034855415416195135 -0.0086376804836304482 -0.0036814419664040338 -0.015046957758044217 0.00030601642163917842 0.0047812773652966805 0.049733380318997884 0.0048093676961940947 0.019041032973562154 0.0036644434461049341 -0.020729891333943571 0.0019847233571282656 -0.0018857613831523884 -0.011263371153713793 0.024270196325275981 0.0053152876051106414 0.0036101348135701458 -0.0077227804277680296 -0.00031842545644740722 -0.017385370696609021 0.04750149450286572 -0.0004748338417790059 0.022986042311557667 -0.00714821021173008 -0.0036535844399154423 -0.001301181588845908 0.025307116889551298 -0.010995586612924971 0.031649753696852224
leaf_weight=3510.0888409018517 3909.4804478287697 404.05602812767029 1862.7152502834797 754.51469528675079 450.97461418807507 454.40301768481731 313.21625366806984 214.66241608560085 2694.928069844842 1076.280805721879 65.358332678675652 520.94700901210308 998.12458790838718 929.4681239426136 462.27748297154903 530.50757944583893 1191.6036247014999 3119.0173205137253 1511.0442165881395 2916.7569321095943 410.45045012235641 37.969253584742546 4897.2325123995543 89.62137308716774 112.33203125 67.756180509924889 4633.3811011761427 137.97938941419125 2131.8327378630638 33.961101651191711
leaf_count=14100 15686 1636 7492 3031 1811 1823 1256 860 10815 4317 262 2097 4013 3730 1857 2127 4780 12526 6076 11717 1649 152 19654 360 454 273 18605 553 8574 136
internal_value=0 -0.00269533 0.0036844 -0.00209153 0.00519661 0.00255785 0.0096641 0.0220404 0.000464813 0.0135158 0.0392099 -0.00530365 -0.00852533 0.00780702 0.00153595 0.00664242 0.0111942 0 -0.00384205 -0.00289475 -0.00540822 0.0098761 0.00139466 0.000367077 -0.0261127 -0.0304975 0.000668547 0.0112109 -0.0129331 -0.000620191
internal_weight=40442.9 23364.3 17078.6 22780.2 15215.9 9573.82 5642.1 731.216 8043.14 1530.68 280.021 12088.9 5161.95 4910.88 10691.3 2476.63 1722.11 8214.68 2509.17 6926.92 3920.54 3947.45 7592.16 3006.38 584.144 471.812 7752.4 451.196 2652.78 963.429
internal_count=162422 93875 68547 91512 61055 38420 22635 2931 32280 6140 1122 48586 20760 19704 42926 9938 6907 32988 10089 27826 15749 15838 30469 12077 2363 1909 31131 1809 10671 3866
is_linear=0
shrinkage=0.05


Tree=4
num_leaves=31
num_cat=0
split_feature=43 33 45 15 43 1 0 1 44 29 43 44 29 28 45 33 16 4 33 39 33 23 0 0 43 7 25 42 0 39
split_gain=318.751 203.626 121.082 268.985 118.523 111.597 86.7074 81.2787 61.225 65.9268 103.779 81.0573 53.6297 41.13 60.108 34.6185 33.2095 31.7096 27.4848 24.505 19.9018 15.7929 15.6457 15.5951 14.4455 13.3496 12.0407 12.8205 15.2057 9.47003
threshold=-33.488175459144848 6.9956346027191598 12.021690090795277 1.0000000180025095e-35 -6.6624667671092146 22.500000000000004 1.5000000000000002 1.0000000180025095e-35 -36.63272815764109 1.0000000180025095e-35 -6.5659094741837283 36.449563256268753 2.5000000000000004 1.0000000180025095e-35 -0.098315353032146766 4.9376602467789974 37.306283282322553 10.000000000000002 1.0000000180025095e-35 0.97627462158166323 3.8132876188306244 1.0000000180025095e-35 1.5000000000000002 2.5000000000000004 -14.335943732374577 1.0000000180025095e-35 1.0000000180025095e-35 1.0000000180025095e-35 1.5000000000000002 0.92954980044594882
decision_type=10 2 8 2 10 2 2 2 8 2 10 8 2 2 10 2 8 2 2 2 2 2 2 2 10 2 2 2 2 2
left_child=15 2 13 6 21 8 7 -4 -3 10 -10 -11 -6 14 17 18 -17 -2 -1 29 -16 -5 -18 -8 -7 -21 -20 28 -28 -15
right_child=1 5 3 4 12 24 23 -9 9 11 -12 -13 -14 19 20 16 22 -19 26 25 -22 -23 -24 -25 -26 -27 27 -29 -30 -31
leaf_value=-0.0080517315502119258 -0.0056877609900952237 -0.0078843456463593108 0.041750622623388869 -0.018096899100441446 -0.0021168511490525068 -0.02648013575781143 0.011271075595211635 0.011855254441900505 0.0079559388475503694 -0.00099812441743987734 0.025712754267416434 0.0125352908164621 0.0092437656590373344 -0.019641433408819065 0.0017718885256510263 -0.02437649755005307 0.0044426983696329277 -0.00034389412083000287 -0.036888117174108094 -0.004125033689077795 0.0100223837841173 -0.0033311880651288408 -0.027033684398464899 -0.010982269896962575 -0.0051211508397505413 0.010079416267458355 -0.0078649495899537156 -0.050603466082866172 -0.052735813970049894 -0.0086285820960617897
leaf_weight=137.08832573890686 6341.5723433196545 483.62935031950474 682.45392848551273 861.64088553190231 2084.5176311582327 85.651052132248878 183.83477199077606 350.26448714733124 1913.7608238756657 2025.6759094446898 1459.6730992794037 2419.9054060280323 2058.4075200855732 218.47451131045818 3180.4723065793514 318.93491832911968 235.0811931937933 4974.0472550690174 551.19002251327038 4124.2927888184786 957.43069556355476 240.92376041412354 46.302027344703674 135.09076209366322 1175.2139290720224 169.47417008876801 135.02948515117168 31.493583455681801 22.049398824572563 2835.6646556854248
leaf_count=555 25483 1942 2733 3463 8367 346 737 1406 7674 8127 5848 9703 8259 879 12770 1284 944 19982 2236 16575 3843 968 187 542 4729 681 544 127 89 11399
internal_value=0 0.000863387 -0.00119683 0.00476538 -0.000351677 0.00720125 0.0246463 0.0316807 0.00930851 0.0103792 0.0156594 0.00635857 0.00351646 -0.0029242 -0.00145543 -0.0227914 -0.013352 -0.00334339 -0.0291744 -0.00600578 0.00369493 -0.0149217 -0.000637115 0.00168383 -0.00663153 -0.00355053 -0.0330051 -0.0212567 -0.0147736 -0.00943891
internal_weight=40439.2 38962.1 29398.6 6597.13 5245.49 9563.51 1351.64 1032.72 8302.64 7819.02 3373.43 4445.58 4142.93 22801.4 15453.5 1477.17 600.318 11315.6 876.851 7347.91 4137.9 1102.56 281.383 318.926 1260.86 4293.77 739.762 188.572 157.079 3054.14
internal_count=162422 156456 118087 26475 21057 38369 5418 4139 33294 31352 13522 17830 16626 91612 62078 5966 2415 45465 3551 29534 16613 4431 1131 1279 5075 17256 2996 760 633 12278
is_linear=0
shrinkage=0.05


Tree=5
num_leaves=31
num_cat=0
split_feature=11 44 19 42 45 12 0 1 23 24 42 31 19 37 36 36 42 3 27 37 35 31 24 5 42 41 11 25 19 19
split_gain=110.665 93.1808 107.808 66.202 82.6464 63.2099 59.9089 52.1073 46.719 31.9759 31.42 33.3382 25.8558 25.7855 25.6955 25.6428 25.3659 22.3077 19.0537 18.2814 15.7268 26.4654 12.4746 11.8475 11.6586 10.8564 10.4127 8.40253 7.61301 6.89297
threshold=inf 36.449563256268753 -4.3177241795959125 1.0000000180025095e-35 0.68025509510223114 1.2286114506261112 1.5000000000000002 1.0000000180025095e-35 1.0000000180025095e-35 1.0000000180025095e-35 1.0000000180025095e-35 2.5000000000000004 17.880490767851843 1.0000000180025095e-35 3.5000000000000004 31.500000000000004 1.5000000000000002 10.000000000000002 1.0000000180025095e-35 1.0000000180025095e-35 1.5000000000000002 1.5000000000000002 1.0000000180025095e-35 22.500000000000004 1.5000000000000002 1.0000000180025095e-35 18.060479569476588 1.0000000180025095e-35 36.036681464186536 53.898970211731317
decision_type=8 10 10 2 8 10 2 2 2 2 2 2 10 2 2 2 2 2 2 2 2 2 2 2 2 2 10 2 10 10
left_child=1 2 6 4 5 -4 10 -6 22 19 11 -1 -10 -11 18 16 -14 -2 -8 -5 21 27 24 -12 26 -23 -3 -19 -26 -24
right_child=17 8 3 9 7 -7 14 -9 12 13 23 -13 15 -15 -16 -17 -18 20 -20 -21 -22 25 29 -25 28 -27 -28 -29 -30 -31
leaf_value=0.012596492793942198 -0.027492894853376821 0.0054878037704859514 -0.0004780796932679776 -0.0038680038145754493 0.0099791743199206008 -0.0072812734317575026 -0.013326060895794951 0.0011533591164393532 0.0036335546779481896 -0.014339435979032998 0.012189433239601833 0.0031565411132541406 0.018809541485004921 -0.0016016141342829729 0.022546821703895759 0.030699272817172114 0.00069612894354371751 -0.029965279036284778 0.013466006157161113 0.017191581270562171 0.0021325097817527982 -0.0032971774223168899 -0.010185027584820441 -0.0081630068823670375 0 0.038073942792108843 0.042086416986131164 -0.003158716388630706 -0.038518735792133212 0.015363144826980072
leaf_weight=2919.4552642256021 364.82499718666077 439.20043502748013 9433.3868671953678 2309.7283521294594 2006.2353065609932 5365.7941665053368 579.95112961530685 10147.950137659907 437.11254625022411 1670.2490535974503 86.137256070971489 1400.4609019011259 710.61801567673683 533.59280407428741 63.910960420966148 303.7376309633255 273.45887306332588 188.11050774157047 72.281876996159554 106.15944936871529 153.58430190384388 47.458941921591759 293.66661144793034 368.95661011338234 26.169587060809135 21.474934279918671 19.964963778853416 39.943157225847244 22.690976083278656 26.656052559614182
leaf_count=11712 1485 1762 37890 9276 8043 21596 2330 40747 1753 6714 346 5619 2849 2145 256 1217 1097 765 290 426 620 192 1179 1483 105 86 80 161 91 107
internal_value=-8.79139e-07 0.000373374 -0.000261867 -0.00138779 -0.000437834 -0.00294844 0.00620194 0.00261501 0.00961083 -0.00691809 0.00822935 0.00954919 0.0142957 -0.0112802 -0.00723905 0.0178703 0.0138327 -0.0182241 -0.0102643 -0.00291518 -0.0105642 -0.0172831 -9.00534e-05 -0.00418292 0.00471807 0.00923632 0.00727581 -0.0255227 -0.0179793 -0.0078622
internal_weight=40432.9 39617.5 37064.3 31573.1 26953.4 14799.2 5491.15 12154.2 2553.28 4619.73 4775.01 4319.92 1724.93 2203.84 716.144 1287.81 984.077 815.397 652.233 2415.89 450.572 296.988 828.349 455.094 508.026 68.9339 459.165 228.054 48.8606 320.323
internal_count=162422 159113 148873 126837 108276 59486 22036 48790 10240 18561 19160 17331 6916 8859 2876 5163 3946 3309 2620 9702 1824 1204 3324 1829 2038 278 1842 926 196 1286
is_linear=0
shrinkage=0.05


Tree=6
num_leaves=31
num_cat=0
split_feature=32 1 11 44 19 44 0 44 12 39 42 19 11 42 19 39 31 39 36 44 19 35 7 39 25 44 7 36 39 44
split_gain=123.306 102.291 97.5879 65.4394 58.8503 89.0383 45.4203 36.5136 33.7291 33.2563 31.053 33.237 29.6319 29.0557 27.551 24.0219 26.4303 22.5728 22.2364 23.9803 21.3939 18.1904 16.7416 15.9732 17.9384 13.417 13.3021 13.0065 11.7605 9.89757
threshold=1.0000000180025095e-35 22.500000000000004 inf 3.2061204991585046 -1.5584398924608134 36.449563256268753 1.5000000000000002 -48.59470188778603 1.2286114506261112 0.96965097739796757 1.0000000180025095e-35 3.4883706589614301 2.6419991746868807 1.5000000000000002 0.77519512581496497 0.98914772033724219 2.5000000000000004 0.9703430227417511 3.5000000000000004 -7.6942112269969423 22.196018842826337 2.5000000000000004 1.0000000180025095e-35 0.99056600626456237 1.0000000180025095e-35 -10.561857174474047 1.0000000180025095e-35 12.500000000000002 0.95724654930289554 1.4731647517232218
decision_type=2 2 8 8 10 10 2 8 10 2 2 8 10 2 10 2 2 2 2 8 10 2 2 2 2 10 2 2 2 10
left_child=2 4 3 8 6 7 15 -6 17 -7 11 21 -13 -9 29 16 -2 25 19 -8 -11 -5 -16 24 -4 -1 -19 -17 -3 -10
right_child=1 28 23 10 5 9 18 13 14 20 -12 12 -14 -15 22 27 -18 26 -20 -21 -22 -23 -24 -25 -26 -27 -28 -29 -30 -31
leaf_value=-0.00088980350004570861 0.014570955940848798 -0.013405083063463996 -0.030751907769951667 0.00054514605505935642 -0.020978623707483976 0.00081910148165922642 0.0049514442487457195 0.0015163622629287329 -0.021698499527490846 0.0061286537379973182 -0.0059077127719505528 0.0055581302377693959 -0.0031793770924751171 -0.0097650061270603897 -0.0064773973040904397 0.0010182140153924513 0.0064368689556883367 -0.0033135100715874014 0.023073664098656344 -0.018392571373176719 0.021876979026115184 -0.0091955974946317433 0.013171649727040192 -0.0050390931606528163 -0.0020451732556578555 0.011083486269479321 0.013123170750133098 0.047060377903003638 -0.0049014501170879599 0.0096942583691386475
leaf_weight=434.32794481515884 2703.9371683895588 633.27015610039234 399.23405422270298 1173.1671921908855 199.67124193906784 405.88010574877262 175.77062405645847 7225.0665872693062 378.99026952683926 307.00397512316704 1325.9472976624966 5450.7758987694979 1171.9937328249216 618.12693068385124 5285.6103335171938 781.13343161344528 1631.5492708086967 6004.503299638629 58.453135013580322 279.67213487625122 820.41416537761688 799.06646598875523 108.13543371856213 111.74604742228985 67.532092049717903 488.42395788431168 123.55456833541393 14.743625551462172 1226.9471984505653 24.050802379846573
leaf_count=1745 10837 2553 1636 4711 803 1627 705 28994 1530 1230 5328 21884 4705 2481 21279 3133 6542 24130 234 1125 3285 3210 435 454 273 1962 496 59 4939 97
internal_value=-5.05838e-07 0.00322641 -0.00236363 -0.00184544 0.00458119 0.00218674 0.00863299 7.48086e-05 -0.0042017 0.0132249 0.00120098 0.00230401 0.00400411 0.000619765 -0.00702998 0.0100557 0.0115236 -0.00186868 -0.00546753 -0.00928268 0.0176421 -0.00337872 -0.00607183 -0.0226333 -0.0267187 0.00539882 -0.00297187 0.00199188 -0.00782884 -0.0196821
internal_weight=40428.7 17081.6 23347.1 22768.5 15221.4 9576.16 5645.26 8042.86 12847.6 1533.3 9920.95 8595 6622.77 7843.19 5796.79 5131.36 4335.49 7050.81 513.896 455.443 1127.42 1972.23 5393.75 578.512 466.766 922.752 6128.06 795.877 1860.22 403.041
internal_count=162422 68547 93875 91512 61055 38420 22635 32278 51674 6142 39838 34510 26589 31475 23341 20571 17379 28333 2064 1830 4515 7921 21714 2363 1909 3707 24626 3192 7492 1627
is_linear=0
shrinkage=0.05


Tree=7
num_leaves=31
num_cat=0
split_feature=33 16 1 18 45 45 12 44 12 45 45 44 33 1 1 39 42 33 39 18 12 0 33 35 45 33 33 39 44 44
split_gain=173.041 100.414 86.208 74.6994 73.4129 70.2795 65.411 62.8939 57.0867 78.8952 52.7339 44.8142 45.1679 43.8053 39.0907 32.8951 32.3576 32.0112 29.0768 26.8091 24.4618 24.428 17.7554 15.9936 19.9162 14.3498 13.3318 11.9341 15.9935 11.8089
threshold=7.5517384400549341 89.998687399874683 22.500000000000004 1.0000000180025095e-35 13.343205153487281 -17.012503143679524 0.30038180107406004 36.449563256268753 0.30038180107406004 -4.6451709002503465 0.57934014504687303 -1.7464935183480905 8.922127956695947 1.0000000180025095e-35 1.0000000180025095e-35 0.9898785232635926 1.0000000180025095e-35 5.9269277049758715 0.97342296108050952 2.5000000000000004 14.832308498503439 1.5000000000000002 2.5571007950355722 2.5000000000000004 -27.423675145302585 0.68458551069078288 14.167672348300355 0.9898785232635926 2.4268070045563355 7.814118153082263
decision_type=2 8 2 2 8 8 10 10 10 10 8 8 2 2 2 2 2 2 2 2 10 2 2 2 10 2 2 2 10 10
left_child=1 3 5 4 20 23 11 18 9 17 -10 12 -7 -12 -13 -11 21 -5 -8 -9 22 -6 -1 24 -2 -18 -25 28 -4 -22
right_child=2 -3 27 8 16 6 7 19 10 15 13 14 -14 -15 -16 -17 25 -19 -20 -21 29 -23 -24 26 -26 -27 -28 -29 -30 -31
leaf_value=0.0003590793715593981 -0.013334905960884045 -0.019776109530532139 -0.016428673951967641 -0.006504716591327878 0.013302228798491036 0.011234678142980618 -0.0072870729201290471 0.017433135287214265 -0.011155124016758257 0.0065099327337086767 0.0054614733928867246 0.019493639393019173 0.028878157059114465 -0.0056344525444854826 0.0033201079142855072 -0.0025324943334191011 -0.038979443863325448 0.0016058856028739164 0.0044001626782158706 -0.010885181627660556 -0.0052457936015742881 0.0025225819063951754 0.0081734386989473079 -0.024272070609089966 0.0064371963671178735 -0.0020554073336407261 0.0045426772657561751 0.00065440883046730136 -0.0021057071697092493 0.00084690534368463642
leaf_weight=3471.726470425725 212.16751828789711 751.03004652261734 417.98285688459873 4854.3805579394102 1990.6711569428444 649.00311596691608 759.71540476381779 1026.247174590826 3346.7398145645857 3515.4977760016918 1161.8345194607973 595.81727795302868 863.64827038347721 3740.543729364872 1026.0914376974106 1398.640579521656 27.821973457932472 1610.7412512153387 1763.5370021611452 88.082225605845451 2697.5046291649342 731.33726418018341 923.72901596128941 170.12442082166672 313.06846764683723 359.22512070834637 48.484437182545662 417.39286528527737 381.83349877595901 1108.6112783551216
leaf_count=13955 852 3066 1687 19504 7983 2598 3049 4108 13494 14112 4660 2389 3457 15031 4112 5617 112 6461 7075 353 10851 2935 3712 684 1256 1443 195 1681 1539 4451
internal_value=-4.42245e-07 -0.00171904 0.00622957 -0.00127847 0.00195518 0.00823148 0.00983673 0.00525186 -0.00314438 -0.000843304 -0.00631206 0.015138 0.0213537 -0.00299401 0.00930071 0.00392615 0.00849733 -0.00447635 0.000860002 0.0151421 -0.000519454 0.0104264 0.00201417 -0.0063095 -0.00146483 -0.00493207 -0.0176621 -0.00608735 -0.00966447 -0.00345828
internal_weight=40423.2 31690 8733.2 30939 11310.6 7515.99 6772.14 3637.58 19628.4 11379.3 8249.12 3134.56 1512.65 4902.38 1621.91 4914.14 3109.06 6465.12 2523.25 1114.33 8201.57 2722.01 4395.46 743.845 525.236 387.047 218.609 1217.21 799.816 3806.12
internal_count=162422 127387 35035 124321 45442 30128 27141 14585 78879 45694 33185 12556 6055 19691 6501 19729 12473 25965 10124 4461 32969 10918 17667 2987 2108 1555 879 4907 3226 15302
is_linear=0
shrinkage=0.05


Tree=8
num_leaves=31
num_cat=0
split_feature=43 19 33 7 24 18 44 43 12 44 27 11 42 0 16 43 16 43 33 42 43 44 33 36 22 0 44 22 33 42
split_gain=264.801 293.037 129.683 94.8882 79.017 66.9941 94.9451 83.2793 72.5153 61.0352 52.5759 47.0624 39.8503 35.7347 34.8309 34.1075 33.5025 31.7991 31.0846 30.2024 33.7538 30.9258 19.3094 17.7115 14.4755 13.9114 13.1896 11.6402 15.4802 9.58889
threshold=-33.488175459144848 inf 8.4979422283747628 1.0000000180025095e-35 1.0000000180025095e-35 1.0000000180025095e-35 28.419891061941851 -4.4994413143811629 0.20408278262944851 -32.709073250182918 1.0000000180025095e-35 9.4825977129418071 1.0000000180025095e-35 1.5000000000000002 9.0018944726572183 -12.755949835812117 1.0000000180025095e-35 -0.070083211040172774 4.8530570509403637 1.0000000180025095e-35 -12.10341602296797 59.452012760408088 1.0000000180025095e-35 3.5000000000000004 1.0000000180025095e-35 1.5000000000000002 -52.747647589096658 1.0000000180025095e-35 11.062730605756569 2.5000000000000004
decision_type=10 8 2 2 2 2 8 10 10 10 2 10 2 2 8 10 8 10 2 2 10 10 2 2 8 2 8 10 2 2
left_child=14 2 5 10 9 6 17 11 -9 26 12 -7 13 -3 23 -11 -8 -2 22 20 -6 -21 -16 27 -24 -20 -4 -1 -29 -14
right_child=1 3 4 -5 19 7 16 8 -10 15 -12 -13 29 -15 18 -17 -18 -19 25 21 -22 -23 24 -25 -26 -27 -28 28 -30 -31
leaf_value=-0.028973955852517691 0.0033856907148515783 0.05540421120108581 -0.012097118218876131 -0.0079346437770730534 -0.009821375006153172 -0.0085685497151038771 0.021427387825421518 0.0030026435283197887 -0.0045037648267419027 0.00026891988721835098 0.00045131024160078166 0.0030488391168913419 0.026112986385993117 0.019453278358137444 -0.0045410075852292016 0.019463830369560398 0.0074127821510012381 -0.0028303709732699729 0.0025152935070952309 -0.0075025759223716661 0.0084004273175719395 0.014696262832098475 -0.017887467164772082 0.0037787419923485492 -0.036884266277531906 -0.025347156891271795 0.0044906827133885403 -0.058289515387466989 0 -0.0014458489009517533
leaf_weight=443.75603270530701 3299.7913666069508 389.09391717612743 135.64964936673641 142.76473543047905 303.03922332823277 6600.1647608429193 564.61772166192532 7006.9104873985052 5944.6871242970228 270.29455430805683 92.901282235980034 996.97253577411175 139.86769925057888 91.410513207316399 135.81235566735268 1864.053495451808 1836.3889349102974 5452.1436181664467 269.15360344946384 1188.5463906079531 1493.1118378341198 178.55430926382542 242.4631854146719 32.537415698170662 198.26618303358555 52.342020511627197 921.06176348030567 79.203473210334778 14.609167560935019 36.211280986666679
leaf_count=1789 13270 1559 546 573 1218 26542 2261 28128 23917 1083 372 4001 560 366 555 7464 7361 21910 1082 4782 5989 716 995 131 821 213 3693 321 59 145
internal_value=-3.27263e-07 0.000784436 0.000118672 0.0290925 0.00663868 -0.00118679 0.00193034 -0.00288108 -0.000438964 0.0121901 0.0362134 -0.00703722 0.041189 0.0487234 -0.0208396 0.0170577 0.0107368 -0.000480863 -0.0145695 0.00102053 0.00529454 -0.00455806 -0.0215153 -0.030586 -0.0266107 -0.00193042 0.00230462 -0.032762 -0.0496584 0.0201869
internal_weight=40416.4 38948.2 38056 892.249 6354.31 31701.7 11152.9 20548.7 12951.6 3191.06 749.485 7597.14 656.583 480.504 1468.14 2134.35 2401.01 8751.93 898.037 3163.25 1796.15 1367.1 576.542 570.106 440.729 321.496 1056.71 537.569 93.8126 176.079
internal_count=162422 156456 152881 3575 25491 127390 44802 82588 52045 12786 3002 30543 2630 1925 5966 8547 9622 35180 3666 12705 7207 5498 2371 2300 1816 1295 4239 2169 380 705
is_linear=0
shrinkage=0.05


Tree=9
num_leaves=31
num_cat=0
split_feature=43 19 33 10 1 43 44 43 19 12 12 1 16 44 5 19 33 33 33 5 16 5 33 22 0 5 0 45 43 27
split_gain=239.967 264.928 117.172 83.9885 66.7849 58.0678 72.64 55.3459 140.334 54.7558 49.6448 42.1201 31.5332 29.5878 42.1369 35.8566 28.9409 28.2775 24.5708 23.2299 22.6345 18.4601 17.5816 13.2665 12.6242 12.0442 10.4044 10.271 10.2171 15.0812
threshold=-33.488175459144848 inf 7.6339732587433717 1.0000000180025095e-35 22.500000000000004 -5.6347258191798071 1.4731647517232218 -9.2322759933034604 2.3928846710420184 1.3277013036967433 3.3374346815371521 22.500000000000004 9.0018944726572183 -7.0527571687256136 52.500000000000007 1.8000033995131721 14.167672348300355 4.8530570509403637 3.1672939198712116 27.500000000000004 29.242786096408537 47.500000000000007 1.0000000180025095e-35 1.0000000180025095e-35 1.5000000000000002 27.500000000000004 2.5000000000000004 -8.5431351528236767 -7.5377283158131076 1.0000000180025095e-35
decision_type=10 8 2 2 2 10 8 10 10 10 10 2 8 8 2 10 2 2 2 2 10 2 2 8 2 2 2 10 10 2
left_child=12 2 5 10 7 13 9 20 -9 -7 16 -8 19 14 -2 -15 18 22 -3 -1 -4 27 -14 -24 25 -19 -5 -6 -12 -30
right_child=1 3 4 26 21 6 11 8 -10 -11 28 -13 17 15 -16 -17 -18 24 -20 -21 -22 -23 23 -25 -26 -27 -28 -29 29 -31
leaf_value=-0.014179973043459058 -0.0063519412283036527 0.021758554583313366 -0.0034991168304615988 0.0055050228051960297 -0.048758985478181305 0.00017666449233564986 0.003568629616922816 0.022060390362269363 0.0043140409078690723 -0.006388783346767732 0.0010293186778372906 -0.0099517119387661727 -0.0043185217890091823 -0.014332577949076612 0.0072965163449746993 -0.0044728737221836103 0.0041156685295499615 -0.015470266151573856 0.059863140094057722 -0.036325773857385571 0.012937920201632525 -0.003903714785576533 -0.017046426872227832 -0.035304560734723614 -0.024185088280093671 0.0086719376789838858 -0.020317414967482444 -0.0062465756606290669 0.031775759259683935 0.0034582302171177305
leaf_weight=187.12215769290924 1481.1315864026546 57.30900277197361 1292.431692302227 138.98813286423683 36.505717203021049 7173.519180983305 10382.234780982137 1636.3611275553703 3518.4617163389921 5677.013822004199 55.666699394583702 607.19739323854446 135.72269341349602 1491.6362249851227 911.80313466489315 2474.8323790431023 35.425905480980873 67.598717749118805 268.0952138453722 381.2188333272934 248.47794532775879 1092.3940520882607 241.77191150188446 196.861646682024 52.16672295331955 201.59640395641327 52.646292701363564 28.24296960234642 217.6995225995779 65.463696509599686
leaf_count=756 5960 230 5182 557 148 28813 41664 6551 14102 22879 223 2443 555 6000 3666 9958 142 272 1077 1544 995 4406 995 821 213 810 212 114 872 262
internal_value=-3.20149e-07 0.000745765 0.00011294 0.0276767 0.00555472 -0.00130059 -0.000165967 0.00747466 0.00996037 -0.00272015 0.0357021 0.00281621 -0.019867 -0.00554549 -0.00112958 -0.00819601 0.0487177 -0.0138889 0.0533927 -0.02916 -0.000809479 -0.00550857 -0.0205338 -0.0254162 -0.0018308 0.00238962 -0.00139807 -0.0313529 0.0215917 0.0254403
internal_weight=40407.6 38943.5 38052.2 891.294 7852.88 30199.4 23840 6695.73 5154.82 12850.5 699.66 10989.4 1464.06 6359.4 2392.93 3966.47 360.83 895.718 325.404 568.341 1540.91 1157.14 574.356 438.634 321.362 269.195 191.634 64.7487 338.83 283.163
internal_count=162422 156456 152881 3575 31498 121383 95799 26830 20653 51692 2806 44107 5966 25584 9626 15958 1449 3666 1307 2300 6177 4668 2371 1816 1295 1082 769 262 1357 1134
is_linear=0
shrinkage=0.05


Tree=10
num_leaves=31
num_cat=0
split_feature=33 24 11 18 45 45 45 12 12 33 42 40 45 44 4 42 5 5 7 5 30 4 44 12 45 33 39 45 11 5
split_gain=130.782 86.363 76.989 63.0406 59.9088 50.6481 47.5636 42.1651 40.0604 32.1676 36.0474 35.8998 32.1373 26.8727 32.4821 26.5265 25.3409 24.8712 23.9628 22.1132 27.7219 32.6922 23.3674 21.5454 20.4345 17.5619 16.5193 16.5126 15.997 15.8925
threshold=6.9956346027191598 1.0000000180025095e-35 29.998687399874672 1.0000000180025095e-35 12.021690090795277 -16.482098161140964 0.68025509510223114 25.830826269387579 0.30038180107406004 10.352562858552828 1.5000000000000002 1.0000000180025095e-35 -4.6451709002503465 -2.2561932086433139 10.000000000000002 1.0000000180025095e-35 22.500000000000004 27.500000000000004 1.0000000180025095e-35 57.500000000000007 1.0000000180025095e-35 20.000000000000004 36.449563256268753 14.832308498503439 -11.300691912085536 26.007282708932213 0.9691825562215195 -7.8545771733485514 11.908381107829126 32.500000000000007
decision_type=2 2 8 2 8 8 10 10 10 2 2 2 10 8 2 2 2 2 2 2 2 2 10 10 10 2 2 10 10 2
left_child=2 5 3 4 18 28 8 -8 12 13 25 -12 -5 14 -7 17 -15 -6 23 -3 21 -21 -22 -1 -10 -11 -9 -20 -2 -4
right_child=1 19 29 6 15 9 7 26 24 10 11 -13 -14 16 -16 -17 -18 -19 27 20 22 -23 -24 -25 -26 -27 -28 -29 -30 -31
leaf_value=0.0012131566655801866 -0.0094881283411015691 -0.0051214355337315179 -0.025598671278247567 -0.0045959731859837134 0.021182737755650782 0.0062421945719338375 0.0029946211358087907 -0.017734072974751533 -0.0042034706721189091 0.019993674163799321 -0.0087273475113307068 0.02304216640721023 0.0018159860096591944 0.018195646365299297 0.023936569995956614 -0.0047971136377756782 0.0019967619880543286 0.0074465437414718786 0.028081461456147528 -0.0015031434739862899 -0.0034292283339994243 0.020563499279548703 0.0090755665845178128 -0.0042208593343073799 -0.010821323595193368 -0.022401881609371316 -0.0019809261935599207 0.0051835521041139311 0.0091170564733632341 -0.010717874523462144
leaf_weight=4082.3630847483873 446.89252890646458 1559.3823342472315 333.20284554362297 5930.6445519626141 391.45609503984451 609.3653988391161 4346.0453626960516 359.35138815641403 2004.2153477072716 1489.6617711931467 256.12946070730686 134.43951261043549 2900.2329047471285 279.62555788457394 465.58458077907562 364.80943709611893 1816.3189053833485 2288.6379896849394 104.55670681595802 287.67791552841663 1607.6660224795341 388.58717355132103 485.04006227850914 3282.7541537284851 2905.1155363768339 22.938450515270233 324.41222451627254 346.56122685968876 152.35317878425121 431.66091193258762
leaf_count=16409 1797 6265 1381 23839 1572 2440 17450 1446 8067 5969 1027 539 11648 1122 1864 1468 7283 9183 420 1155 6463 1560 1944 13207 11738 92 1303 1393 611 1767
internal_value=-6.27256e-07 0.00495735 -0.00163378 -0.00122737 0.00180145 0.00901539 -0.00298265 0.00116932 -0.00450615 0.0106418 0.0158044 0.00211141 -0.00248453 0.00752338 0.0139676 0.00775085 0.00418939 0.00947866 -0.000510502 -0.000350962 0.00231842 0.0111143 -0.000504079 -0.00120233 -0.0081312 0.0193033 -0.0103468 0.0106516 -0.00466731 -0.0172907
internal_weight=40397.7 10001.7 30396 29631.2 10861.1 5673.31 18770 5029.81 13740.2 5074.06 1903.17 390.569 8830.88 3170.89 1074.95 3044.9 2095.94 2680.09 7816.24 4328.35 2768.97 676.265 2092.71 7365.12 4909.33 1512.6 683.764 451.118 599.246 764.864
internal_count=162422 40131 122291 119143 43652 22744 75491 20199 55292 20336 7627 1566 35487 12709 4304 12223 8405 10755 31429 17387 11122 2715 8407 29616 19805 6061 2749 1813 2408 3148
is_linear=0
shrinkage=0.05


Tree=11
num_leaves=31
num_cat=0
split_feature=22 1 45 12 39 45 45 39 39 39 42 4 31 45 36 7 39 4 5 36 12 45 16 45 17 4 45 39 36 45
split_gain=65.793 66.532 59.0952 63.4106 91.0438 53.8066 50.6207 43.199 36.6381 31.4196 27.862 26.8289 19.9962 19.9267 17.5825 15.5974 15.3747 19.1451 12.1153 10.7778 10.1687 9.84397 7.59443 7.57704 9.9422 8.20425 9.83509 6.75362 6.31453 6.30031
threshold=inf 22.500000000000004 13.343205153487281 0.30038180107406004 0.96940300938918056 -16.482098161140964 8.5093700279861242 0.97167935714864739 0.96380953857958207 0.99100986079216236 1.5000000000000002 1.0000000180025095e-35 1.5000000000000002 33.613892827511286 28.500000000000004 1.0000000180025095e-35 0.95724654930289554 20.000000000000004 62.500000000000007 27.500000000000004 7.052785242698719 26.176764991935951 43.573173391187986 -7.8545771733485514 1.0000000180025095e-35 1.0000000180025095e-35 15.695921698354681 0.91166160979008837 10.500000000000002 -9.9945845705076248
decision_type=8 2 10 8 2 10 8 2 2 2 2 2 2 10 2 2 2 2 2 2 10 10 10 8 2 2 8 2 2 10
left_child=1 2 3 4 5 -1 15 10 -8 -2 20 -6 -11 18 -12 -5 17 22 -9 -15 -4 27 -3 24 -18 26 -25 -19 -23 -26
right_child=9 16 7 6 11 -7 8 13 -10 12 14 -13 -14 19 -16 -17 23 21 -20 -21 -22 28 -24 25 29 -27 -28 -29 -30 -31
leaf_value=0.0006207694027639438 -0.030009939493500934 -0.036572257654745158 0.013962657649845903 -0.0047052910073804776 -0.0043120459287502881 0.012321667367983399 -0.0054540842642272318 0.01198341727070149 0.0037592171690356913 -0.012912734232994423 -0.019289388746327102 0.001236374908160085 0.033134175761265081 0.013388645967458236 0.021263780765939811 0.0059311039304819979 -0.0057058878115893649 -0.019111724464248362 0.0040246886894586597 0.028326901371017534 0.0005357653101299919 0.018778324422180637 -0.0033707360753031041 -0.010078773061402148 0.0072285968449861378 -0.0063904742241671563 0.034493793361402833 -0.0082379731415517573 -0.010486228170868007 0.036559491871640606
leaf_weight=1495.1270376890898 266.76634341478348 102.49184730648994 173.47624711692333 9797.9987508058548 2760.7273576855659 2917.8714765161276 1423.4186597019434 962.07396821677685 4419.7325146794319 69.609275951981544 248.52977505326271 10315.375368088484 34.170458763837814 380.29955081641674 27.965124115347862 352.30028641223907 118.99657888710499 207.70715276896954 1003.5788989961147 197.6557209789753 783.43689692020416 46.862631529569626 25.019703298807144 19.604890748858452 81.647916212677956 1502.5072391480207 26.268073096871376 576.34558854997158 26.83444257080555 25.858854845166206
leaf_count=6015 1116 416 696 39476 11093 11698 5730 3854 17748 286 998 41437 139 1522 112 1416 480 841 4021 791 3141 189 101 79 329 6053 106 2327 108 104
internal_value=-4.83364e-07 0.000192714 0.000748881 7.84935e-05 0.00216067 0.00836976 -0.00219527 0.00667691 0.00150571 -0.0209451 -0.000964788 6.0886e-05 0.00194298 0.010401 -0.0149457 -0.00433065 -0.0072945 -0.01233 0.00794956 0.0186239 0.00303412 -0.0095348 -0.0305236 -0.00446568 0.00393263 -0.00572824 0.0145693 -0.011203 0.00745547 0.0150163
internal_weight=40390.3 40019.7 37259.6 33482.6 17489.1 4413 15993.5 3777.02 5843.15 370.546 1233.41 13076.1 103.78 2543.61 276.495 10150.3 2760.14 985.261 1965.65 577.955 956.913 857.75 127.512 1774.88 226.503 1548.38 45.873 784.053 73.6971 107.507
internal_count=162422 160881 149748 134613 70243 17713 64370 15135 23478 1541 4947 52530 425 10188 1110 40892 11133 3982 7875 2313 3837 3465 517 7151 913 6238 185 3168 297 433
is_linear=0
shrinkage=0.05


Tree=12
num_leaves=31
num_cat=0
split_feature=43 44 18 16 12 39 5 29 23 24 27 39 43 16 34 18 39 39 43 43 44 35 5 5 39 3 5 18 11 7
split_gain=206.676 88.267 193.366 128.328 81.2675 90.798 79.8891 75.9362 47.7614 46.721 42.9727 40.2343 36.3546 33.9053 31.624 28.4953 27.1041 25.0302 24.4033 22.7537 26.1562 20.9094 20.4066 19.003 18.4632 21.853 17.661 17.5428 17.5002 17.3437
threshold=-33.488175459144848 36.449563256268753 2.5000000000000004 1.0000000180025095e-35 0.30038180107406004 0.96940300938918056 32.500000000000007 2.5000000000000004 1.0000000180025095e-35 1.0000000180025095e-35 1.0000000180025095e-35 0.95413144616193601 -8.7494224505960698 9.0018944726572183 1.0000000180025095e-35 1.0000000180025095e-35 0.99516541400969982 0.97320169374491228 -12.10341602296797 -4.2747727502664032 3.2061204991585046 2.5000000000000004 27.500000000000004 27.500000000000004 0.96819519523067632 20.000000000000004 52.500000000000007 1.0000000180025095e-35 9.7537849413068702 1.0000000180025095e-35
decision_type=10 8 2 8 10 2 2 2 2 2 2 2 10 8 2 2 2 2 10 10 10 2 2 2 2 2 2 2 8 2
left_child=13 4 3 6 5 9 21 29 19 11 28 -2 -4 22 -8 -9 -12 -14 -11 26 -21 -3 -1 -15 -10 -26 -6 -25 -7 -5
right_child=1 2 12 7 8 10 14 15 24 18 16 -13 17 23 -16 -17 -18 -19 -20 20 -22 -23 -24 27 25 -27 -28 -29 -30 -31
leaf_value=-0.014031324215160887 0.025021501294244172 0.039255884840923683 -0.011584241381476824 -0.0055873884760325749 -0.013609964566142352 -0.002370471299782048 0.0037780929859474867 0.011346633052140776 -0.0053902281112745325 -0.013248558101330394 0.011430752099170848 0.0093912848684166456 -0.0062688863358690674 -0.022995472413340441 0.020906765993302667 -0.0002247182903504483 -0.0056848300312080987 0.0050122925008321403 0.0048084812986955335 -0.0065151270380847566 -0.0006096376227617262 0 -0.034859584009225418 -0.012559670823480629 0.0050650394539627427 -0.0023509120798183496 -0.002225522893833405 0.0060666891989727759 0.0029566274632715091 -0.035964286569601524
leaf_weight=187.04072289168835 578.8787117600441 552.12535093724728 1243.9124729782343 833.02256739139557 1269.2728108465672 8122.8089475333691 463.6736501455307 2681.5528670102358 1019.7919030636549 217.88449448347092 1131.0412373095751 1498.0889592319727 986.36056467890739 284.43327812850475 672.00702552497387 653.10898597538471 285.77056160569191 976.45360630750656 1258.3366145938635 4759.1250969469547 3126.6603241115808 38.601635485887527 379.760956838727 431.21625332534313 2495.2243117690086 1638.6361861974001 481.38024340569973 173.86176784336567 1894.6232656538486 49.757238745689392
leaf_count=756 2320 2218 5002 3344 5129 32635 1858 10744 4107 878 4538 6006 3963 1183 2698 2621 1147 3920 5048 19203 12560 155 1544 1780 10031 6588 1943 703 7600 200
internal_value=-2.16576e-07 0.000690594 0.00498587 0.0103266 -0.000627778 0.00196489 0.0218158 0.00560764 -0.00325838 0.00894533 -0.0002005 0.0137816 -0.00489809 -0.0184881 0.013967 0.00906595 0.0079417 -0.000631612 0.00210232 -0.00533663 -0.00418035 0.0367717 -0.0281113 -0.0122753 0.000618186 0.00211345 -0.0105112 -0.00712394 -0.00135776 -0.00739489
internal_weight=40384.4 38928.1 9150.58 5943.85 29777.5 14987.4 1726.41 4217.44 14790.1 3553.19 11434.2 2076.97 3206.73 1456.31 1135.68 3334.66 1416.81 1962.81 1476.22 9636.44 7885.79 590.727 566.802 889.511 5153.65 4133.86 1750.65 605.078 10017.4 882.78
internal_count=162422 156456 36723 23838 119733 60172 6929 16909 59561 14252 45920 8326 12885 5966 4556 13365 5685 7883 5926 38835 31763 2373 2300 3666 20726 16619 7072 2483 40235 3544
is_linear=0
shrinkage=0.05


Tree=13
num_leaves=31
num_cat=0
split_feature=43 33 18 44 17 42 43 33 13 39 21 44 44 30 43 44 43 4 44 31 23 18 18 33 33 42 44 36 42 36
split_gain=187.847 109.685 78.4059 121.046 74.8127 69.2817 60.2505 41.5068 51.9211 39.9054 35.1519 33.9747 32.8575 32.0028 92.8347 29.6411 29.08 33.4322 27.8794 24.2203 28.3135 23.6291 22.9283 38.3403 26.5768 21.0886 17.41 11.6439 11.0939 13.0674
threshold=-25.451016767272421 7.6339732587433717 1.0000000180025095e-35 46.045973153551479 1.0000000180025095e-35 1.0000000180025095e-35 -2.3952835291935979 3.4326231934781131 1.0000000180025095e-35 0.97212542870900764 1.0000000180025095e-35 2.038182755284851 -35.123865915703753 1.5000000000000002 -5.4542017281189503 36.449563256268753 -1.9995188536322204 10.000000000000002 -1.3979127408512866 2.5000000000000004 1.0000000180025095e-35 1.5000000000000002 1.0000000180025095e-35 16.189248172523616 1.0000000180025095e-35 1.0000000180025095e-35 40.693432609032762 15.500000000000002 1.5000000000000002 3.5000000000000004
decision_type=10 2 2 8 2 2 10 2 2 2 2 8 8 2 10 10 10 2 10 2 2 2 2 2 2 2 8 2 2 2
left_child=22 2 3 16 25 12 19 11 -9 27 -6 -8 -3 14 -14 -15 17 -2 -18 21 -21 -4 23 24 -1 -5 -11 -7 29 -26
right_child=1 5 6 4 10 9 7 8 -10 26 -12 -13 13 15 -16 -17 18 -19 -20 20 -22 -23 -24 -25 28 -27 -28 -29 -30 -31
leaf_value=-0.0019252466083661238 -0.0010271971082201502 -0.0049198483061866395 0.0044021938311193274 0.028932611210839405 -0.011361169962052631 -0.01047404374414721 -0.0057884521529615179 0.0079208970436863597 -0.0058897621104656217 -0.0010247294081398011 0.0098432664537179883 0.0018166600531317623 0.0075377359701268081 0.0017539778757652289 0.026811733667977455 0.014645047405351386 -0.0050124645035586205 0.011497378538569872 0.0014112202058894139 -0.0082066686981651024 0.00058882151876276333 -0.0047619238137320725 -0.008167719552526655 0.022805801965187791 -0.025854186315295152 0.0058845722864224979 0.010078698516813677 0.0030962096670950194 -0.056183955217774133 0.015852576748650225
leaf_weight=134.59646213054657 1051.0434175878763 388.14046348631382 1080.7563031613827 678.86818435788155 234.69348604977131 913.6453820168972 3199.6574006676674 2738.082377448678 900.54546129703522 687.63224765658379 1101.376781180501 2699.3372583538294 2044.0405607521534 1570.8491361439228 907.12146517634392 628.28725458681583 3044.437897875905 1065.6074021905661 3774.140416637063 5978.3404643982649 1067.7848215997219 1995.4933211356401 539.58227749168873 45.843568310141563 838.70278464257717 123.52341164648533 708.62281100451946 184.17947420477867 32.027751758694649 17.085369110107422
leaf_count=555 4229 1561 4352 2726 941 3678 12898 10992 3623 2764 4411 10838 8197 6301 3633 2515 12261 4285 15155 24078 4297 8020 2187 185 3465 495 2841 739 131 69
internal_value=-6.30273e-07 0.00069289 -0.000665373 0.00269726 0.0133802 0.00589548 -0.00256199 0.000284616 0.0044884 -0.00100609 0.0060754 -0.00230022 0.00901205 0.0100725 0.0134861 0.00546463 0.000133718 0.00525702 -0.00144988 -0.00524886 -0.00686679 -0.00152573 -0.016743 -0.021016 -0.0230502 0.0254585 0.00457784 -0.00815115 -0.0261908 -0.0249456
internal_weight=40374 38766.2 30733.7 11073.7 2138.46 8032.52 19660 9537.62 3638.63 2494.08 1336.07 5898.99 5538.44 5150.3 2951.16 2199.14 8935.23 2116.65 6818.58 10122.4 7046.13 3076.25 1607.84 1068.26 1022.41 802.392 1396.26 1097.82 887.816 855.788
internal_count=162422 155830 123601 44503 8573 32229 79098 38351 14615 10022 5352 23736 22207 20646 11830 8816 35930 8514 27416 40747 28375 12372 6592 4405 4220 3221 5605 4417 3665 3534
is_linear=0
shrinkage=0.05


Tree=14
num_leaves=31
num_cat=0
split_feature=43 1 45 15 0 33 39 42 43 18 42 23 27 45 11 39 43 33 24 18 33 33 39 45 3 33 22 18 11 39
split_gain=170.085 105.252 148.637 98.3042 123.341 77.9252 64.5549 62.6432 60.6451 70.7026 53.1889 55.2199 41.4426 35.4591 24.7552 23.8414 22.9342 29.8759 22.8218 20.8706 34.8207 24.168 18.9392 18.4431 15.708 16.5706 13.9837 12.6872 11.5007 19.0702
threshold=-25.451016767272421 1.0000000180025095e-35 11.104242426185957 1.0000000180025095e-35 2.5000000000000004 8.4979422283747628 0.99830885396320135 1.0000000180025095e-35 -9.2322759933034604 2.5000000000000004 1.0000000180025095e-35 1.0000000180025095e-35 1.0000000180025095e-35 11.104242426185957 14.265868529200297 0.96348004159793443 -3.2164063607042879 4.6815027065967589 1.0000000180025095e-35 1.0000000180025095e-35 16.189248172523616 1.0000000180025095e-35 0.97212542870900764 12.021690090795277 20.000000000000004 3.2674506447269662 1.0000000180025095e-35 2.5000000000000004 22.236347470155753 0.95570919745090455
decision_type=10 2 8 2 2 2 2 2 10 2 2 2 2 10 10 2 10 2 2 2 2 2 2 8 2 2 10 2 8 2
left_child=19 2 16 4 6 10 -4 8 14 -10 11 12 -3 -5 -7 18 17 27 -12 20 21 -1 -9 -13 -18 -26 -23 -2 29 -21
right_child=1 5 3 13 -6 7 -8 22 9 -11 15 23 -14 -15 -16 -17 24 -19 -20 28 -22 26 -24 -25 25 -27 -28 -29 -30 -31
leaf_value=-0.0018303062090054487 -0.016958193095360372 -0.0032961902654743596 0.035743661468336595 -7.0369701644184285e-05 -0.017496322479347112 -0.0068825303329306826 0.00011775291171688407 -0.0081084033573916615 0.0061196910712134015 0.022937755332273345 -0.0052115242623142445 0.0015558329145853988 0.0032363986178501458 0.01547366094138735 0.011273230428529155 -0.0042553829384566234 0.0069683561649055877 0.0028049310609220149 -0.019566995651776106 -0.029092451819279514 0.021661361191093412 -0.022780808234119251 0.0019132969252124267 0.0078090692576206436 -0.0092344087651588871 0.0070055553370894337 -0.045060146002429517 -0.0052531888981278904 0.00069440368198343209 -0.0036224795513984942
leaf_weight=134.55227725207806 378.23663817346096 15062.703763619065 977.77899147570133 859.96790532767773 145.83292841911316 702.35023704171181 149.39013873040676 831.80918826162815 1630.3598799854517 1025.2183448523283 487.89909839630127 4095.7362834215164 2885.9902382493019 630.75185790657997 253.99556562304497 1688.1232579648495 1337.7611216455698 902.35434770584106 678.60874131321907 124.69474393129349 45.903555244207382 800.02993814647198 1072.8718979507685 1672.3182076364756 379.07800149917603 264.01275783777237 83.837192133069038 646.70324017107487 223.7676468193531 190.68264065682888
leaf_count=555 1525 60592 3933 3450 585 2819 599 3351 6536 4110 1965 16469 11605 2526 1018 6795 5378 3624 2742 507 185 3319 4308 6703 1525 1060 346 2612 909 771
internal_value=-4.29213e-07 0.000658673 0.00637277 0.0152452 0.0254582 -0.000528029 0.0310706 0.0048768 0.00874814 0.0126375 -0.00165217 -0.000873544 -0.0022429 0.00647905 -0.00200158 -0.00810107 8.33689e-05 -0.00378564 -0.0136152 -0.0159542 -0.0200437 -0.0219919 -0.00243908 0.00337853 0.00387301 -0.00248914 -0.0249991 -0.00963378 -0.00776653 -0.013911
internal_weight=40363.3 38759.9 6671.87 2763.72 1273 32088 1127.17 5516.61 3611.92 2655.58 26571.4 23716.7 17948.7 1490.72 956.346 2854.63 3908.15 1927.29 1166.51 1603.47 1064.32 1018.42 1904.68 5768.05 1980.85 643.091 883.867 1024.94 539.145 315.377
internal_count=162422 155830 26817 11093 5117 129013 4532 22142 14483 10646 106871 95369 72197 5976 3837 11502 15724 7761 4707 6592 4405 4220 7659 23172 7963 2585 3665 4137 2187 1278
is_linear=0
shrinkage=0.05


Tree=15
num_leaves=31
num_cat=0
split_feature=43 19 33 20 33 19 43 44 4 43 44 42 22 45 5 43 19 42 15 16 11 45 33 5 19 42 32 33 25 1
split_gain=154.061 193.842 82.6384 73.6014 54.8878 54.0634 125.603 49.6903 49.2239 48.5739 47.6305 47.6394 35.8643 31.496 34.9374 30.8622 30.2179 24.9018 24.8618 24.5643 21.0802 20.9848 18.6473 15.9351 16.1593 15.4843 14.3914 13.0224 16.0506 12.8072
threshold=-25.451016767272421 inf 8.4979422283747628 1.0000000180025095e-35 2.3361167854907223 -2.5437189855521516 -9.2322759933034604 36.449563256268753 20.000000000000004 -5.6347258191798071 -10.748945611091058 1.0000000180025095e-35 1.0000000180025095e-35 -6.5018352886576611 52.500000000000007 -3.4133750295110397 2.1421515188197575 1.0000000180025095e-35 1.0000000180025095e-35 4.5888360395035512 4.3358548573889024 -23.450170133631083 4.8530570509403637 27.500000000000004 -2.8992231073327948 1.5000000000000002 1.0000000180025095e-35 1.0000000180025095e-35 1.0000000180025095e-35 1.0000000180025095e-35
decision_type=10 8 2 2 2 10 10 10 2 10 8 2 10 8 2 10 10 2 2 8 10 8 2 2 10 2 2 2 2 2
left_child=19 2 9 4 -3 6 20 21 -8 13 12 -12 -11 14 -2 -5 -15 18 -6 23 -4 -7 27 -1 -25 -9 -17 -21 -29 -28
right_child=1 3 5 15 17 7 8 25 -10 10 11 -13 -14 16 -16 26 -18 -19 -20 22 -22 -23 -24 24 -26 -27 29 28 -30 -31
leaf_value=-0.010917089818167792 -0.0050097915578057534 0.0040654780373764179 -0.0085760330086242821 -0.011764303144358924 0.059092024978203012 -0.02200601534535716 0.017726860386764395 0.014698178977748878 0.042983873975327318 -0.0026716740179469974 0.0023107209338927683 -0.0051560020265442631 -0.017426057133183685 -0.0132300648472939 0.0059420072421896529 0.039139575822944403 -0.004005970401288075 0.018922383709532198 0.01138112253833598 -0.0017400214693472135 0.006283283601757169 -0.00024490161996137012 -0.0013501362684476585 -0.031117637309374713 0.0026971910187958011 0.0020539683904347464 0.0014425515578543454 -0.024311170807562392 0.00078813104345244354 0.026053006749084475
leaf_weight=208.08921331167221 1973.9976194798946 97.859899893403053 435.7743017077446 126.36386419832706 251.7673559486866 114.25578424334526 683.71395845711231 828.95401471853256 277.19665819406509 5634.0520260185003 16277.217239320278 2454.7885522842407 445.43430149555206 1517.7283838540316 1150.5415024608374 61.923272743821144 2194.6186398863792 70.78919592499733 34.212182655930519 134.51006080210209 524.30807235836983 3012.6483559012413 385.26439572870731 403.16454528272152 35.594786539673805 356.16520971059799 138.71650706231594 359.74990779161453 72.636113896965981 89.51768071949482
leaf_count=845 7957 394 1750 507 1027 461 2740 3320 1114 22685 65392 9883 1799 6115 4626 249 8842 285 137 555 2102 12101 1559 1655 144 1428 557 1535 299 359
internal_value=-5.47075e-07 0.000625956 8.80661e-05 0.0239315 0.0378546 0.00535108 0.0123313 0.00222768 0.0251019 -0.000947019 7.9305e-05 0.00132933 -0.00376362 -0.00467839 -0.000960429 0.00856064 -0.00779309 0.0469457 0.0536181 -0.0152062 -0.000411131 -0.00106281 -0.00998732 -0.022784 -0.0282608 0.0109453 0.0175939 -0.0157564 -0.0199873 0.0113849
internal_weight=40351.6 38752.5 37881.4 871.15 454.629 6233.02 1920.99 4312.02 960.911 31648.4 24811.5 18732 6079.49 6836.89 3124.54 416.521 3712.35 356.769 285.98 1599.01 960.082 3126.9 952.16 646.849 438.759 1185.12 290.157 566.896 432.386 228.234
internal_count=162422 155830 152315 3515 1843 25016 7706 17310 3854 127299 99759 75275 24484 27540 12583 1672 14957 1449 1164 6592 3852 12562 3948 2644 1799 4748 1165 2389 1834 916
is_linear=0
shrinkage=0.05


Tree=16
num_leaves=31
num_cat=0
split_feature=43 19 33 10 1 43 44 33 43 19 12 5 35 16 33 0 44 39 33 5 5 39 11 25 0 35 10 41 39 5
split_gain=139.734 175.289 68.1673 67.9766 48.2257 43.3236 44.147 45.5874 42.5653 74.5279 37.7028 37.6577 29.3184 26.3265 24.9439 21.9552 21.8142 19.7359 18.3514 16.8242 16.8112 14.0208 12.0931 11.9159 10.7125 9.52578 14.214 9.4363 10.041 9.42099
threshold=-33.488175459144848 inf 8.4979422283747628 1.0000000180025095e-35 22.500000000000004 -5.6347258191798071 1.4731647517232218 3.8132876188306244 -14.335943732374577 -2.5437189855521516 3.3374346815371521 32.500000000000007 2.5000000000000004 9.0018944726572183 14.167672348300355 1.5000000000000002 -7.2194080175370807 0.98087427737827992 4.8530570509403637 47.500000000000007 27.500000000000004 0.9923334247494956 14.265868529200297 1.0000000180025095e-35 1.5000000000000002 1.5000000000000002 70.000000000000014 1.0000000180025095e-35 0.99999302735579443 27.500000000000004
decision_type=10 8 2 2 2 10 8 2 10 10 10 2 2 8 2 2 8 2 2 2 2 2 10 2 2 2 2 2 2 2
left_child=13 2 5 10 8 12 7 -7 22 -10 14 -8 16 20 15 -3 -2 -14 21 -6 -1 23 -4 -15 29 26 -5 -12 -29 -20
right_child=1 3 4 25 19 6 11 -9 9 -11 27 -13 17 18 -16 -17 -18 -19 24 -21 -22 -23 -24 -25 -26 -27 -28 28 -30 -31
leaf_value=-0.011026382812920834 0.0027341839957750443 0.050662839040523933 -0.0087449774179320251 0.017005116078414147 -0.031216581182965289 -0.0040831336294812181 0.0080775245316115681 0.0020402301503367826 0.017983750473257353 0.0041968104777792715 0.020294519824768112 0.0009096249493206394 -0.012561221098055551 -0.021964348405612528 0 0.0087667478896388939 -0.004671972715787307 -0.00391914961863612 -0.011985260747045938 -0.003452037405861399 -0.030025567373964279 0.0023124509215033564 0.0082307847951447934 2.7514172594272757e-06 -0.020883112993324945 -0.018012881311866746 -0.019026194938389127 -0.040305194113158083 0.014288127617520791 0.0093444324270840606
leaf_weight=185.68051092326641 1626.2741177380085 280.34125691652298 516.30233977735043 80.782208532094955 57.567075401544571 8511.9507862925529 2288.3398450165987 4714.417897939682 1409.7116257846355 3262.9216173887253 305.67115347087383 9296.0664857923985 1415.7599932551384 402.51120707392693 35.172463893890381 39.040344819426537 2533.9839216917753 1280.7226670086384 67.108859315514565 974.76660604774952 373.52027359604836 90.179614514112473 127.85880848765373 67.525197952985764 51.499987468123436 71.478048533201218 39.331646010279655 12.978535309433939 18.740640386939049 201.20484134554863
leaf_count=756 6541 1150 2072 324 235 34316 9179 18949 5656 13080 1230 37315 5711 1720 142 157 10209 5170 272 3936 1544 373 512 278 213 287 158 52 75 810
internal_value=-2.82737e-07 0.000564692 5.14121e-05 0.0225685 0.00478071 -0.000895323 7.4967e-05 -0.00189675 0.0067048 0.00836992 0.029865 0.00233044 -0.00441306 -0.0152952 0.0413507 0.045741 -0.00176488 -0.00847809 -0.00978968 -0.0050774 -0.0238372 -0.015238 -0.00529044 -0.0187091 -7.22417e-05 -0.0035421 0.00473404 0.0175608 -0.0070708 0.00379924
internal_weight=40339.4 38900.2 38016.6 883.536 6349.13 31667.5 24810.8 13226.4 5316.79 4672.63 691.944 11584.4 6856.74 1439.23 354.554 319.382 4160.26 2696.48 880.03 1032.33 559.201 560.216 644.161 470.036 319.814 191.592 120.114 337.39 31.7192 268.314
internal_count=162422 156456 152881 3575 25491 127390 99759 53265 21320 18736 2806 46494 27631 5966 1449 1307 16750 10881 3666 4171 2300 2371 2584 1998 1295 769 482 1357 127 1082
is_linear=0
shrinkage=0.05


Tree=17
num_leaves=31
num_cat=0
split_feature=43 19 7 23 12 27 19 44 27 0 42 18 43 1 0 42 19 36 39 18 38 39 19 29 36 36 12 43 18 43
split_gain=126.751 159.51 66.3149 50.421 70.4346 48.3695 40.7289 40.1484 36.5729 35.6032 32.0323 27.1724 35.4508 33.8203 26.9896 22.854 18.9013 17.492 17.3303 17.007 15.9645 11.5064 10.4585 9.92433 11.8159 10.9234 10.1449 9.59421 9.50971 7.56404
threshold=-25.451016767272421 inf 1.0000000180025095e-35 1.0000000180025095e-35 0.91900563546089387 1.0000000180025095e-35 4.4858156495306849 40.693432609032762 1.0000000180025095e-35 2.5000000000000004 1.0000000180025095e-35 1.0000000180025095e-35 -0.56125835041576699 1.0000000180025095e-35 1.5000000000000002 1.0000000180025095e-35 20.275890256272309 28.500000000000004 0.99999302735579443 1.0000000180025095e-35 1.5000000000000002 0.97299323852785313 4.9950212524693001 2.5000000000000004 1.5000000000000002 3.5000000000000004 25.504296805082905 -25.451016767272421 1.0000000180025095e-35 3.3158418652723789
decision_type=10 8 2 2 8 2 10 10 2 2 2 2 10 2 2 2 10 2 2 2 2 2 8 2 2 2 10 8 2 10
left_child=19 3 8 4 5 9 -7 15 10 -2 14 13 -13 -6 -3 18 -9 -18 -5 20 23 -17 -21 24 27 -25 -26 -1 -12 -10
right_child=1 2 -4 7 11 6 -8 16 29 -11 28 12 -14 -15 -16 21 17 -19 -20 22 -22 -23 -24 25 26 -27 -28 -29 -30 -31
leaf_value=0.019604754637747454 0.00068924056119644775 0.045048026875731881 -0.0090650179961198393 0.0036904689649077936 0.0095568396112586385 0.014460969996095236 -0.0010249782677664277 0.0014280546850015041 -0.01638093628766913 -0.013190549446885899 0.0061807876164186194 -0.0096506062070488841 -0.0022112058034329109 -0.002706004191114152 0.013494359291349727 -0.0079767815152139987 0.0098216123800913841 0.023966394940251767 -0.0057966541521624311 -0.014353612423703503 0.023056330987057075 6.3152681576323546e-05 -0.00012437346310277496 -0.053068123099265153 -0.017504530862455934 -0.00096732067397718345 0.032721299119107476 -0.018958014147596777 0.035330988227091527 0.012032815279886588
leaf_weight=14.375055640935896 12717.040240839124 372.63967037200928 142.67355373501778 6732.3406274914742 628.24594081938267 1169.4256974458694 657.02563808858395 418.91502480208874 43.921964451670647 478.33816139400005 132.22087474167347 3366.7116950601339 3094.8880115747452 5201.6806923151016 90.046618342399597 753.57710155844688 763.18132980167866 321.06369918584824 513.66736628115177 233.74061411619186 21.783426240086555 1055.0817857533693 303.13696736097336 40.490730538964272 16.468573525547981 15.959206283092497 20.817371353507042 922.91995111107826 37.198619335889816 47.193294569849968
leaf_count=58 51100 1533 573 27041 2520 4698 2637 1678 176 1923 532 13619 12480 20928 362 3040 3058 1287 2063 947 88 4243 1240 171 68 65 85 3870 150 189
internal_value=-2.70424e-07 0.000566507 0.0217731 7.97525e-05 -0.00105318 0.00124105 0.00886537 0.00301523 0.0279299 0.000181342 0.0321958 -0.00386096 -0.00609602 -0.00137455 0.0390573 0.00175177 0.0105865 0.0140744 0.00301032 -0.0138344 -0.0175544 -0.00326161 -0.00642749 -0.0184824 -0.0171756 -0.039482 0.00935366 -0.018293 0.0130443 -0.00115033
internal_weight=40326.8 38737.1 865.895 37871.2 27313.4 15021.8 1826.45 10557.8 723.221 13195.4 632.106 12291.5 6461.6 5829.93 462.686 9054.67 1503.16 1084.25 7246.01 1589.69 1052.81 1808.66 536.878 1031.03 974.581 56.4499 37.2859 937.295 169.419 91.1153
internal_count=162422 155830 3515 152315 109905 60358 7335 42410 2942 53023 2577 49547 26099 23448 1895 36387 6023 4345 29104 6592 4405 7283 2187 4317 4081 236 153 3928 682 365
is_linear=0
shrinkage=0.05


Tree=18
num_leaves=31
num_cat=0
split_feature=43 19 7 1 23 44 19 32 1 27 42 0 42 39 42 22 4 39 4 4 39 44 36 20 40 39 42 39 43 25
split_gain=114.905 143.999 59.0808 51.2448 46.9133 36.3524 33.468 71.4956 36.4041 33.1471 26.4395 24.8968 19.437 14.4481 13.3532 14.4188 15.9339 11.4697 13.3697 13.1154 13.3201 8.41318 7.70395 11.2402 10.8468 7.99551 7.66604 7.15419 6.79934 6.40404
threshold=-33.488175459144848 inf 1.0000000180025095e-35 22.500000000000004 1.0000000180025095e-35 46.045973153551479 -1.7118875659060409 1.0000000180025095e-35 1.0000000180025095e-35 1.0000000180025095e-35 1.0000000180025095e-35 1.5000000000000002 1.5000000000000002 0.9691825562215195 3.5000000000000004 1.0000000180025095e-35 10.000000000000002 0.9902912362167885 10.000000000000002 20.000000000000004 0.96511948959865779 7.814118153082263 1.5000000000000002 1.0000000180025095e-35 1.0000000180025095e-35 0.96511948959865779 2.5000000000000004 0.99205604600450403 3.3158418652723789 1.0000000180025095e-35
decision_type=10 8 2 2 2 10 10 2 2 2 2 2 2 2 2 10 2 2 2 2 2 10 2 2 2 2 2 2 10 2
left_child=14 3 9 4 6 12 7 -2 -8 10 11 -3 -6 -7 15 22 -17 19 -19 20 -5 -21 23 29 -25 -24 -12 -20 -11 -1
right_child=1 2 -4 17 5 13 8 -9 -10 28 26 -13 -14 -15 -16 16 -18 18 27 21 -22 -23 25 24 -26 -27 -28 -29 -30 -31
leaf_value=-0.012640471111387967 -0.007339356473996389 0.042269722939252956 -0.0086182640001539797 -0.028357473889993996 0.0030010304989020221 0.0022404226380543873 0.0029766456798366739 0.0060341409231628451 -0.0024947288270883113 -0.015223068255654169 0.01855583638246883 0.012121662559468106 -0.0074107491496899899 0.015197476335000704 0.027053620227095995 -0.00081048154877740887 -0.044319843395189851 0.019601761800242111 0.014324056821566856 -0.0088660918704102157 -0.0088883895199528204 -0.0009158609392398839 -0.015060011351974155 -0.02701703312569444 0 0.02725887012440378 -0.0062190118409014084 -0.0049962390057919134 0.011446853136955974 -0.00050124136639490826
leaf_weight=851.29714258015156 1302.5439264178276 376.35752463340759 142.61923898756504 154.40488059818745 7843.5572349131107 300.49947348237038 3715.4302485436201 4253.2501074820757 16559.348338469863 45.6516332924366 138.85636977851391 90.978325247764587 471.97918958961964 856.15802066028118 17.899331152439117 32.041763380169868 77.531936973333359 69.273037657141685 50.18683922290802 1127.3276103883982 230.75774160027504 493.15579961240292 18.46758708357811 232.24333097040653 43.212929293513298 23.046181470155716 36.146927148103714 579.19030284881592 47.180174365639687 134.5311943590641
leaf_count=3545 5247 1559 573 629 31497 1204 14949 17067 66663 183 560 366 1898 3431 73 133 328 279 202 4560 931 1990 76 989 177 94 145 2334 189 551
internal_value=-5.50295e-08 0.000510811 0.0205208 4.68288e-05 0.00055635 0.00356677 -0.000545747 0.002889 -0.00148952 0.0262455 0.0302793 0.0365458 0.00240324 0.0118793 -0.0139146 -0.0144879 -0.0321713 -0.00658389 -0.000983478 -0.00850837 -0.0168759 -0.00647952 -0.0129388 -0.0136513 -0.0227539 0.00734561 0.0131482 -0.00335603 -0.00115813 -0.0110367
internal_weight=40315.1 38884.9 877.79 38007.1 35302.8 9472.19 25830.6 5555.79 20274.8 735.171 642.339 467.336 8315.54 1156.66 1430.27 1412.37 109.574 2704.3 698.65 2005.65 385.163 1620.48 1302.8 1261.28 275.456 41.5138 175.003 629.377 92.8318 985.828
internal_count=162422 156456 3575 152881 141956 38030 103926 22314 81612 3002 2630 1925 33395 4635 5966 5893 461 10925 2815 8110 1560 6550 5432 5262 1166 170 705 2536 372 4096
is_linear=0
shrinkage=0.05


Tree=19
num_leaves=31
num_cat=0
split_feature=33 1 23 31 45 19 44 4 44 18 45 44 12 0 7 18 19 19 44 5 45 19 45 33 5 39 5 16 44 44
split_gain=67.8569 44.9797 36.4108 38.3707 36.2849 43.4758 34.824 63.0688 32.5872 31.0821 38.9968 33.5829 28.3255 27.6178 25.2805 22.536 20.0829 19.9536 19.525 16.1095 14.4445 14.3627 14.8232 13.9414 12.1506 11.2511 11.1361 9.75705 9.35533 8.57147
threshold=6.6640411586952117 22.500000000000004 1.0000000180025095e-35 1.5000000000000002 -16.482098161140964 4.8258707163528483 -1.7464935183480905 10.000000000000002 36.449563256268753 1.5000000000000002 -5.7219327780609399 3.614120897368978 0.30038180107406004 2.5000000000000004 1.0000000180025095e-35 2.5000000000000004 2.1421515188197575 -1.1214923092063465 -27.422018393688358 17.500000000000004 16.561950954171603 6.7151355451070875 -6.7989092176361696 2.462618305354825 77.500000000000014 0.99909173132494822 47.500000000000007 9.6366188108287059 42.293710825447803 48.45203843310582
decision_type=2 2 2 2 8 10 8 2 10 2 10 8 10 2 2 2 10 8 8 2 10 10 8 2 2 2 2 10 10 8
left_child=2 4 3 24 16 6 7 -6 19 11 18 14 -12 -13 -5 -10 -2 -8 -11 -7 21 22 27 28 -1 -24 -3 -4 -23 -25
right_child=1 26 20 9 5 8 17 -9 15 10 12 13 -14 -15 -16 -17 -18 -19 -20 -21 -22 23 25 29 -26 -27 -28 -29 -30 -31
leaf_value=-0.01135920452895706 -0.0010659924282801392 -0.02175915749467083 0.0081048502838684186 -0.0028209840463496085 0.0040305654332129541 0.021603386596012047 0.00061588740987876891 0.022222322640079242 0.011230095469628566 0.0017757734545371198 0.002738310095135039 0.0039541122740910234 -0.0056748801741287255 -0.0096635842074662692 0.010813764327522292 -0.010977848104220308 -0.019771872088508863 0.010179923187761543 -0.0090004487943980346 -0.0011962408515594489 0.0095812574473286474 -0.0041977534205726516 0.0038441811565169542 0.00063701243127926496 0.0043834758815493305 -0.011018892153544757 -0.0038031888420327793 0.025377526910062682 0.032576182898801979 0.0083719353441677972
leaf_weight=1359.8898647427559 710.02469925582409 93.581353813409805 313.4181005358696 7648.9655742049217 864.81186556816101 78.384514808654785 1217.0368437021971 1082.8584576845169 1118.5658593177795 470.05624404549599 2433.5736071765423 4908.8580632805824 1694.5027865916491 400.08539687097073 353.49824096262455 124.16361746191978 181.07971520721912 1005.2825188934803 3432.1002631187439 3032.3761637657881 574.77630877494812 1716.2186521738768 1373.4236389547586 2009.8126789629459 129.3398894816637 138.00617681443691 1264.0061478465796 118.62823966145515 16.193708211183548 439.94592794775963
leaf_count=5607 2853 384 1261 30847 3466 314 4881 4349 4483 1896 9771 19822 6846 1612 1422 498 731 4086 13838 12161 2303 6901 5519 8079 521 555 5110 477 65 1764
internal_value=-2.40052e-07 0.00339526 -0.00124059 -0.00219273 0.00462496 0.0056314 0.00928308 0.0141766 0.00212083 -0.0016482 -0.00410499 -0.000162162 -0.000703585 0.00291683 -0.00221116 0.00896401 -0.00494113 0.00496737 -0.00768941 -0.000598913 0.00199611 0.00127478 0.00482702 -0.000364764 -0.00995637 0.00244761 -0.00509284 0.0130106 -0.00380657 0.00204936
internal_weight=40303.5 10772.2 29531.3 22830.9 9414.58 8523.48 4169.99 1947.67 4353.49 21341.6 8030.23 13311.4 4128.08 5308.94 8002.46 1242.73 891.104 2222.32 3902.16 3110.76 6700.42 6125.65 1943.48 4182.17 1489.23 1511.43 1357.59 432.046 1732.41 2449.76
internal_count=162422 43316 119106 92182 37822 34238 16782 7815 17456 86054 32351 53703 16617 21434 32269 4981 3584 8967 15734 12475 26924 24621 7812 16809 6128 6074 5494 1738 6966 9843
is_linear=0
shrinkage=0.05


Tree=20
num_leaves=31
num_cat=0
split_feature=43 19 33 19 43 7 18 44 43 12 44 11 27 27 16 43 12 33 19 33 33 43 44 43 16 19 16 42 22 33
split_gain=103.906 113.107 68.5404 62.7943 96.2233 54.099 39.5029 53.5371 51.8762 43.5491 35.9578 34.3517 33.0817 32.7804 28.4748 28.2195 22.1146 21.6458 20.3906 19.8981 18.5463 17.4249 15.9783 14.0528 15.1886 14.1759 13.4547 12.6581 10.8746 10.7411
threshold=-18.880338981648201 inf 8.8125553478221619 -2.5437189855521516 -4.4994413143811629 1.0000000180025095e-35 1.0000000180025095e-35 48.45203843310582 -4.4994413143811629 4.0651058355308427 31.187322877374513 9.4825977129418071 1.0000000180025095e-35 1.0000000180025095e-35 1.0000000180025095e-35 0.071977583460181252 1.0000000180025095e-35 4.9376602467789974 -2.8992231073327948 2.2434662892604877 1.0000000180025095e-35 -9.2322759933034604 -48.59470188778603 -33.488175459144848 4.1282243264982714 -0.43890794982670905 4.358407364993246 1.5000000000000002 1.0000000180025095e-35 15.089959462347421
decision_type=10 8 2 10 10 2 2 8 10 10 10 10 2 2 8 10 10 2 8 2 2 10 8 10 8 10 10 2 8 2
left_child=17 2 6 4 21 12 7 15 11 -10 22 -8 16 -6 -9 -2 19 20 26 -3 -1 -4 -5 24 29 -25 -19 -12 -22 -20
right_child=1 5 3 10 13 -7 8 14 9 -11 27 -13 -14 -15 -16 -17 -18 18 23 -21 28 -23 -24 25 -26 -27 -28 -29 -30 -31
leaf_value=0.00014791522845442664 0.0036853868526838052 0 0.0024024432691828988 -0.019301609746081746 0.026936009738965812 -0.0085805757992391731 -0.0066570195306332562 0.019826842759056176 0.0022147131724320509 -0.0037054082421097735 0.011985628008993303 0.0030870848623500728 -0.0029022996647748247 0.062462305720238857 0.0056744501408641131 -0.001964882353230116 0.02048080551094485 -0.024324166838223929 -0.020476746402410297 0.045694792618660864 -0.014780334953859501 0.014417673494993214 -0.00053643990224378141 0.024674406432139851 0.0025714742400088034 -2.49504672114455e-05 -0.0057294599565048069 0.0011126296378008425 -0.027438814405637259 0.0051695601754298904
leaf_weight=133.13529795408249 3520.7481954097748 25.752921476960182 741.47402593493462 118.19979245960712 226.37023434042931 141.30301770567894 6509.7963643223047 487.49328330159187 7949.1645197123289 5096.8665874749422 907.91637967526913 1042.2823463827372 87.313087448477745 98.20083187520504 1375.62179492414 5927.7045373469591 320.67616225779057 204.37159569561481 191.24601055681705 224.77801810204983 484.92116868495941 523.15961942076683 2530.6175200939178 85.874855533242226 235.31284956634045 163.29306554794312 202.92844662070274 394.71019615232944 295.95691233873367 47.711876302957535
leaf_count=555 14166 105 2975 478 911 568 26271 1955 31926 20565 3642 4186 350 399 5510 23840 1303 828 788 944 2034 2103 10171 352 957 658 819 1584 1284 195
internal_value=0 0.000586107 0.000187165 0.00532099 0.0137163 0.0191799 -0.000702821 0.00166864 -0.00200757 -9.44539e-05 0.00192929 -0.00530536 0.0252164 0.0379971 0.00941297 0.000135436 0.0295995 -0.0109798 -0.00627485 0.0409446 -0.0167324 0.00741993 -0.00139965 -0.0011562 -0.00626397 0.00835234 -0.0152189 0.00873273 -0.0196709 -0.0151475
internal_weight=40294.9 38250.1 37450.3 5540.65 1589.2 799.823 31909.7 11311.6 20598.1 13046 3951.44 7552.08 658.52 324.571 1863.12 9448.45 571.207 2044.75 1130.74 250.531 914.013 1264.63 2648.82 723.439 474.271 249.168 407.3 1302.63 780.878 238.958
internal_count=162422 153952 150682 22263 6388 3270 128419 45471 82948 52491 15875 30457 2702 1310 7465 38006 2352 8470 4597 1049 3873 5078 10649 2950 1940 1010 1647 5226 3318 983
is_linear=0
shrinkage=0.05


Tree=21
num_leaves=31
num_cat=0
split_feature=43 1 45 31 13 23 12 4 33 33 39 33 43 31 39 43 11 45 31 33 39 45 39 43 0 45 25 39 33 3
split_gain=94.3935 75.2301 100.45 58.2409 84.6793 46.2095 48.5076 58.2337 69.8836 28.3472 26.4323 19.1121 29.9745 18.3378 18.2894 19.841 17.1881 16.8595 16.8004 14.5214 13.8699 18.4628 12.7878 12.5445 13.4587 11.9609 11.6871 11.2134 14.6831 10.6617
threshold=-25.451016767272421 1.0000000180025095e-35 11.104242426185957 2.5000000000000004 1.0000000180025095e-35 1.0000000180025095e-35 1.1122199381702125 10.000000000000002 7.6339732587433717 2.682227013525174 0.99830885396320135 3.4650189487196119 0.35809298931818173 1.0000000180025095e-35 0.97647054477729855 -6.4723599605746083 22.005169296160172 25.037582115134679 3.5000000000000004 4.8530570509403637 0.96792399073886393 16.561950954171603 0.99056600626456237 -3.9083790669474423 1.0000000180025095e-35 5.5935503814042535 1.0000000180025095e-35 0.95232520907504059 3.398068990342757 10.000000000000002
decision_type=10 2 8 2 2 2 10 2 2 2 2 2 10 2 2 10 8 8 2 2 2 8 2 10 2 8 2 2 2 2
left_child=16 2 11 4 10 6 7 18 -9 -6 -4 12 29 -7 15 -8 27 -5 -3 22 -15 -22 26 24 -13 -16 -18 -1 -29 -2
right_child=1 5 3 17 9 13 14 8 -10 -11 -12 23 -14 20 25 -17 19 -19 -20 -21 21 -23 -24 -25 -26 -27 -28 28 -30 -31
leaf_value=-0.028518263063749064 -0.0028893969301773043 -0.0024210342458803437 0.035209790258395365 0.015750426644452347 0.025104192507435636 -0.0061941356982634756 -0.015916127665933359 0.00084838436524798495 0.013332957019949618 0.0045152812901122687 -0.0017242264438446634 -0.0030758195774262119 0.0050459445882734891 -0.00090249407482175426 -0.0041300275001034219 -0.0054188036119793906 -0.019074509348389099 0.00046794711254008665 -0.013276069853717726 0.0015968246413157736 0.0021564215092209327 0.0076109867531995619 0.0032620293900013047 0.0083433021029276026 0.0094659291242715615 0.00070894253536022192 0.0030028540342094865 -0.025705854644080074 -0.007784906612903768 -0.012171447620766575
leaf_weight=186.5825247913599 603.00220696628094 5846.2602495551109 616.7393981218338 229.01256856322289 217.12614741921425 569.85315434634686 509.96007840335369 4938.664214015007 1453.0289114713669 759.96033570170403 49.678965583443642 815.40137541294098 691.69505639374256 1764.1597480028868 3332.060186997056 4279.0088902711868 377.03591947257519 873.16231861710548 381.65768805146217 301.88319949805737 4549.8728145807981 2385.4103898257017 106.24158677458763 830.3299448788166 288.63685354590416 2044.2401352375746 66.439769178628922 176.70160265266895 360.76126566529274 675.73974475264549
leaf_count=774 2436 23511 2539 917 874 2301 2073 19841 5850 3052 202 3283 2781 7095 13467 17279 1649 3509 1538 1226 18281 9566 445 3333 1162 8211 276 741 1481 2729
internal_value=0 0.000487889 0.00532762 0.0126541 0.0186226 -0.000514816 -0.00172695 0.00033997 0.00369598 0.00916262 0.0323831 0.00016125 -0.00329039 0.0024592 -0.00429761 -0.00655015 -0.011993 0.0037001 -0.0030963 -0.00706645 0.00303243 0.00404057 -0.011909 0.00370297 0.000163414 -0.00228101 -0.0156552 -0.0177007 -0.0138064 -0.00783916
internal_weight=40280.3 38704.7 6650.48 2745.68 1643.5 32054.2 22784.9 12619.6 6391.69 977.086 666.418 3904.81 1970.44 9269.3 10165.3 4788.97 1575.65 1102.17 6227.92 851.6 8699.44 6935.28 549.717 1934.37 1104.04 5376.3 443.476 724.045 537.463 1278.74
internal_count=162422 155830 26817 11093 6667 129013 91770 50740 25691 3926 2741 15724 7946 37243 41030 19352 6592 4426 25049 3596 34942 27847 2370 7778 4445 21678 1925 2996 2222 5165
is_linear=0
shrinkage=0.05


Tree=22
num_leaves=31
num_cat=0
split_feature=43 1 44 42 33 31 12 0 39 23 43 12 43 43 33 11 33 33 0 16 43 39 39 43 36 39 12 42 0 16
split_gain=87.1396 63.4936 74.4472 49.9855 82.1934 41.6252 53.2574 37.6499 34.9393 34.1421 30.1291 54.4912 23.4895 21.7378 31.623 17.7888 17.7125 16.4619 15.9419 15.5065 14.8202 13.8083 13.7367 13.5208 10.5379 10.3505 9.85198 9.07746 10.3993 9.1451
threshold=-18.880338981648201 1.0000000180025095e-35 15.388956181075542 1.0000000180025095e-35 8.922127956695947 2.5000000000000004 12.018582152037732 1.5000000000000002 0.97189348972915146 1.0000000180025095e-35 -9.2322759933034604 1.2286114506261112 -5.6347258191798071 -4.0555839909990228 4.767833583316972 11.503952930255059 4.9376602467789974 1.0000000180025095e-35 2.5000000000000004 58.222788788617827 0.35809298931818173 0.9425709155506069 0.94467187236282646 -3.9822076812256686 31.500000000000004 0.99909173132494822 5.5025888041096938 3.5000000000000004 1.5000000000000002 13.541407908189321
decision_type=10 2 8 2 2 2 8 2 2 2 10 10 10 10 2 10 2 2 2 10 10 2 2 10 2 2 10 2 2 8
left_child=16 2 13 4 9 6 7 -4 23 12 15 -12 -3 14 -2 -6 17 -1 -8 20 -7 -11 -18 -5 -10 -15 -25 28 29 -24
right_child=1 3 5 8 10 19 18 -9 24 21 11 -13 -14 25 -16 -17 22 -19 -20 -21 -22 -23 27 26 -26 -27 -28 -29 -30 -31
leaf_value=0.00058297789516139514 -0.011965129657575929 -0.0048566229375810437 0.031623225877700674 -0.019850379017114901 -0.0068837265374614839 0.0016817838653827137 0.010824116234364184 0.0023877593513652851 -0.001444368517946466 -0.0097067382415908701 0.021016904830926636 0.005060783178597799 -0.00060660174636169685 0.0042137076589332453 0.0029496259723007286 0.0095669470999078139 -0.015876141029000413 -0.018103559700297506 -0.0072576045512466785 -0.030818916687621031 0.013470455862103665 0.0032503418160984496 -0.0054636492035064453 0.00066226026135089667 0.019380099537622028 -0.01100910816222256 -0.0094115671940149734 0.037866468797667585 -0.017465115835963742 0.0059973455322810277
leaf_weight=132.85193885862827 728.97141022980213 4260.3236614912748 597.68760591745377 284.00548310577869 446.00632566213608 946.40986250340939 775.3176302164793 139.77742125093937 2337.9336222410202 210.62940436601639 853.79656590521336 1464.1691978573799 13875.131099030375 1950.9212365746498 683.93947979807854 258.12055191397667 261.60589542984962 774.11482755839825 140.44306401908398 29.43364354968071 377.46355280280113 5665.4900802969933 467.07721787691116 270.78086133301258 61.154189258813858 115.87203499674797 1757.8946615308523 12.377269402146338 113.34680910408497 273.82546082139015
leaf_count=555 2956 17196 2464 1151 1791 3804 3118 563 9410 847 3446 5875 55845 7846 2750 1035 1071 3318 564 118 1512 22749 1904 1090 246 466 7110 50 468 1104
internal_value=0 0.000536203 0.00504417 -0.000383422 0.000443241 0.0108057 0.0161375 0.0261604 -0.00513608 -0.000533018 0.00821411 0.0109661 -0.00160797 5.00707e-05 -0.00471309 -0.000777274 -0.0100792 -0.0153137 0.00799163 0.00424829 0.00508835 0.00277582 -0.00581712 -0.00952224 -0.000884854 0.00333117 -0.00804265 -0.00270821 -0.00339815 -0.00115809
internal_weight=40266.9 38231.7 6486.24 31745.4 27033.7 3006.53 1653.23 737.465 4711.77 24011.6 3022.09 2317.97 18135.5 3479.7 1412.91 704.127 2035.2 906.967 915.761 1353.31 1323.87 5876.12 1128.23 2312.68 2399.09 2066.79 2028.68 866.627 854.249 740.903
internal_count=162422 153952 26161 127791 108784 12143 6709 3027 19007 96637 12147 9321 73041 14018 5706 2826 8470 3873 3682 5434 5316 23596 4597 9351 9656 8312 8200 3526 3476 3008
is_linear=0
shrinkage=0.05


Tree=23
num_leaves=31
num_cat=0
split_feature=43 19 33 19 43 13 33 4 18 43 19 44 11 43 44 43 32 33 19 18 42 44 4 11 33 10 43 33 18 43
split_gain=79.0975 83.9568 52.7999 59.0788 79.7982 47.5075 41.7757 40.4889 31.0051 44.7687 55.719 41.6327 34.7657 27.6855 25.1728 24.0112 23.2606 17.1997 22.4671 16.4116 16.674 15.9344 14.9315 14.529 12.7235 12.2771 11.4511 17.998 11.5142 10.8268
threshold=-17.78313848179867 112.30752260899492 8.922127956695947 -3.0903336706995606 -4.4994413143811629 1.0000000180025095e-35 2.3361167854907223 20.000000000000004 1.0000000180025095e-35 -0.4921695354016708 8.5000004087175665 48.45203843310582 9.4825977129418071 -1.9995188536322204 31.187322877374513 -3.4133750295110397 1.5000000000000002 6.4209642163454603 -4.1006767109653852 2.5000000000000004 1.0000000180025095e-35 -38.320901393520593 20.000000000000004 4.6792955384264925 1.0000000180025095e-35 70.000000000000014 -17.78313848179867 21.452756684391719 1.5000000000000002 -6.2806697700461251
decision_type=10 8 2 10 10 2 2 2 2 10 8 8 10 10 10 10 2 2 8 2 2 8 2 10 2 2 8 2 2 10
left_child=17 2 8 4 23 6 29 -6 11 12 -11 13 -10 -2 21 -7 -13 24 -19 20 -8 -5 25 -4 -1 -17 28 -28 -20 -3
right_child=1 5 3 14 7 15 19 -9 9 10 -12 16 -14 -15 -16 22 -18 18 26 -21 -22 -23 -24 -25 -26 -27 27 -29 -30 -31
leaf_value=0.00055398075590227971 0.0051677219934424222 -0.012985700963193972 0.00033269998371258924 -0.015936221080756204 0.021728171168060487 -0.012783639019547913 0.0506132542600135 0.060995142502185379 -0.0044979880961217638 0.0054169264808819105 -0.0034487942961177742 0.010504874591491778 0.0027610129865954852 -0.001305118963682902 0.0075842591787233793 0.023486452674491235 -0.0057036430014712376 -0.013235854544509325 0.026046524900822578 0.0069364127079416527 0.015199960248690157 -0.00014868010788028033 0.0010325136327571213 0.011993899584097157 -0.015567668436033549 -0.018715633783569868 -0.0089218777776511726 0.033742858438028663 0.0027915192283285571 0.02113653697093178
leaf_weight=132.86752101778984 2129.0586023330688 57.332154929637909 449.84825180470943 170.71396467089653 181.69058138132095 127.63331463932991 191.4476665854454 109.61875776946545 11523.39797270298 3944.8983374387026 3210.1704162657261 1623.0715709924698 1915.3223187625408 7352.2653377503157 1179.6759737282991 217.11319828033447 251.39476668834686 443.62411786615849 70.120633468031883 38.447347864508629 46.748419776558876 2414.0653522610664 189.43867252767086 690.86672194302082 984.45461377501488 16.646871715784073 289.66806201636791 25.689351618289948 239.10864444077015 37.569648593664169
leaf_count=555 8565 233 1808 690 734 514 831 450 46482 15866 12933 6508 7695 29578 4736 879 1008 1797 293 155 193 9706 763 2778 4193 67 1188 104 966 154
internal_value=0 0.000530669 0.000159099 0.00483387 0.0134784 0.015424 0.0292516 0.0368334 -0.000599797 -0.00175751 0.00143235 0.0014953 -0.00345957 0.000143495 0.00152943 0.00597041 0.00830252 -0.00924846 -0.00463426 0.0390422 0.0439647 -0.00121648 0.0117611 0.00744334 -0.0136071 0.0202012 0.00140665 -0.00519264 0.00829294 8.07585e-05
internal_weight=40254 38068.4 37146.1 5196.48 1432.02 922.377 371.545 291.309 31949.6 20593.8 7155.07 11355.8 13438.7 9481.32 3764.46 550.832 1874.47 2185.53 1068.21 276.643 238.196 2584.78 423.199 1140.71 1117.32 233.76 624.587 315.357 309.229 94.9018
internal_count=162422 153326 149537 20902 5770 3789 1566 1184 128635 82976 28799 45659 54177 38143 15132 2223 7516 9096 4348 1179 1024 10396 1709 4586 4748 946 2551 1292 1259 387
is_linear=0
shrinkage=0.05


Tree=24
num_leaves=31
num_cat=0
split_feature=33 24 18 19 4 13 27 19 19 11 1 29 39 0 27 5 39 5 29 27 4 5 19 39 19 5 1 18 33 33
split_gain=46.9658 60.99 29.8261 35.6882 27.7011 35.248 37.424 26.514 22.3236 20.826 21.3748 20.4174 20.0206 18.0323 17.1466 16.7836 16.6705 15.7304 24.4218 39.3158 18.7337 17.4243 16.2277 15.5485 15.3175 14.6139 12.9014 11.5989 11.2868 10.4942
threshold=5.7707066850663411 1.0000000180025095e-35 1.0000000180025095e-35 -2.0433714452813492 10.000000000000002 1.0000000180025095e-35 1.0000000180025095e-35 63.571370262364326 20.275890256272309 3.1334155752460826 1.0000000180025095e-35 1.0000000180025095e-35 0.90504740660962368 3.5000000000000004 1.0000000180025095e-35 82.500000000000014 0.96845214267207858 57.500000000000007 1.0000000180025095e-35 1.0000000180025095e-35 20.000000000000004 62.500000000000007 17.880490767851843 0.97234109432608939 -6.7333383622683964 17.500000000000004 1.0000000180025095e-35 1.5000000000000002 23.385399941876241 4.7245385655626704
decision_type=2 2 2 10 2 2 2 8 10 8 2 2 2 2 2 2 2 2 2 2 2 2 10 2 8 2 2 2 2 2
left_child=2 4 3 29 7 6 15 25 28 10 -5 -8 -4 24 -12 -6 -10 23 19 21 -21 -19 -20 -3 -14 -2 -26 -9 -7 -1
right_child=1 17 12 9 5 8 11 27 16 -11 14 -13 13 -15 -16 -17 -18 18 22 20 -22 -23 -24 -25 26 -27 -28 -29 -30 -31
leaf_value=-0.0087719286674475747 0.0093830085210365212 -0.0083522705876648111 -0.020534041898912898 0.011329299398881722 0.010887096395022885 -0.0061375964680535728 0.035689537545452767 0.018228117575263974 -0.0020229305547065889 -0.002127572294253359 0.0010940200281533 0.0067866570267019165 -0.012110477107137153 -0.016308729061772831 0.0079539238906401501 -0.01404203705831528 0.011604569805605064 0.015895021346246811 -0.0080132017844603276 0.0031494414484261792 0.036058743253520265 -0.0045982101096032537 0.00063269293091442781 0.00078226544100783104 0.00081823048224948392 3.1968705081802991e-05 -0.002642278521772028 -0.0091098230881335764 0.022282347615606587 0.0064641189397055005
leaf_weight=1078.255857616663 477.98758251965046 1313.3804885745049 152.34513320028782 753.09182460606098 1567.250129327178 585.05639111995697 246.62041866779327 335.81507511436939 312.9327417910099 2289.8949685841799 4940.8040408045053 87.917202785611153 376.97741976380348 227.84575907886028 1123.5388036668301 67.998912170529366 741.75193010270596 141.50483532249928 751.10281094908714 65.63584691286087 150.6642544567585 377.07546745240688 1918.4373576939106 706.69567894935608 3407.8909519165754 3358.3039947599173 12485.487405210733 40.663718417286873 35.557356134057045 121.65635937452316
leaf_count=4584 1920 5307 621 3029 6338 2363 998 1390 1256 9218 19869 353 1517 919 4514 273 2975 569 3023 265 612 1517 7716 2838 13764 13488 50369 164 143 510
internal_value=0 0.00243371 -0.00119872 0.000911496 0.00525003 0.00844675 0.0129876 0.00247087 0.00307335 0.00198392 0.00337237 0.0282857 -0.00250799 -0.00233728 0.0023743 0.00981196 0.00751574 -0.00163699 0.000423736 0.00850048 0.026363 0.000917369 -0.00178329 -0.00513313 -0.00213756 0.00121224 -0.00189712 0.0151266 -0.00439565 -0.00718145
internal_weight=40240.1 13282.4 26957.8 10307.2 7857.86 3645.09 1969.79 4212.77 1675.3 9107.33 6817.43 334.538 16650.5 16498.2 6064.34 1635.25 1054.68 5424.5 3404.42 734.88 216.3 518.58 2669.54 2020.08 16270.4 3836.29 15893.4 376.479 620.614 1199.91
internal_count=162422 53508 108914 41724 31661 14699 7962 16962 6737 36630 27412 1351 67190 66569 24383 6611 4231 21847 13702 2963 877 2086 10739 8145 65650 15408 64133 1554 2506 5094
is_linear=0
shrinkage=0.05


Tree=25
num_leaves=31
num_cat=0
split_feature=43 1 45 42 33 0 15 13 27 45 29 0 16 37 2 45 33 43 45 36 42 33 16 5 16 13 22 33 5 43
split_gain=71.2562 50.6969 73.7958 44.6963 69.0576 39.9748 68.64 51.0727 37.1901 28.2071 32.114 23.2218 22.3812 18.1145 32.1387 17.6368 17.0628 24.746 16.0785 14.199 15.1339 13.9811 16.2979 12.1997 11.9542 10.049 10.7464 23.9816 10.2278 9.91325
threshold=-17.78313848179867 1.0000000180025095e-35 11.104242426185957 1.0000000180025095e-35 8.922127956695947 2.5000000000000004 1.0000000180025095e-35 1.0000000180025095e-35 1.0000000180025095e-35 -16.482098161140964 1.0000000180025095e-35 2.5000000000000004 36.802699516103488 1.0000000180025095e-35 20.000000000000004 11.104242426185957 3.4650189487196119 0.43544844256109833 12.021690090795277 30.500000000000004 1.5000000000000002 6.4209642163454603 8.0906263413448389 22.500000000000004 51.809880620393095 1.0000000180025095e-35 inf 0.20918618141759773 37.500000000000007 -3.9083790669474423
decision_type=10 2 8 2 2 2 2 2 2 10 2 2 10 2 2 10 2 10 8 2 2 2 8 2 10 2 8 2 2 10
left_child=21 2 16 4 8 6 7 -4 11 -6 -11 -3 -7 19 -15 -8 17 -2 -10 20 -5 22 23 -1 -19 26 28 -28 -24 -18
right_child=1 3 5 13 9 12 15 -9 18 10 -12 -13 -14 14 -16 -17 29 24 -20 -21 -22 -23 25 -25 -26 -27 27 -29 -30 -31
leaf_value=-0.0032044105597945857 -0.0072297293935721686 -0.00092013194480853808 0.033577456418721549 -0.004787559270958636 -9.5270598983201337e-05 -0.017150224826526624 0.00049155510156433243 0.011088728141229159 0.0017036192625454237 0.018102899786860954 0.0055453478542591339 -0.0074721177640969545 0.01611617550831957 0.045960759776906848 -0.00019141353696959751 0.012259753219904943 0.00024466609642534546 0.0067418975723602965 0.0081868690424024958 0.011670392153935359 -0.011982156269879453 -0.0046207916403166859 -0.0042482180555183649 -0.024203371873103952 -0.015569372533481857 -0.017592690062343274 0.0022302483876839472 -0.029595456279623705 0.016731405305014265 0.0076227639642157926
leaf_weight=92.811079293489456 1280.1993188112974 17549.898977398872 531.41641771793365 2796.1971547007561 831.33609285950661 181.03024888038635 767.35399781167507 499.47372572124004 3625.3531531691551 871.96299041807652 1264.638067856431 1468.2145889848471 67.744366228580475 38.628029108047485 742.98844774067402 554.8542115688324 1038.4911926537752 615.80844388902187 1313.4658919125795 105.13188840448856 1014.0256266593933 1067.2036109268665 145.67728471755981 363.34832918643951 64.436387464404106 181.55326670408249 135.58012539148331 100.43373970687389 92.909895539283752 830.59823499619961
leaf_count=383 5177 70673 2224 11295 3338 728 3081 2015 14590 3533 5077 5911 272 155 2991 2224 4183 2474 5270 423 4100 4348 623 1530 259 798 570 456 388 3333
internal_value=0 0.000504368 0.00455125 -0.000317244 0.000466253 0.0110475 0.0130705 0.0227513 -0.000423158 0.00766007 0.0106996 -0.00142895 -0.00786294 -0.00481834 0.00208138 0.00547331 0.000122786 -0.00312171 0.00343925 -0.00620867 -0.00671804 -0.00878959 -0.0127367 -0.0200566 0.00453531 -0.00754898 -0.00357283 -0.0111697 0.00374865 0.00355245
internal_weight=40232.8 38053.2 6431.41 31621.8 26924.9 2601.87 2353.1 1030.89 23956.9 2967.94 2136.6 19018.1 248.775 4696.97 781.616 1322.21 3829.53 1960.44 4938.82 3915.35 3810.22 2179.52 1112.31 456.159 680.245 656.154 474.601 236.014 238.587 1869.09
internal_count=162422 153326 25970 127356 108392 10544 9544 4239 96444 11948 8610 76584 1000 18964 3146 5305 15426 7910 19860 15818 15395 9096 4748 1913 2733 2835 2037 1026 1011 7516
is_linear=0
shrinkage=0.05


Tree=26
num_leaves=31
num_cat=0
split_feature=43 19 10 1 27 19 19 0 44 27 18 42 0 36 19 16 36 29 43 32 22 13 12 44 43 0 12 19 43 45
split_gain=64.6001 72.4919 39.0835 35.6968 36.4278 60.775 30.2675 32.2028 29.3801 22.9213 19.6815 18.5495 15.4503 13.8227 13.1817 14.962 10.1101 11.9984 9.03036 14.5569 8.92318 8.56226 10.8806 8.78691 8.36036 7.77196 14.6705 7.74 7.42948 13.5077
threshold=-18.880338981648201 inf 20.000000000000004 22.500000000000004 1.0000000180025095e-35 3.2431189875083208 38.821571942270445 2.5000000000000004 -15.427934818717903 1.0000000180025095e-35 1.5000000000000002 1.0000000180025095e-35 1.5000000000000002 36.500000000000007 4.9087513780841538 4.5888360395035512 3.5000000000000004 2.5000000000000004 -3.279789029129065 1.0000000180025095e-35 1.0000000180025095e-35 1.0000000180025095e-35 27.861923931738939 -31.658080514058494 3.3158418652723789 1.0000000180025095e-35 26.745249886137067 -10.367781312130999 9.8832854635039897 -1.375478338392264
decision_type=10 8 2 2 2 10 10 2 8 2 2 2 2 2 10 8 2 2 10 2 8 2 10 8 10 2 8 8 10 8
left_child=14 3 9 4 6 10 7 -2 -7 11 -6 12 -3 -8 15 16 17 27 -4 -20 21 23 -23 -17 -11 26 -22 -1 29 -5
right_child=1 2 18 28 5 8 13 -9 -10 24 -12 -13 -14 -15 -16 20 -18 -19 19 -21 25 22 -24 -25 -26 -27 -28 -29 -30 -31
leaf_value=-0.026164904263186163 -9.0096204830636311e-05 0.035430533017210442 -0.016645728217117278 -0.0019066151361350804 0.0034051260595841107 -0.0095365389353827563 0.010312062821081259 -0.0070489120265325965 0.0023917916802968157 -0.019915222797754963 0.016458499448032873 0.0092296398923130841 0.0099473796631051447 0.041094536360453057 0.0043341962911524192 -0.011757145454497915 0.011365503880069402 -0.042665219460851798 0.053494273526165093 -0.004475044985233087 -0.023324388920861649 -0.025034719859604745 0.0031941892956225968 0.0045304278881206674 0.011369129619008487 -0.0042213235101836374 0.0237838398968356 -0.012074882312783475 -0.0018046330459992625 -0.011075682945929713
leaf_weight=125.54150475561619 23639.181527107954 317.08844137191772 93.918529659509659 686.63610850274563 417.43296749889851 555.06295961141586 292.47023010253906 1788.6618635505438 7004.6531293094158 39.386428892612457 1024.4101456552744 151.77282270789146 81.571446910500526 42.929333984851837 171.39495266973972 103.49982969462872 32.330595776438713 41.260369032621384 12.644428402185438 46.679187402129173 175.42303965985775 78.740461707115173 54.390756636857986 389.04763378202915 42.854757040739059 189.28513392806053 16.393922209739685 643.84151224792004 939.66647881269455 1021.435254663229
leaf_count=514 95197 1373 378 2780 1678 2241 1174 7199 28164 158 4139 619 331 173 695 419 133 182 51 188 781 339 226 1616 172 814 68 2683 3804 4133
internal_value=0 0.000461804 0.015481 0.000144557 0.000572147 0.00331069 -0.000382838 -0.000581822 0.00150821 0.020982 0.012719 0.0246657 0.0303794 0.0145111 -0.00870844 -0.00994566 -0.0148957 -0.0160174 -0.00689472 0.00773382 -0.00574074 -0.00196415 -0.0131912 0.000989698 -0.00307197 -0.0117888 -0.0189364 -0.0144699 -0.00544893 -0.00742229
internal_weight=40219.6 38198.5 785.916 37412.5 34764.8 9001.56 25763.2 25427.8 7559.72 632.674 1441.84 550.433 398.66 335.4 2021.15 1849.75 842.974 810.643 153.242 59.3236 1006.78 625.679 133.131 492.547 82.2412 381.102 191.817 769.383 2647.74 1708.07
internal_count=162422 153952 3270 150682 139965 36222 103743 102396 30405 2653 5817 2323 1704 1347 8470 7775 3512 3379 617 239 4263 2600 565 2035 330 1663 849 3197 10717 6913
is_linear=0
shrinkage=0.05


end of trees

feature_importances:
Column_43=76
Column_33=74
Column_39=55
Column_44=55
Column_19=54
Column_45=52
Column_42=37
Column_0=33
Column_18=33
Column_1=32
Column_12=32
Column_5=29
Column_16=24
Column_11=22
Column_36=22
Column_4=19
Column_27=18
Column_7=14
Column_22=14
Column_31=14
Column_25=11
Column_23=10
Column_29=10
Column_13=9
Column_32=8
Column_24=7
Column_35=7
Column_15=6
Column_3=5
Column_10=5
Column_37=5
Column_20=3
Column_41=3
Column_17=2
Column_30=2
Column_40=2
Column_2=1
Column_14=1
Column_21=1
Column_28=1
Column_34=1
Column_38=1

parameters:
[boosting: gbdt]
[objective: binary]
[metric: binary_logloss]
[tree_learner: serial]
[device_type: cpu]
[data_sample_strategy: bagging]
[data: ]
[valid: ]
[num_iterations: 500]
[learning_rate: 0.05]
[num_leaves: 31]
[num_threads: 8]
[seed: 0]
[deterministic: 0]
[force_col_wise: 0]
[force_row_wise: 0]
[histogram_pool_size: -1]
[max_depth: 6]
[min_data_in_leaf: 50]
[min_sum_hessian_in_leaf: 0.001]
[bagging_fraction: 0.8]
[pos_bagging_fraction: 1]
[neg_bagging_fraction: 1]
[bagging_freq: 0]
[bagging_seed: 3]
[bagging_by_query: 0]
[feature_fraction: 0.7]
[feature_fraction_bynode: 1]
[feature_fraction_seed: 2]
[extra_trees: 0]
[extra_seed: 6]
[early_stopping_round: 0]
[early_stopping_min_delta: 0]
[first_metric_only: 0]
[max_delta_step: 0]
[lambda_l1: 1]
[lambda_l2: 1]
[linear_lambda: 0]
[min_gain_to_split: 0]
[drop_rate: 0.1]
[max_drop: 50]
[skip_drop: 0.5]
[xgboost_dart_mode: 0]
[uniform_drop: 0]
[drop_seed: 4]
[top_rate: 0.2]
[other_rate: 0.1]
[min_data_per_group: 100]
[max_cat_threshold: 32]
[cat_l2: 10]
[cat_smooth: 10]
[max_cat_to_onehot: 4]
[top_k: 20]
[monotone_constraints: ]
[monotone_constraints_method: basic]
[monotone_penalty: 0]
[feature_contri: ]
[forcedsplits_filename: ]
[refit_decay_rate: 0.9]
[cegb_tradeoff: 1]
[cegb_penalty_split: 0]
[cegb_penalty_feature_lazy: ]
[cegb_penalty_feature_coupled: ]
[path_smooth: 0]
[interaction_constraints: ]
[verbosity: -1]
[saved_feature_importance_type: 0]
[use_quantized_grad: 0]
[num_grad_quant_bins: 4]
[quant_train_renew_leaf: 0]
[stochastic_rounding: 1]
[linear_tree: 0]
[max_bin: 255]
[max_bin_by_feature: ]
[min_data_in_bin: 3]
[bin_construct_sample_cnt: 200000]
[data_random_seed: 1]
[is_enable_sparse: 1]
[enable_bundle: 1]
[use_missing: 1]
[zero_as_missing: 0]
[feature_pre_filter: 1]
[pre_partition: 0]
[two_round: 0]
[header: 0]
[label_column: ]
[weight_column: ]
[group_column: ]
[ignore_column: ]
[categorical_feature: ]
[forcedbins_filename: ]
[precise_float_parser: 0]
[parser_config_file: ]
[objective_seed: 5]
[num_class: 1]
[is_unbalance: 0]
[scale_pos_weight: 1]
[sigmoid: 1]
[boost_from_average: 1]
[reg_sqrt: 0]
[alpha: 0.9]
[fair_c: 1]
[poisson_max_delta_step: 0.7]
[tweedie_variance_power: 1.5]
[lambdarank_truncation_level: 30]
[lambdarank_norm: 1]
[label_gain: ]
[lambdarank_position_bias_regularization: 0]
[eval_at: ]
[multi_error_top_k: 1]
[auc_mu_weights: ]
[num_machines: 1]
[local_listen_port: 12400]
[time_out: 120]
[machine_list_filename: ]
[machines: ]
[gpu_platform_id: -1]
[gpu_device_id: -1]
[gpu_use_dp: 0]
[num_gpu: 1]

end of parameters

pandas_categorical:null
